{"learner":{"attributes":{"best_iteration":"19","best_ntree_limit":"20","best_score":"35780.36404614819","scikit_learn":"{\"n_estimators\": 100, \"objective\": \"reg:squarederror\", \"max_depth\": null, \"max_leaves\": null, \"max_bin\": null, \"grow_policy\": null, \"learning_rate\": 0.2, \"verbosity\": null, \"booster\": \"dart\", \"tree_method\": null, \"gamma\": null, \"min_child_weight\": null, \"max_delta_step\": null, \"subsample\": null, \"sampling_method\": null, \"colsample_bytree\": null, \"colsample_bylevel\": null, \"colsample_bynode\": null, \"reg_alpha\": 1, \"reg_lambda\": 0.1, \"scale_pos_weight\": null, \"base_score\": null, \"missing\": NaN, \"num_parallel_tree\": null, \"random_state\": null, \"n_jobs\": null, \"monotone_constraints\": null, \"interaction_constraints\": null, \"importance_type\": null, \"gpu_id\": null, \"validate_parameters\": null, \"predictor\": null, \"enable_categorical\": false, \"feature_types\": null, \"max_cat_to_onehot\": null, \"max_cat_threshold\": null, \"eval_metric\": null, \"early_stopping_rounds\": 70, \"callbacks\": null, \"evals_result_\": {\"validation_0\": {\"rmse\": [91751.00118501349, 74810.91649943616, 62239.157365909115, 53082.29893647681, 46540.39418848154, 42145.24197579897, 38988.19960204572, 37602.18050532781, 36653.80622626288, 36129.48728876598, 36006.79577251726, 35851.74896400122, 35809.220741723424, 35936.39802502033, 35888.44191723973, 35868.09866354964, 36126.37699123856, 35917.858609389456, 36025.97637387423, 35780.36404614819, 35840.30911669017, 35926.16158593809, 35946.20981954537, 36067.95088557823, 35994.17628501881, 35931.77873686176, 36063.648226710015, 35880.68007484369, 35900.095800782285, 35802.18989196043, 35816.40986213798, 35789.2813460982, 35903.56467405156, 36193.15118387307, 36550.63357792088, 36535.64324861146, 36495.38145452679, 36496.49103530968, 36487.656765469255, 36421.78265331477, 36366.55395880661, 36297.63593475689, 36345.17137016906, 36292.01461365618, 36217.66886324, 36220.650865354146, 36165.79217110938, 36233.08261762559, 36283.44926912294, 36293.612124838524, 36298.24751692337, 36380.694840073134, 36451.94917844314, 36386.07849233928, 36409.09839981752, 36415.84830674207, 36387.350424530116, 36434.44229329008, 36529.58479194038, 36527.633541311865, 36496.173201509795, 36659.10861750176, 36661.611039526266, 36533.0441465189, 36701.76997978746, 36649.555693398775, 36634.388056913216, 36609.58234251534, 36577.66863527567, 36640.497931639205, 36642.674309453214, 36649.18567415607, 36627.17003856842, 36660.27233625885, 36666.54348739551, 36703.374193578005, 36705.55685744672, 36804.338646327844, 36793.39224125915, 36828.736165331706, 36845.84016079443, 36902.236216393445, 36900.20493409936, 36890.401523849105, 36870.527296088745, 36886.07418018212, 36841.14758682564, 36885.52122028596, 36872.78444832105, 36847.35641409727]}}, \"_estimator_type\": \"regressor\"}"},"feature_names":["n_productos","n_productos_distintos","peso_total","peso_media","peso_mediana","volumen_total","volumen_media","volumen_mediana","densidad_total","densidad_mediana"],"feature_types":["float","int","float","float","float","float","float","float","float","float"],"gradient_booster":{"gbtree":{"model":{"gbtree_model_param":{"num_parallel_tree":"1","num_trees":"90","size_leaf_vector":"0"},"tree_info":[0,0,0,0,0,0,0,0,0,0,0,0,0,0,0,0,0,0,0,0,0,0,0,0,0,0,0,0,0,0,0,0,0,0,0,0,0,0,0,0,0,0,0,0,0,0,0,0,0,0,0,0,0,0,0,0,0,0,0,0,0,0,0,0,0,0,0,0,0,0,0,0,0,0,0,0,0,0,0,0,0,0,0,0,0,0,0,0,0,0],"trees":[{"base_weights":[5.129445E4,4.53731E4,1.8700002E6,3.230133E4,4.1996028E5,1.678135E6,5.71317E6,2.1559834E4,9.7405164E4,3.2402238E5,7.083546E5,1.4044266E6,2.8084468E6,1.3604584E4,4.266674E4,8.9610164E4,3.463997E5,2.3582956E5,3.6904038E5,6.9576775E5,2.0118276E6,8.11267E5,1.4721636E6,5.23635E5,2.9562908E6,9.2583955E3,2.0137799E4,3.3875664E4,5.046759E4,7.611083E4,1.4302381E5,2.529548E5,4.2245447E5,6.237832E5,2.1597688E5,3.6664503E5,1.3090895E6,6.5876194E5,1.02935594E6,4.335476E5,1.0770725E6,1.4384376E6,1.7036614E6,1.7454531E6,3.0297868E6,7.3817817E3,1.6214676E4,1.8901773E4,2.7789902E4,3.674978E4,2.2995895E4,3.4921535E4,5.538093E4,7.4430734E4,2.638373E5,1.12787016E5,1.6687672E5,4.4022494E5,2.1632333E5,6.4847625E5,3.475049E5,8.026223E5,3.9764638E5,1.0025608E5,2.3956408E5,3.405979E5,4.3891803E5,3.691568E5,7.0539406E5,1.1787654E6,6.970996E5,1.3714276E6,7.314276E5,1.1458056E6,1.4536734E6,1.7940978E6,1.0472714E6,2.8799995E6,3.7485705E6],"categories":[],"categories_nodes":[],"categories_segments":[],"categories_sizes":[],"default_left":[1,1,1,1,1,1,0,1,1,1,1,1,1,1,1,1,1,1,1,1,0,1,1,0,1,1,1,1,1,1,1,1,1,1,1,1,0,1,1,0,1,1,1,0,1,0,0,0,0,0,0,0,0,0,0,0,0,0,0,0,0,0,0,0,0,0,0,0,0,0,0,0,0,0,0,0,0,0,0],"id":0,"left_children":[1,3,5,7,9,11,-1,13,15,17,19,21,23,25,27,29,31,33,35,37,-1,39,41,-1,43,45,47,49,51,53,55,57,59,61,63,65,-1,67,69,-1,71,73,75,-1,77,-1,-1,-1,-1,-1,-1,-1,-1,-1,-1,-1,-1,-1,-1,-1,-1,-1,-1,-1,-1,-1,-1,-1,-1,-1,-1,-1,-1,-1,-1,-1,-1,-1,-1],"loss_changes":[2.8903764E14,1.3099566E14,6.326621E13,1.8077792E13,2.4936312E13,2.5314688E13,0E0,3.7258957E12,7.1027707E12,2.6795563E12,3.5531543E12,2.576561E12,5.2837074E12,4.575915E11,4.1637695E11,2.5587058E12,7.788938E11,1.751037E12,9.610115E11,2.6863007E12,0E0,6.6614146E11,2.2416877E11,0E0,8.149365E11,1.2632824E11,6.0840215E10,8.922517E10,2.4561477E11,8.9190407E11,5.145939E11,3.34161E11,1.0125123E12,4.1699036E11,5.9290786E11,8.267183E11,0E0,2.6897904E12,1.0149188E12,0E0,3.1683196E11,7.0179095E10,2.335724E11,0E0,4.3848093E11,0E0,0E0,0E0,0E0,0E0,0E0,0E0,0E0,0E0,0E0,0E0,0E0,0E0,0E0,0E0,0E0,0E0,0E0,0E0,0E0,0E0,0E0,0E0,0E0,0E0,0E0,0E0,0E0,0E0,0E0,0E0,0E0,0E0,0E0],"parents":[2147483647,0,0,1,1,2,2,3,3,4,4,5,5,7,7,8,8,9,9,10,10,11,11,12,12,13,13,14,14,15,15,16,16,17,17,18,18,19,19,21,21,22,22,24,24,25,25,26,26,27,27,28,28,29,29,30,30,31,31,32,32,33,33,34,34,35,35,37,37,38,38,40,40,41,41,42,42,44,44],"right_children":[2,4,6,8,10,12,-1,14,16,18,20,22,24,26,28,30,32,34,36,38,-1,40,42,-1,44,46,48,50,52,54,56,58,60,62,64,66,-1,68,70,-1,72,74,76,-1,78,-1,-1,-1,-1,-1,-1,-1,-1,-1,-1,-1,-1,-1,-1,-1,-1,-1,-1,-1,-1,-1,-1,-1,-1,-1,-1,-1,-1,-1,-1,-1,-1,-1,-1],"split_conditions":[3.02825E2,5.1045E1,3.9497915E6,1.442E1,3.3675338E5,1.8692898E6,1.142634E6,1.161263E4,2.4142125E5,1.4949636E5,9.955E2,7.8409E5,1.5E0,2.051E0,1.45E1,7.35E1,5.4487143E0,1.5E0,1.9061224E-3,9.228587E5,4.0236553E5,4.5E2,4.8014252E2,1.04727E5,3.48575E2,4.204355E3,6.2679996E0,1.1695652E4,4.355E0,1.54889E5,9.45428E4,1.7699863E3,5.612E0,6.7545E1,1.045E2,2.8364297E5,2.618179E5,1.3967887E-4,1.1936491E6,8.670952E4,8.5E2,1.5E0,1.494E3,3.4909062E5,2.599E3,1.4763563E3,3.2429353E3,3.7803547E3,5.5579805E3,7.3499565E3,4.599179E3,6.984307E3,1.1076187E4,1.4886147E4,5.2767465E4,2.2557404E4,3.3375344E4,8.804499E4,4.3264668E4,1.2969525E5,6.9500984E4,1.6052447E5,7.952927E4,2.0051217E4,4.7912816E4,6.8119586E4,8.778361E4,7.383137E4,1.4107881E5,2.3575308E5,1.3941992E5,2.7428553E5,1.4628553E5,2.2916112E5,2.907347E5,3.5881956E5,2.0945428E5,5.7599994E5,7.497141E5],"split_indices":[2,2,5,2,5,5,0,5,5,5,0,5,1,2,0,0,3,0,9,5,0,0,2,0,2,5,2,7,2,6,5,6,4,2,0,5,0,8,5,0,0,0,0,0,0,0,0,0,0,0,0,0,0,0,0,0,0,0,0,0,0,0,0,0,0,0,0,0,0,0,0,0,0,0,0,0,0,0,0],"split_type":[0,0,0,0,0,0,0,0,0,0,0,0,0,0,0,0,0,0,0,0,0,0,0,0,0,0,0,0,0,0,0,0,0,0,0,0,0,0,0,0,0,0,0,0,0,0,0,0,0,0,0,0,0,0,0,0,0,0,0,0,0,0,0,0,0,0,0,0,0,0,0,0,0,0,0,0,0,0,0],"sum_hessian":[2.684E4,2.6753E4,8.7E1,2.5851E4,9.02E2,8.3E1,4E0,2.219E4,3.661E3,6.77E2,2.25E2,6.7E1,1.6E1,1.6116E4,6.074E3,3.55E3,1.11E2,2.29E2,4.48E2,2.23E2,2E0,7E0,6E1,1E0,1.5E1,9.678E3,6.438E3,2.856E3,3.218E3,2.834E3,7.16E2,5E1,6.1E1,1.1E1,2.18E2,4.47E2,1E0,2.01E2,2.2E1,3E0,4E0,5.3E1,7E0,1E0,1.4E1,7.622E3,2.056E3,5.543E3,8.95E2,2.259E3,5.97E2,7.73E2,2.445E3,2.809E3,2.5E1,3.16E2,4E2,8E0,4.2E1,1.5E1,4.6E1,6E0,5E0,3.7E1,1.81E2,3.29E2,1.18E2,2.8E1,1.73E2,1.5E1,7E0,2E0,2E0,3E0,5E1,6E0,1E0,1.2E1,2E0],"tree_param":{"num_deleted":"0","num_feature":"10","num_nodes":"79","size_leaf_vector":"0"}},{"base_weights":[4.106065E4,3.6306766E4,1.5011869E6,2.6277424E4,3.498974E5,1.2634626E6,3.5249385E6,1.835554E4,8.9168914E4,2.6686306E5,5.88288E5,1.125919E6,2.0835375E6,2.5928388E6,4.598405E6,1.1534433E4,3.773061E4,8.1388055E4,2.6463034E5,2.0329431E5,3.0373328E5,1.0963301E6,5.6023244E5,6.5615844E5,1.1795415E6,4.2842862E5,2.2431678E6,1.4280981E6,2.84209E6,8.2290625E3,1.8524586E4,2.9861797E4,4.6291508E4,7.055623E4,1.3649358E5,3.4580047E5,1.9411177E5,1.8782727E5,5.0118922E5,3.0148012E5,1.0710732E6,9.6144575E5,1.6286224E6,5.3333344E5,8.165714E5,3.4963512E5,8.719159E5,1.143751E6,1.3453979E6,5.9171724E3,1.3123694E4,1.6627326E4,2.3414082E4,3.3146797E4,2.0598225E4,3.9378766E4,5.479577E4,6.8528164E4,2.1966897E5,1.19565695E5,1.9087792E5,1.3968577E5,4.0624316E5,1.1441065E5,2.5610342E5,1.1549987E5,2.0798095E5,5.57498E5,-6.1389793E4,2.79206E5,3.5342366E5,3.2076906E4,5.473093E5,8.687256E5,-1.15835836E5,1.0145616E6,3.9064816E5,9.240368E5,1.1557836E6,1.3896674E6,8.5685844E5],"categories":[],"categories_nodes":[],"categories_segments":[],"categories_sizes":[],"default_left":[1,1,1,1,1,1,1,1,1,1,1,1,1,1,0,1,1,1,1,1,1,1,1,1,1,0,0,0,0,1,1,1,1,1,1,1,1,1,1,1,0,0,0,1,1,0,1,1,1,0,0,0,0,0,0,0,0,0,0,0,0,0,0,0,0,0,0,0,0,0,0,0,0,0,0,0,0,0,0,0,0],"id":1,"left_children":[1,3,5,7,9,11,13,15,17,19,21,23,25,27,-1,29,31,33,35,37,39,41,43,45,47,-1,-1,-1,-1,49,51,53,55,57,59,61,63,65,67,69,-1,-1,-1,71,73,-1,75,77,79,-1,-1,-1,-1,-1,-1,-1,-1,-1,-1,-1,-1,-1,-1,-1,-1,-1,-1,-1,-1,-1,-1,-1,-1,-1,-1,-1,-1,-1,-1,-1,-1],"loss_changes":[1.8629889E14,8.414046E13,4.145796E13,1.2915717E13,1.6396012E13,8.574785E12,7.9129655E12,3.0428082E12,3.957179E12,1.4354963E12,2.9902368E12,1.6128273E12,2.83657E12,1.0747149E12,0E0,3.934425E11,4.037154E11,1.6566704E12,6.9791226E11,1.0323545E12,6.4043667E11,6.403706E11,1.3568741E12,4.3906997E11,2.0287848E11,0E0,0E0,0E0,0E0,1.3082716E11,5.0677285E10,9.500072E10,1.6857065E11,7.0041836E11,4.176085E11,7.056843E11,3.236566E11,3.111408E11,3.5505046E11,4.391604E11,0E0,0E0,0E0,1.2879533E12,9.388771E11,0E0,2.4183282E11,2.5652363E10,9.9360965E10,0E0,0E0,0E0,0E0,0E0,0E0,0E0,0E0,0E0,0E0,0E0,0E0,0E0,0E0,0E0,0E0,0E0,0E0,0E0,0E0,0E0,0E0,0E0,0E0,0E0,0E0,0E0,0E0,0E0,0E0,0E0,0E0],"parents":[2147483647,0,0,1,1,2,2,3,3,4,4,5,5,6,6,7,7,8,8,9,9,10,10,11,11,12,12,13,13,15,15,16,16,17,17,18,18,19,19,20,20,21,21,22,22,23,23,24,24,29,29,30,30,31,31,32,32,33,33,34,34,35,35,36,36,37,37,38,38,39,39,43,43,44,44,46,46,47,47,48,48],"right_children":[2,4,6,8,10,12,14,16,18,20,22,24,26,28,-1,30,32,34,36,38,40,42,44,46,48,-1,-1,-1,-1,50,52,54,56,58,60,62,64,66,68,70,-1,-1,-1,72,74,-1,76,78,80,-1,-1,-1,-1,-1,-1,-1,-1,-1,-1,-1,-1,-1,-1,-1,-1,-1,-1,-1,-1,-1,-1,-1,-1,-1,-1,-1,-1,-1,-1,-1,-1],"split_conditions":[3.02825E2,5.4155E1,2.598975E6,1.5985E1,3.3675338E5,1.8692898E6,3.9497915E6,1.4094502E4,2.4142125E5,1.6728186E5,1.995E-1,7.8409E5,1.5E0,2.5E0,9.19681E5,5.250032E3,2.05E1,9.65E1,1.2539691E-4,6.125E1,1.9061224E-3,9.465E2,9.228587E5,4.5E2,1.1705E3,8.568573E4,4.4863356E5,2.8561962E5,5.68418E5,1.921E0,4.5530005E0,1.02165E4,3.6536562E4,1.57785E5,1.3613192E5,1.5625E-1,6.723E0,9.64485E4,9.7545E1,2.8364297E5,2.1421466E5,1.9228916E5,3.2572447E5,8.420585E-5,1.6709902E6,6.992702E4,1.85E3,1.5E0,1.494E3,1.1834344E3,2.624739E3,3.3254653E3,4.6828164E3,6.6293594E3,4.119645E3,7.8757534E3,1.0959154E4,1.3705633E4,4.3933793E4,2.3913139E4,3.8175586E4,2.7937154E4,8.124863E4,2.288213E4,5.1220684E4,2.3099975E4,4.159619E4,1.114996E5,-1.2277959E4,5.58412E4,7.0684734E4,6.4153813E3,1.0946187E5,1.7374512E5,-2.3167168E4,2.0291233E5,7.812963E4,1.8480736E5,2.3115673E5,2.7793347E5,1.7137169E5],"split_indices":[2,2,5,2,5,5,5,5,5,5,3,5,1,1,0,5,0,0,8,3,9,0,5,0,0,0,0,0,0,2,2,6,5,6,5,3,3,5,2,5,0,0,0,9,5,0,0,0,0,0,0,0,0,0,0,0,0,0,0,0,0,0,0,0,0,0,0,0,0,0,0,0,0,0,0,0,0,0,0,0,0],"split_type":[0,0,0,0,0,0,0,0,0,0,0,0,0,0,0,0,0,0,0,0,0,0,0,0,0,0,0,0,0,0,0,0,0,0,0,0,0,0,0,0,0,0,0,0,0,0,0,0,0,0,0,0,0,0,0,0,0,0,0,0,0,0,0,0,0,0,0,0,0,0,0,0,0,0,0,0,0,0,0,0,0],"sum_hessian":[2.684E4,2.6753E4,8.7E1,2.5924E4,8.29E2,7.8E1,9E0,2.3024E4,2.9E3,6.15E2,2.14E2,6.7E1,1.1E1,5E0,4E0,1.7029E4,5.995E3,2.777E3,1.23E2,2.26E2,3.89E2,1.1E1,2.03E2,7E0,6E1,1E0,1E1,1E0,4E0,1.1562E4,5.467E3,3.124E3,2.871E3,2.321E3,4.56E2,5.7E1,6.6E1,2.15E2,1.1E1,3.88E2,1E0,9E0,2E0,1.84E2,1.9E1,3E0,4E0,5E1,1E1,7.853E3,3.709E3,3.939E3,1.528E3,2.306E3,8.18E2,1.584E3,1.287E3,2.29E3,3.1E1,3.48E2,1.08E2,1.3E1,4.4E1,2.9E1,3.7E1,4.7E1,1.68E2,1E1,1E0,2.72E2,1.16E2,5E0,1.79E2,1.8E1,1E0,3E0,1E0,3E0,4.7E1,9E0,1E0],"tree_param":{"num_deleted":"0","num_feature":"10","num_nodes":"81","size_leaf_vector":"0"}},{"base_weights":[3.2867734E4,2.9051518E4,1.2049958E6,2.0536121E4,2.6599588E5,1.0130116E6,2.8394422E6,1.3248269E4,6.032268E4,2.1502736E5,5.0492547E5,9.025479E5,1.6716438E6,2.0910169E6,3.7011552E6,8.1783247E3,2.5875361E4,5.0761664E4,1.2139708E5,1.7748347E5,2.7817472E5,5.917845E5,3.9170166E5,5.2987E5,9.4507294E5,3.5053253E5,1.7989761E6,1.1684439E6,2.2875358E6,2.9730325E6,4.2530325E6,3.7205977E3,1.0455564E4,1.959619E4,3.1393412E4,3.987511E4,7.014774E4,3.2901728E5,1.0697383E5,1.7213672E5,4.0184525E5,5.2492715E4,2.846713E5,2.6067539E5,6.508045E5,3.3051675E5,6.6007356E5,2.819638E5,7.043874E5,9.201027E5,1.118511E6,2.071181E3,7.533595E3,7.267619E3,1.2361469E4,9.897644E3,2.253326E4,3.1053734E4,1.8983845E5,3.8655484E4,1.6645195E5,6.2453797E4,8.269973E4,4.344407E5,1.6892245E5,9.409195E4,1.7536667E5,1.2948258E5,2.0636111E5,5.350576E5,2.3463327E5,9.498608E4,-1.9108709E4,2.6458578E5,3.6159522E5,3.9141178E5,2.228917E4,7.98052E5,5.1630416E5,3.8768022E5,2.5381702E5,5.516669E5,7.0166244E5,9.1695344E5,4.5827856E5,1.0695175E6,9.0234744E5,1.1754516E6,7.0106594E5],"categories":[],"categories_nodes":[],"categories_segments":[],"categories_sizes":[],"default_left":[1,1,1,1,1,1,1,1,1,1,1,1,1,1,1,1,1,1,1,1,1,1,1,1,1,0,0,0,0,0,0,1,1,1,1,1,1,1,1,1,1,1,1,1,1,1,1,0,1,1,1,0,0,0,0,0,0,0,0,0,0,0,0,0,0,0,0,0,0,0,0,0,0,0,0,0,0,0,0,0,0,0,0,0,0,0,0,0,0],"id":2,"left_children":[1,3,5,7,9,11,13,15,17,19,21,23,25,27,29,31,33,35,37,39,41,43,45,47,49,-1,-1,-1,-1,-1,-1,51,53,55,57,59,61,63,65,67,69,71,73,75,77,79,81,-1,83,85,87,-1,-1,-1,-1,-1,-1,-1,-1,-1,-1,-1,-1,-1,-1,-1,-1,-1,-1,-1,-1,-1,-1,-1,-1,-1,-1,-1,-1,-1,-1,-1,-1,-1,-1,-1,-1,-1,-1],"loss_changes":[1.2005482E14,5.397853E13,2.7043287E13,7.4881287E12,1.1291435E13,5.5312803E12,5.09493E12,1.3973203E12,2.3340085E12,1.808953E12,1.580829E12,1.01333546E12,1.804182E12,6.573565E11,3.8307837E11,1.5809367E11,2.166012E11,7.2933284E11,1.6168366E12,5.6901396E11,4.1651116E11,1.782856E12,1.1456668E12,2.873118E11,1.573619E11,0E0,0E0,0E0,0E0,0E0,0E0,3.311811E10,6.2622007E10,8.329993E10,1.7852871E11,3.4116076E11,1.1953504E11,5.850687E11,4.442376E11,6.8212385E11,2.3469438E11,2.4826528E10,4.1856637E11,4.385643E11,1.5055538E12,2.448944E11,2.0351812E10,0E0,1.7246572E11,4.4363153E10,8.6356525E10,0E0,0E0,0E0,0E0,0E0,0E0,0E0,0E0,0E0,0E0,0E0,0E0,0E0,0E0,0E0,0E0,0E0,0E0,0E0,0E0,0E0,0E0,0E0,0E0,0E0,0E0,0E0,0E0,0E0,0E0,0E0,0E0,0E0,0E0,0E0,0E0,0E0,0E0],"parents":[2147483647,0,0,1,1,2,2,3,3,4,4,5,5,6,6,7,7,8,8,9,9,10,10,11,11,12,12,13,13,14,14,15,15,16,16,17,17,18,18,19,19,20,20,21,21,22,22,23,23,24,24,31,31,32,32,33,33,34,34,35,35,36,36,37,37,38,38,39,39,40,40,41,41,42,42,43,43,44,44,45,45,46,46,48,48,49,49,50,50],"right_children":[2,4,6,8,10,12,14,16,18,20,22,24,26,28,30,32,34,36,38,40,42,44,46,48,50,-1,-1,-1,-1,-1,-1,52,54,56,58,60,62,64,66,68,70,72,74,76,78,80,82,-1,84,86,88,-1,-1,-1,-1,-1,-1,-1,-1,-1,-1,-1,-1,-1,-1,-1,-1,-1,-1,-1,-1,-1,-1,-1,-1,-1,-1,-1,-1,-1,-1,-1,-1,-1,-1,-1,-1,-1,-1],"split_conditions":[3.02825E2,4.9485E1,2.598975E6,4.0937824E4,4.0667044E5,1.8692898E6,3.9497915E6,1.025649E4,3.297E1,2.3232147E5,2.3047857E0,7.8409E5,1.5E0,2.5E0,4.9361615E6,9.87E-1,5.802E0,4.95E1,1.2629018E-4,6.125E1,1.4087066E-4,6.756E1,6.090072E5,4.5E2,4.8014252E2,7.010651E4,3.5979522E5,2.3368878E5,4.5750716E5,5.946065E5,8.506065E5,2.1289302E3,1.5E0,2.2335E0,2.075E1,1.54889E5,7.195767E4,3.6584638E5,1.7471988E5,1.4308381E5,6.7545E1,5.256E1,3.340561E5,5.92025E1,2.861577E-4,2.4836703E-4,1.485E2,5.639276E4,8.5E2,2.6377355E-4,1.494E3,4.1423618E2,1.5067191E3,1.4535238E3,2.4722937E3,1.9795287E3,4.506652E3,6.210747E3,3.796769E4,7.731097E3,3.329039E4,1.249076E4,1.6539945E4,8.688814E4,3.3784492E4,1.881839E4,3.5073336E4,2.5896516E4,4.1272223E4,1.0701152E5,4.6926652E4,1.8997217E4,-3.821742E3,5.2917156E4,7.231905E4,7.828236E4,4.457834E3,1.596104E5,1.03260836E5,7.753605E4,5.0763402E4,1.10333375E5,1.4033248E5,1.8339069E5,9.165571E4,2.139035E5,1.8046948E5,2.3509033E5,1.4021319E5],"split_indices":[2,2,5,5,5,5,5,5,2,5,3,5,1,1,5,2,2,0,8,3,8,2,6,0,2,0,0,0,0,0,0,5,1,2,3,7,5,5,5,5,2,2,5,2,9,9,2,0,0,8,0,0,0,0,0,0,0,0,0,0,0,0,0,0,0,0,0,0,0,0,0,0,0,0,0,0,0,0,0,0,0,0,0,0,0,0,0,0,0],"split_type":[0,0,0,0,0,0,0,0,0,0,0,0,0,0,0,0,0,0,0,0,0,0,0,0,0,0,0,0,0,0,0,0,0,0,0,0,0,0,0,0,0,0,0,0,0,0,0,0,0,0,0,0,0,0,0,0,0,0,0,0,0,0,0,0,0,0,0,0,0,0,0,0,0,0,0,0,0,0,0,0,0,0,0,0,0,0,0,0,0],"sum_hessian":[2.684E4,2.6753E4,8.7E1,2.5825E4,9.28E2,7.8E1,9E0,2.1827E4,3.998E3,7.65E2,1.63E2,6.7E1,1.1E1,5E0,4E0,1.5574E4,6.253E3,3.457E3,5.41E2,4.8E2,2.85E2,9.2E1,7.1E1,7E0,6E1,1E0,1E1,1E0,4E0,2E0,2E0,5.266E3,1.0308E4,2.925E3,3.328E3,2.214E3,1.243E3,3.5E1,5.06E2,4.69E2,1.1E1,8E0,2.77E2,1.4E1,7.8E1,5.8E1,1.3E1,3E0,4E0,5.3E1,7E0,3.676E3,1.59E3,3.857E3,6.451E3,6.8E2,2.245E3,3.321E3,7E0,2.193E3,2.1E1,7.71E2,4.72E2,2.1E1,1.4E1,4.26E2,8E1,2.09E2,2.6E2,6E0,5E0,5E0,3E0,2.2E2,5.7E1,9E0,5E0,3.7E1,4.1E1,3.3E1,2.5E1,4E0,9E0,2E0,2E0,5E0,4.8E1,6E0,1E0],"tree_param":{"num_deleted":"0","num_feature":"10","num_nodes":"89","size_leaf_vector":"0"}},{"base_weights":[2.631302E4,2.3031617E4,9.11739E5,1.6807379E4,2.2050497E5,7.710161E5,2.2950308E6,1.2411715E4,6.5213887E4,1.7362184E5,3.8274716E5,6.9002994E5,1.341188E6,1.6863664E6,2.9961735E6,7.325955E3,2.5373758E4,5.8584414E4,1.693606E5,1.2081446E5,1.9551448E5,5.722933E5,3.5241266E5,4.3769238E5,7.6907556E5,2.8679934E5,1.4427432E6,9.5599956E5,1.8411874E6,2.5797525E6,3.8973428E6,5.0829365E3,1.2070544E4,1.4711671E4,3.0076863E4,4.870666E4,8.9016625E4,1.26671055E5,2.213105E5,3.2286303E5,1.0793712E5,1.939141E5,8.282261E5,6.9174156E5,9.030512E4,3.1259534E5,5.3550825E5,8.9733094E5,3.7868588E5,7.336647E5,9.18784E5,1.2491576E6,1.991869E6,4.0981973E3,1.0399791E4,8.727167E3,1.3697947E4,1.7727598E4,4.0476047E3,2.440181E4,3.697037E4,5.411082E4,7.851016E3,7.353327E4,1.1622855E5,1.8138948E5,1.9206096E4,3.6197122E5,1.8391078E5,3.6494634E5,-9.288861E4,1.2151735E5,8.244794E3,1.7628798E5,2.3322502E5,5.398612E5,7.687779E5,2.8889112E5,-4.7133633E4,2.636104E5,3.9028862E5,6.00534E5,2.3047962E5,2.9113216E5,5.7898594E5,8.598082E5,7.17413E5,6.62436E5,9.6784456E5],"categories":[],"categories_nodes":[],"categories_segments":[],"categories_sizes":[],"default_left":[1,1,1,1,1,1,1,1,1,1,1,1,1,1,1,1,1,1,1,1,1,1,1,1,1,0,0,0,1,0,0,1,1,1,1,1,1,1,1,1,1,1,0,1,1,1,1,0,1,1,1,0,0,0,0,0,0,0,0,0,0,0,0,0,0,0,0,0,0,0,0,0,0,0,0,0,0,0,0,0,0,0,0,0,0,0,0,0,0],"id":3,"left_children":[1,3,5,7,9,11,13,15,17,19,21,23,25,27,29,31,33,35,37,39,41,43,45,47,49,-1,-1,-1,51,-1,-1,53,55,57,59,61,63,65,67,69,71,73,-1,75,77,79,81,-1,83,85,87,-1,-1,-1,-1,-1,-1,-1,-1,-1,-1,-1,-1,-1,-1,-1,-1,-1,-1,-1,-1,-1,-1,-1,-1,-1,-1,-1,-1,-1,-1,-1,-1,-1,-1,-1,-1,-1,-1],"loss_changes":[7.798021E13,3.2867686E13,1.911393E13,5.516015E12,6.2085556E12,4.067917E12,3.378256E12,1.5666866E12,1.4890419E12,7.3071487E11,1.0326188E12,1.5440785E12,1.1471925E12,4.0066823E11,5.3316315E11,1.8164659E11,3.3578104E11,6.095173E11,2.8350402E11,4.8071862E11,4.3767772E11,1.4388256E12,1.1358679E12,4.8404208E11,2.5120106E11,0E0,0E0,0E0,1.1693405E11,0E0,0E0,6.067821E10,2.979994E10,6.5928233E10,1.8170878E11,3.3823077E11,2.0858877E11,4.1774167E11,2.9898703E11,1.9759825E11,2.3695773E11,3.0568297E11,0E0,1.9367094E11,1.4055829E11,4.848458E11,5.4351364E11,0E0,2.8302587E11,3.8973473E10,7.548489E10,0E0,0E0,0E0,0E0,0E0,0E0,0E0,0E0,0E0,0E0,0E0,0E0,0E0,0E0,0E0,0E0,0E0,0E0,0E0,0E0,0E0,0E0,0E0,0E0,0E0,0E0,0E0,0E0,0E0,0E0,0E0,0E0,0E0,0E0,0E0,0E0,0E0,0E0],"parents":[2147483647,0,0,1,1,2,2,3,3,4,4,5,5,6,6,7,7,8,8,9,9,10,10,11,11,12,12,13,13,14,14,15,15,16,16,17,17,18,18,19,19,20,20,21,21,22,22,23,23,24,24,28,28,31,31,32,32,33,33,34,34,35,35,36,36,37,37,38,38,39,39,40,40,41,41,43,43,44,44,45,45,46,46,48,48,49,49,50,50],"right_children":[2,4,6,8,10,12,14,16,18,20,22,24,26,28,30,32,34,36,38,40,42,44,46,48,50,-1,-1,-1,52,-1,-1,54,56,58,60,62,64,66,68,70,72,74,-1,76,78,80,82,-1,84,86,88,-1,-1,-1,-1,-1,-1,-1,-1,-1,-1,-1,-1,-1,-1,-1,-1,-1,-1,-1,-1,-1,-1,-1,-1,-1,-1,-1,-1,-1,-1,-1,-1,-1,-1,-1,-1,-1,-1],"split_conditions":[2.43705E2,5.4155E1,2.598975E6,1.8703999E1,3.4633925E5,1.8692898E6,3.9497915E6,1.4132446E4,2.3985125E5,1.4949636E5,2.961092E-1,9.2999925E5,1.5E0,2.5E0,5.184E3,5.268275E3,1.15E1,8.25E1,7.423333E0,1.5E0,1.9061224E-3,2.31525E3,8.565067E5,2.49125E2,1.1705E3,5.735987E4,2.8854866E5,1.9119992E5,9E1,5.159505E5,7.7946856E5,3.205E0,1.5E0,2.14895E4,3.6536562E4,3.2129997E1,1.16735266E5,1.2029439E4,5.5649996E0,9.7545E1,1.3416231E0,2.8285634E5,1.6564523E5,1.655E-1,2.64E2,2.085E2,1.2473952E6,1.7946619E5,3.689E2,2.6377355E-4,1.5E0,2.4983153E5,3.983738E5,8.1963947E2,2.0799583E3,1.7454335E3,2.7395896E3,3.5455195E3,8.0952094E2,4.8803623E3,7.394074E3,1.0822164E4,1.5702032E3,1.4706655E4,2.3245709E4,3.62779E4,3.8412192E3,7.239424E4,3.6782156E4,7.298927E4,-1.8577723E4,2.430347E4,1.6489589E3,3.5257598E4,4.6645004E4,1.0797224E5,1.5375558E5,5.7778227E4,-9.426727E3,5.2722082E4,7.805773E4,1.20106805E5,4.6095926E4,5.8226434E4,1.1579719E5,1.7196164E5,1.4348261E5,1.324872E5,1.9356892E5],"split_indices":[2,2,5,2,5,5,5,5,5,5,3,5,1,1,0,5,0,0,3,0,9,7,5,2,0,0,0,0,0,0,0,2,1,7,5,3,5,7,4,2,3,5,0,4,0,0,5,0,2,8,1,0,0,0,0,0,0,0,0,0,0,0,0,0,0,0,0,0,0,0,0,0,0,0,0,0,0,0,0,0,0,0,0,0,0,0,0,0,0],"split_type":[0,0,0,0,0,0,0,0,0,0,0,0,0,0,0,0,0,0,0,0,0,0,0,0,0,0,0,0,0,0,0,0,0,0,0,0,0,0,0,0,0,0,0,0,0,0,0,0,0,0,0,0,0,0,0,0,0,0,0,0,0,0,0,0,0,0,0,0,0,0,0,0,0,0,0,0,0,0,0,0,0,0,0,0,0,0,0,0,0],"sum_hessian":[2.684E4,2.6741E4,9.9E1,2.5924E4,8.17E2,9E1,9E0,2.3766E4,2.158E3,6.34E2,1.83E2,7.9E1,1.1E1,5E0,4E0,1.7069E4,6.697E3,2.029E3,1.29E2,1.86E2,4.48E2,2.5E1,1.58E2,1.9E1,6E1,1E0,1E1,1E0,4E0,3E0,1E0,1.159E4,5.479E3,2.05E3,4.647E3,1.532E3,4.97E2,7.1E1,5.8E1,1.1E1,1.75E2,4.47E2,1E0,2E1,5E0,1.3E2,2.8E1,2E0,1.7E1,4.9E1,1.1E1,1E0,3E0,9.779E3,1.811E3,1.794E3,3.685E3,1.598E3,4.52E2,2.549E3,2.098E3,1.353E3,1.79E2,3.17E2,1.8E2,4.7E1,2.4E1,1.2E1,4.6E1,1E1,1E0,1.54E2,2.1E1,3.09E2,1.38E2,7E0,1.3E1,2E0,3E0,8E1,5E1,2.3E1,5E0,1.2E1,5E0,5E0,4.4E1,2E0,9E0],"tree_param":{"num_deleted":"0","num_feature":"10","num_nodes":"89","size_leaf_vector":"0"}},{"base_weights":[2.1067684E4,1.8429627E4,7.328985E5,1.3128262E4,1.6787447E5,6.183011E5,1.8594844E6,8.398344E3,3.9011555E4,1.3837369E5,3.2846394E5,5.532818E5,1.0760668E6,1.5474044E6,2.8260648E6,5.2290547E3,1.6659525E4,2.9006898E4,6.644867E4,1.07532766E5,1.7201048E5,3.9784366E5,2.4579081E5,3.5200466E5,6.163278E5,2.34654E5,1.1570515E6,1.1752024E6,1.989755E6,3.0350623E3,7.6508267E3,1.6293747E4,6.763547E4,3.436115E4,8.819149E3,5.3645543E4,1.28571695E5,3.0100697E5,1.0404644E5,1.70457E5,6.7763956E5,1.9948617E5,4.5361947E5,2.64766E5,-3.3607244E5,6.688497E5,2.8881078E5,5.8971606E5,7.5899025E5,7.821815E5,1.2767512E6,3.257594E3,-1.975004E4,5.852961E3,9.49166E3,4.4869487E3,1.7779713E4,1.3700778E5,4.6263117E4,1.5580294E4,3.841069E4,7.020312E3,8.518801E4,5.997439E4,-2.7409889E4,1.1041527E5,1.9469256E5,3.5800766E5,-4.245106E4,1.0152838E5,3.4293528E5,1.5888231E5,2.2633598E5,2.7130596E3,2.4133347E5,5.4484325E5,3.4052466E5,1.913562E5,4.3287566E5,-2.0716747E5,-4.3442447E5,8.243007E5,5.555725E5,2.0504598E5,4.6545928E5,4.316889E5,5.986747E5,5.362577E5,8.1417875E5],"categories":[],"categories_nodes":[],"categories_segments":[],"categories_sizes":[],"default_left":[1,1,1,1,1,1,1,1,1,1,1,1,1,1,0,1,1,1,1,1,1,1,1,1,1,0,0,1,0,1,1,1,1,1,1,1,1,1,1,1,0,1,1,1,1,1,1,1,1,0,0,0,0,0,0,0,0,0,0,0,0,0,0,0,0,0,0,0,0,0,0,0,0,0,0,0,0,0,0,0,0,0,0,0,0,0,0,0,0],"id":4,"left_children":[1,3,5,7,9,11,13,15,17,19,21,23,25,27,-1,29,31,33,35,37,39,41,43,45,47,-1,-1,49,-1,51,53,55,57,59,61,63,65,67,69,71,-1,73,75,77,79,81,83,85,87,-1,-1,-1,-1,-1,-1,-1,-1,-1,-1,-1,-1,-1,-1,-1,-1,-1,-1,-1,-1,-1,-1,-1,-1,-1,-1,-1,-1,-1,-1,-1,-1,-1,-1,-1,-1,-1,-1,-1,-1],"loss_changes":[5.0400334E13,2.1185727E13,1.2679209E13,3.1616276E12,4.3354927E12,2.6221614E12,2.3077124E12,5.716793E11,1.0950856E12,8.011928E11,8.052833E11,9.820627E11,7.2922064E11,9.351316E11,0E0,8.384817E10,1.1277369E11,3.1603635E11,8.472531E11,2.6943894E11,2.7915715E11,8.439506E11,7.276648E11,3.6311505E11,1.8340853E11,0E0,0E0,6.3767052E10,0E0,4.198993E10,2.4819892E10,1.0545385E11,6.3268143E10,1.7570857E11,8.416483E10,4.536968E11,2.1646436E11,1.4051928E11,2.3538775E11,2.3513163E11,0E0,1.4074295E11,6.0149255E11,7.7042654E11,1.7623433E10,8.790737E9,2.286859E11,4.6498054E10,6.819781E10,0E0,0E0,0E0,0E0,0E0,0E0,0E0,0E0,0E0,0E0,0E0,0E0,0E0,0E0,0E0,0E0,0E0,0E0,0E0,0E0,0E0,0E0,0E0,0E0,0E0,0E0,0E0,0E0,0E0,0E0,0E0,0E0,0E0,0E0,0E0,0E0,0E0,0E0,0E0,0E0],"parents":[2147483647,0,0,1,1,2,2,3,3,4,4,5,5,6,6,7,7,8,8,9,9,10,10,11,11,12,12,13,13,15,15,16,16,17,17,18,18,19,19,20,20,21,21,22,22,23,23,24,24,27,27,29,29,30,30,31,31,32,32,33,33,34,34,35,35,36,36,37,37,38,38,39,39,41,41,42,42,43,43,44,44,45,45,46,46,47,47,48,48],"right_children":[2,4,6,8,10,12,14,16,18,20,22,24,26,28,-1,30,32,34,36,38,40,42,44,46,48,-1,-1,50,-1,52,54,56,58,60,62,64,66,68,70,72,-1,74,76,78,80,82,84,86,88,-1,-1,-1,-1,-1,-1,-1,-1,-1,-1,-1,-1,-1,-1,-1,-1,-1,-1,-1,-1,-1,-1,-1,-1,-1,-1,-1,-1,-1,-1,-1,-1,-1,-1,-1,-1,-1,-1,-1,-1],"split_conditions":[2.43705E2,4.9485E1,2.598975E6,4.102139E4,4.1593512E5,1.8692898E6,4.9361615E6,1.0592664E4,2.6984001E1,2.03298E5,2.339749E4,9.2999925E5,1.5E0,3.1725E3,5.6521294E5,2.902608E3,2.725E1,9.758705E3,1.564578E5,1.01418E3,1.7861223E-3,7.594E1,4.45E1,3.8214394E-1,1.1775E3,4.69308E4,2.314103E5,2.5E0,3.97951E5,4.83E1,2.421E0,2.3109999E0,1.55E1,1.5900001E-1,1.72304E5,1.29411E5,3.00309E5,5.5E0,1.53945E2,2.99E2,1.3552792E5,5.0705388E5,2.2663188E-4,6.566822E5,5.3E1,6.58E2,3.689E2,1.5E0,1.5E0,1.564363E5,2.5535025E5,6.515188E2,-3.9500078E3,1.1705922E3,1.898332E3,8.973898E2,3.5559426E3,2.7401557E4,9.252624E3,3.1160588E3,7.682138E3,1.4040624E3,1.7037602E4,1.1994878E4,-5.481978E3,2.2083055E4,3.893851E4,7.160153E4,-8.490212E3,2.0305678E4,6.8587055E4,3.1776463E4,4.52672E4,5.4261194E2,4.8266695E4,1.0896865E5,6.810493E4,3.8271242E4,8.657513E4,-4.1433496E4,-8.68849E4,1.6486014E5,1.111145E5,4.10092E4,9.309186E4,8.633778E4,1.1973494E5,1.0725154E5,1.6283575E5],"split_indices":[2,2,5,5,5,5,5,5,2,5,6,5,1,0,0,5,2,6,5,5,9,2,0,3,0,0,0,1,0,2,2,2,0,4,7,6,5,0,2,0,0,5,8,5,0,0,2,0,1,0,0,0,0,0,0,0,0,0,0,0,0,0,0,0,0,0,0,0,0,0,0,0,0,0,0,0,0,0,0,0,0,0,0,0,0,0,0,0,0],"split_type":[0,0,0,0,0,0,0,0,0,0,0,0,0,0,0,0,0,0,0,0,0,0,0,0,0,0,0,0,0,0,0,0,0,0,0,0,0,0,0,0,0,0,0,0,0,0,0,0,0,0,0,0,0,0,0,0,0,0,0,0,0,0,0,0,0,0,0,0,0,0,0,0,0,0,0,0,0,0,0,0,0,0,0,0,0,0,0,0,0],"sum_hessian":[2.684E4,2.6741E4,9.9E1,2.5825E4,9.16E2,9E1,9E0,2.1835E4,3.99E3,7.74E2,1.42E2,7.9E1,1.1E1,7E0,2E0,1.5781E4,6.054E3,2.924E3,1.066E3,4.04E2,3.7E2,7.7E1,6.5E1,1.9E1,6E1,1E0,1E1,4E0,3E0,8.28E3,7.501E3,6.011E3,4.3E1,2.311E3,6.13E2,8.84E2,1.82E2,7E0,3.97E2,3.69E2,1E0,1.7E1,6E1,6.3E1,2E0,3E0,1.6E1,5.1E1,9E0,1E0,3E0,8.2E3,8E1,3.795E3,3.706E3,6.72E2,5.339E3,1E1,3.3E1,4.1E2,1.901E3,5.99E2,1.4E1,8.2E2,6.4E1,1.43E2,3.9E1,6E0,1E0,3.93E2,4E0,3.06E2,6.3E1,3E0,1.4E1,3.3E1,2.7E1,4.4E1,1.9E1,1E0,1E0,1E0,2E0,1.1E1,5E0,3E0,4.8E1,2E0,7E0],"tree_param":{"num_deleted":"0","num_feature":"10","num_nodes":"89","size_leaf_vector":"0"}},{"base_weights":[1.6866309E4,1.4725016E4,5.831824E5,1.0548405E4,1.3545361E5,4.9169594E5,1.5026969E6,7.0912803E3,3.4607844E4,1.12025125E5,2.6040361E5,4.4022056E5,8.63361E5,1.3249562E6,2.674905E6,4.191542E3,1.3993661E4,2.9268236E4,7.314399E4,7.225919E4,1.2916948E5,3.1940338E5,1.9103458E5,2.7676344E5,4.9327238E5,1.9198962E5,9.2793244E5,8.945826E5,1.5605761E6,1.1734686E3,5.765335E3,1.8036152E4,8.780899E3,1.602778E4,3.6048723E4,1.9790514E5,6.5379152E4,2.1093038E5,6.5102883E4,1.3772436E5,7.239152E4,1.0673555E5,3.5517406E5,2.0624066E5,-2.7496844E5,5.4398225E5,2.2670169E5,4.7818428E5,6.9137025E5,9.853532E5,6.399667E5,1.0205775E6,1.6673908E6,2.4504799E4,1.0439741E3,4.283669E3,8.839978E3,1.235311E4,2.013036E4,9.502415E3,-1.6488287E4,1.2823204E4,1.52853E5,3.519498E4,1.29155266E5,2.974504E5,8.76088E4,9.402125E4,5.13698E4,2.4210233E5,-9.4459484E4,3.5486455E3,8.039159E4,7.5935344E5,1.3619495E5,6.525016E4,5.0792478E5,4.7643623E3,3.6973297E5,4.224871E5,2.704483E5,1.518641E5,3.4059194E5,-1.6950066E5,-3.554382E5,6.744278E5,4.497492E5,6.5880556E5,1.9577092E5,4.5269947E5,5.5269325E5,3.5565506E5,7.8819244E5],"categories":[],"categories_nodes":[],"categories_segments":[],"categories_sizes":[],"default_left":[1,1,1,1,1,1,1,1,1,1,1,1,1,1,0,1,1,1,1,1,1,1,1,1,1,0,0,1,1,1,1,1,1,1,1,1,1,1,1,1,1,1,1,1,1,1,1,1,1,0,0,0,0,0,0,0,0,0,0,0,0,0,0,0,0,0,0,0,0,0,0,0,0,0,0,0,0,0,0,0,0,0,0,0,0,0,0,0,0,0,0,0,0],"id":5,"left_children":[1,3,5,7,9,11,13,15,17,19,21,23,25,27,-1,29,31,33,35,37,39,41,43,45,47,-1,-1,49,51,53,55,57,59,61,63,65,67,69,71,73,75,77,79,81,83,85,87,89,91,-1,-1,-1,-1,-1,-1,-1,-1,-1,-1,-1,-1,-1,-1,-1,-1,-1,-1,-1,-1,-1,-1,-1,-1,-1,-1,-1,-1,-1,-1,-1,-1,-1,-1,-1,-1,-1,-1,-1,-1,-1,-1,-1,-1],"loss_changes":[3.2546748E13,1.3482682E13,8.430956E12,2.1496799E12,2.6144596E12,1.724012E12,1.5415598E12,4.5229723E11,6.6793505E11,5.1250096E11,5.7138584E11,6.896212E11,4.633841E11,6.8176944E11,0E0,7.558372E10,1.4085613E11,2.5599436E11,3.8145923E11,2.2399445E11,2.5454497E11,5.7512296E11,4.6697493E11,2.5655352E11,1.4956259E11,0E0,0E0,8.585216E9,1.2399306E11,1.6475779E10,4.764359E10,4.4785205E10,5.325526E10,4.2340667E11,1.4946953E11,2.5101972E11,1.4882465E11,1.079546E11,2.0333992E11,4.2423393E11,2.1160696E11,2.9750506E11,3.598482E11,4.5580786E11,1.1797414E10,7.772635E9,2.1564837E11,8.340164E10,1.0523561E11,0E0,0E0,0E0,0E0,0E0,0E0,0E0,0E0,0E0,0E0,0E0,0E0,0E0,0E0,0E0,0E0,0E0,0E0,0E0,0E0,0E0,0E0,0E0,0E0,0E0,0E0,0E0,0E0,0E0,0E0,0E0,0E0,0E0,0E0,0E0,0E0,0E0,0E0,0E0,0E0,0E0,0E0,0E0,0E0],"parents":[2147483647,0,0,1,1,2,2,3,3,4,4,5,5,6,6,7,7,8,8,9,9,10,10,11,11,12,12,13,13,15,15,16,16,17,17,18,18,19,19,20,20,21,21,22,22,23,23,24,24,27,27,28,28,29,29,30,30,31,31,32,32,33,33,34,34,35,35,36,36,37,37,38,38,39,39,40,40,41,41,42,42,43,43,44,44,45,45,46,46,47,47,48,48],"right_children":[2,4,6,8,10,12,14,16,18,20,22,24,26,28,-1,30,32,34,36,38,40,42,44,46,48,-1,-1,50,52,54,56,58,60,62,64,66,68,70,72,74,76,78,80,82,84,86,88,90,92,-1,-1,-1,-1,-1,-1,-1,-1,-1,-1,-1,-1,-1,-1,-1,-1,-1,-1,-1,-1,-1,-1,-1,-1,-1,-1,-1,-1,-1,-1,-1,-1,-1,-1,-1,-1,-1,-1,-1,-1,-1,-1,-1,-1],"split_conditions":[2.32894E2,5.047E1,2.598975E6,4.7288492E4,4.14793E5,1.8692898E6,5.184E3,4.6239996E0,3.78555E1,1.475844E5,2.339749E4,9.2999925E5,1.5E0,2.25E2,5.34981E5,9.87E-1,4.425E-1,1.95E1,1.2629018E-4,1.5E0,4.5E0,6.756E1,4.45E1,3.8214394E-1,1.4525E3,3.8397926E4,1.8558648E5,1.25E2,3.0455455E6,6.493E0,7.3226685E3,7.2465E2,4.83E1,2.6229375E5,8.55E-1,3.9870003E1,3.4068455E-4,9.7545E1,1.14E2,2.4818182E-1,6.102661E-4,5.7214873E3,2.861577E-4,6.566822E5,5.3E1,6.58E2,2.6633134E-4,2.5E0,1.5E0,1.9707064E5,1.27993336E5,2.041155E5,3.3347816E5,4.90096E3,2.0879483E2,8.567338E2,1.7679955E3,2.470622E3,4.026072E3,1.900483E3,-3.2976575E3,2.5646409E3,3.05706E4,7.038996E3,2.5831053E4,5.9490082E4,1.752176E4,1.880425E4,1.027396E4,4.8420465E4,-1.8891896E4,7.097291E2,1.6078319E4,1.5187069E5,2.723899E4,1.3050032E4,1.0158496E5,9.528725E2,7.394659E4,8.449742E4,5.4089664E4,3.0372818E4,6.811839E4,-3.3900133E4,-7.108764E4,1.3488556E5,8.9949836E4,1.3176111E5,3.9154184E4,9.05399E4,1.1053865E5,7.1131016E4,1.5763848E5],"split_indices":[2,2,5,5,5,5,0,2,2,5,6,5,1,0,0,2,4,0,8,0,1,2,0,3,0,0,0,0,5,5,5,7,2,5,4,2,9,2,0,3,9,7,9,5,0,0,9,1,1,0,0,0,0,0,0,0,0,0,0,0,0,0,0,0,0,0,0,0,0,0,0,0,0,0,0,0,0,0,0,0,0,0,0,0,0,0,0,0,0,0,0,0,0],"split_type":[0,0,0,0,0,0,0,0,0,0,0,0,0,0,0,0,0,0,0,0,0,0,0,0,0,0,0,0,0,0,0,0,0,0,0,0,0,0,0,0,0,0,0,0,0,0,0,0,0,0,0,0,0,0,0,0,0,0,0,0,0,0,0,0,0,0,0,0,0,0,0,0,0,0,0,0,0,0,0,0,0,0,0,0,0,0,0,0,0,0,0,0,0],"sum_hessian":[2.684E4,2.6739E4,1.01E2,2.5845E4,8.94E2,9.2E1,9E0,2.2598E4,3.247E3,7.53E2,1.41E2,8.1E1,1.1E1,8E0,1E0,1.5913E4,6.685E3,2.852E3,3.95E2,2.27E2,5.26E2,7.6E1,6.5E1,2E1,6.1E1,1E0,1E1,3E0,5E0,5.454E3,1.0459E4,3.765E3,2.92E3,9.66E2,1.886E3,2.3E1,3.72E2,1.1E1,2.16E2,4.57E2,6.9E1,1.1E1,6.5E1,6.3E1,2E0,3E0,1.7E1,5.7E1,4E0,2E0,1E0,1E0,4E0,3E1,5.424E3,7.058E3,3.401E3,1.014E3,2.751E3,2.839E3,8.1E1,9.44E2,2.2E1,1.869E3,1.7E1,1.2E1,1.1E1,1.22E2,2.5E2,1E1,1E0,4.3E1,1.73E2,1E0,4.56E2,6.8E1,1E0,8E0,3E0,3.6E1,2.9E1,4.5E1,1.8E1,1E0,1E0,1E0,2E0,1E0,1.6E1,4.3E1,1.4E1,1E0,3E0],"tree_param":{"num_deleted":"0","num_feature":"10","num_nodes":"93","size_leaf_vector":"0"}},{"base_weights":[1.3504893E4,1.1799516E4,4.7366925E5,8.58684E3,1.137265E5,3.9801578E5,1.2175162E6,6.5587397E3,3.8421066E4,8.858184E4,2.0074373E5,3.56159E5,6.927067E5,1.0061332E6,1.8742148E6,3.8276155E3,1.4656448E4,3.1275008E4,7.541048E4,3.856023E5,8.710882E4,1.8437019E5,3.69436E5,2.29622E5,3.957803E5,1.5708242E5,7.4418344E5,7.7307125E5,1.2819202E6,1.3894869E6,2.1885588E6,2.0619883E3,6.543765E3,1.1509389E4,2.2606367E4,3.6607633E4,-7.0305205E3,5.480669E4,1.1792712E5,9.2236445E4,5.2090762E5,7.378835E4,1.1093638E5,-2.4591105E4,1.9768702E5,4.5851206E5,2.1589286E5,4.424386E5,1.872186E5,5.344421E5,3.7941403E5,9.151425E5,5.9418656E5,-1.456828E2,2.9449912E3,8.380364E3,3.2297654E3,1.2703943E4,-4.529547E3,2.014574E4,5.6609246E4,3.4913207E4,2.1993183E5,-2.1413023E4,3.4006519E3,8.9961164E4,-2.3056936E4,9.542034E4,1.8787517E5,7.28037E4,4.288017E5,1.0884087E5,5.296696E5,2.5878861E5,-1.4797406E5,1.669892E5,3.0391016E5,5.0158616E5,2.705348E5,1.2966427E5,2.9515684E5,5.518046E5,3.640827E5,-6.0217456E3,2.5114955E5,8.572491E5,3.5606653E5,-8.737988E4,3.8836944E5],"categories":[],"categories_nodes":[],"categories_segments":[],"categories_sizes":[],"default_left":[1,1,1,1,1,1,1,1,1,1,1,1,1,1,1,1,1,1,1,1,1,1,1,1,1,0,0,1,0,0,0,1,1,1,1,1,1,1,1,0,0,1,1,1,1,1,1,1,1,1,1,0,0,0,0,0,0,0,0,0,0,0,0,0,0,0,0,0,0,0,0,0,0,0,0,0,0,0,0,0,0,0,0,0,0,0,0,0,0],"id":6,"left_children":[1,3,5,7,9,11,13,15,17,19,21,23,25,27,29,31,33,35,37,39,41,43,45,47,49,-1,-1,51,-1,-1,-1,53,55,57,59,61,63,65,67,-1,-1,69,71,73,75,77,79,81,83,85,87,-1,-1,-1,-1,-1,-1,-1,-1,-1,-1,-1,-1,-1,-1,-1,-1,-1,-1,-1,-1,-1,-1,-1,-1,-1,-1,-1,-1,-1,-1,-1,-1,-1,-1,-1,-1,-1,-1],"loss_changes":[2.1062297E13,8.756499E12,5.5283506E12,1.5685596E12,1.78605E12,1.08669383E12,1.07464255E12,5.368367E11,4.3593236E11,2.7406998E11,4.9892767E11,3.8748448E11,2.9436045E11,3.5725194E11,1.5879111E10,8.705078E10,1.5314203E11,2.8255034E11,2.3333424E11,1.18246015E11,1.9948896E11,4.65476E11,2.1030044E11,1.640773E11,1.1611092E11,0E0,0E0,4.982099E10,0E0,0E0,0E0,2.144537E10,4.352236E10,8.4040745E10,1.4514245E11,3.7636617E11,2.537676E10,4.93187E11,1.3532896E11,0E0,0E0,1.3848517E11,1.9262865E11,3.5696797E11,5.0719936E11,6.820869E10,3.7864833E10,6.4741704E9,1.9905151E11,3.2071837E11,2.2955006E11,0E0,0E0,0E0,0E0,0E0,0E0,0E0,0E0,0E0,0E0,0E0,0E0,0E0,0E0,0E0,0E0,0E0,0E0,0E0,0E0,0E0,0E0,0E0,0E0,0E0,0E0,0E0,0E0,0E0,0E0,0E0,0E0,0E0,0E0,0E0,0E0,0E0,0E0],"parents":[2147483647,0,0,1,1,2,2,3,3,4,4,5,5,6,6,7,7,8,8,9,9,10,10,11,11,12,12,13,13,14,14,15,15,16,16,17,17,18,18,19,19,20,20,21,21,22,22,23,23,24,24,27,27,31,31,32,32,33,33,34,34,35,35,36,36,37,37,38,38,41,41,42,42,43,43,44,44,45,45,46,46,47,47,48,48,49,49,50,50],"right_children":[2,4,6,8,10,12,14,16,18,20,22,24,26,28,30,32,34,36,38,40,42,44,46,48,50,-1,-1,52,-1,-1,-1,54,56,58,60,62,64,66,68,-1,-1,70,72,74,76,78,80,82,84,86,88,-1,-1,-1,-1,-1,-1,-1,-1,-1,-1,-1,-1,-1,-1,-1,-1,-1,-1,-1,-1,-1,-1,-1,-1,-1,-1,-1,-1,-1,-1,-1,-1,-1,-1,-1,-1,-1,-1],"split_conditions":[2.43705E2,5.4155E1,2.598975E6,2.2776001E1,3.4633925E5,1.8692898E6,4.9361615E6,6.019E0,1.58355E5,2.1435891E-4,1.15E1,9.2999925E5,1.5E0,3.1725E3,3.03E3,2.3109999E0,3.95E1,3.145E1,9.04993E4,1.35E1,2.3885514E5,8.492234E-5,1.6545945E3,3.8214394E-1,2.6377355E-4,3.1416484E4,1.4883669E5,2.868875E6,2.5638405E5,2.7789738E5,4.3771175E5,5.375E-1,9.975E-1,2.14895E4,1.086806E3,1.05703875E5,3.6285E1,1.735E0,2.5356062E5,1.844729E4,1.0418152E5,1.66E2,1.7436224E-3,5.801367E-5,6.566822E5,2.55E1,7.6905E1,6.58E2,6.4375E-1,1.412348E6,2.718093E-4,1.830285E5,1.1883731E5,-2.913656E1,5.889982E2,1.6760729E3,6.4595306E2,2.5407888E3,-9.0590936E2,4.0291482E3,1.132185E4,6.9826416E3,4.3986367E4,-4.282605E3,6.801304E2,1.7992232E4,-4.611387E3,1.9084068E4,3.7575035E4,1.4560741E4,8.5760336E4,2.1768174E4,1.0593393E5,5.1757723E4,-2.9594812E4,3.339784E4,6.078203E4,1.00317234E5,5.4106965E4,2.5932855E4,5.903137E4,1.1036093E5,7.281654E4,-1.2043491E3,5.022991E4,1.7144983E5,7.1213305E4,-1.7475977E4,7.767389E4],"split_indices":[2,2,5,2,5,5,5,2,5,8,1,5,1,0,0,2,0,3,6,0,5,9,6,3,8,0,0,5,0,0,0,2,4,6,7,6,2,4,5,0,0,2,9,8,5,1,2,0,3,5,8,0,0,0,0,0,0,0,0,0,0,0,0,0,0,0,0,0,0,0,0,0,0,0,0,0,0,0,0,0,0,0,0,0,0,0,0,0,0],"split_type":[0,0,0,0,0,0,0,0,0,0,0,0,0,0,0,0,0,0,0,0,0,0,0,0,0,0,0,0,0,0,0,0,0,0,0,0,0,0,0,0,0,0,0,0,0,0,0,0,0,0,0,0,0,0,0,0,0,0,0,0,0,0,0,0,0,0,0,0,0,0,0,0,0,0,0,0,0,0,0,0,0,0,0,0,0,0,0,0,0],"sum_hessian":[2.684E4,2.6741E4,9.9E1,2.5924E4,8.17E2,9E1,9E0,2.4274E4,1.65E3,6.34E2,1.83E2,7.9E1,1.1E1,7E0,2E0,1.8152E4,6.122E3,1.383E3,2.67E2,3E0,6.31E2,1.67E2,1.6E1,1.9E1,6E1,1E0,1E1,4E0,3E0,1E0,1E0,1.1001E4,7.151E3,4.386E3,1.736E3,1.214E3,1.69E2,1.8E2,8.7E1,1E0,2E0,4.05E2,2.26E2,1E1,1.57E2,1E1,6E0,3E0,1.6E1,6E0,5.4E1,2E0,2E0,3.143E3,7.858E3,4.601E3,2.55E3,4.082E3,3.04E2,1.619E3,1.17E2,1.203E3,1.1E1,7.1E1,9.8E1,1.24E2,5.6E1,6.6E1,2.1E1,4.04E2,1E0,2.25E2,1E0,3E0,7E0,1.22E2,3.5E1,8E0,2E0,3E0,3E0,1E0,2E0,4E0,1.2E1,2E0,4E0,1E0,5.3E1],"tree_param":{"num_deleted":"0","num_feature":"10","num_nodes":"89","size_leaf_vector":"0"}},{"base_weights":[1.0814469E4,9.442768E3,3.8094266E5,6.870002E3,9.106766E4,3.1920656E5,9.8801156E5,4.950218E3,2.7915555E4,7.092077E4,1.6078928E5,2.8560366E5,5.557893E5,8.127693E5,1.5334486E6,2.952516E3,1.141968E4,2.1952291E4,5.0595145E4,3.124377E5,6.972319E4,2.7516428E5,1.4252938E5,1.8491333E5,3.171282E5,1.2852199E5,5.9682044E5,6.258196E5,1.0338067E6,1.1368528E6,1.7906391E6,8.959493E2,4.41903E3,-1.0996613E3,1.2475675E4,-5.457869E3,2.4790426E4,4.818225E4,3.1248416E5,7.5466195E4,4.2168716E5,4.0422297E4,7.8612234E4,3.473135E5,4.474339E4,1.6722255E5,6.944912E4,3.2299494E5,1.3365739E5,3.0227038E5,4.4370094E5,5.3625106E5,6.72379E5,7.408296E5,4.8100822E5,1.1124812E3,-1.2980947E4,4.3556084E3,7.815633E4,-8.298672E3,2.677621E3,1.3483736E4,-1.3613756E3,-2.27952E3,-1.27109555E5,2.2928977E4,1.2232574E5,4.171924E4,8.119173E4,1.7853228E5,3.2350879E4,7.4475086E4,1.789434E5,2.3892873E5,3.951314E5,1.4504647E5,-5.7002695E4,2.457432E5,1.2356365E5,-1.2575717E5,1.1849045E5,4.4650678E5,1.2528673E5,4.0843023E4,2.966464E5,4.315318E5,2.8524912E5,2.8315212E5,5.1511103E5],"categories":[],"categories_nodes":[],"categories_segments":[],"categories_sizes":[],"default_left":[1,1,1,1,1,1,1,1,1,1,1,1,1,1,1,1,1,1,1,1,1,1,1,1,1,0,1,1,0,0,0,1,1,1,1,1,1,1,0,0,0,1,1,1,1,1,1,1,1,1,1,0,0,0,0,0,0,0,0,0,0,0,0,0,0,0,0,0,0,0,0,0,0,0,0,0,0,0,0,0,0,0,0,0,0,0,0,0,0],"id":7,"left_children":[1,3,5,7,9,11,13,15,17,19,21,23,25,27,29,31,33,35,37,39,41,43,45,47,49,-1,51,53,-1,-1,-1,55,57,59,61,63,65,67,-1,-1,-1,69,71,73,75,77,79,81,83,85,87,-1,-1,-1,-1,-1,-1,-1,-1,-1,-1,-1,-1,-1,-1,-1,-1,-1,-1,-1,-1,-1,-1,-1,-1,-1,-1,-1,-1,-1,-1,-1,-1,-1,-1,-1,-1,-1,-1],"loss_changes":[1.3626497E13,5.6156147E12,3.682537E12,1.04739543E12,1.1466184E12,7.004079E11,7.451758E11,3.0703465E11,2.9297685E11,1.8122618E11,3.7847774E11,2.4521631E11,1.8692571E11,2.2869285E11,1.0628891E10,5.474604E10,7.410287E10,1.3351525E11,2.8354898E11,7.707312E10,1.6405653E11,4.1572513E11,2.8414312E11,1.3086281E11,9.961105E10,0E0,1.0165682E10,3.2648724E10,0E0,0E0,0E0,2.2705934E10,4.9519034E10,1.1860961E10,7.210356E10,6.226046E10,2.8205882E11,9.504568E10,0E0,0E0,0E0,1.6340096E11,1.9960955E11,8.954865E10,6.308011E10,4.0182507E11,3.8537455E11,1.1894374E11,2.12089E11,1.0672092E11,5.5349084E10,0E0,0E0,0E0,0E0,0E0,0E0,0E0,0E0,0E0,0E0,0E0,0E0,0E0,0E0,0E0,0E0,0E0,0E0,0E0,0E0,0E0,0E0,0E0,0E0,0E0,0E0,0E0,0E0,0E0,0E0,0E0,0E0,0E0,0E0,0E0,0E0,0E0,0E0],"parents":[2147483647,0,0,1,1,2,2,3,3,4,4,5,5,6,6,7,7,8,8,9,9,10,10,11,11,12,12,13,13,14,14,15,15,16,16,17,17,18,18,19,19,20,20,21,21,22,22,23,23,24,24,26,26,27,27,31,31,32,32,33,33,34,34,35,35,36,36,37,37,41,41,42,42,43,43,44,44,45,45,46,46,47,47,48,48,49,49,50,50],"right_children":[2,4,6,8,10,12,14,16,18,20,22,24,26,28,30,32,34,36,38,40,42,44,46,48,50,-1,52,54,-1,-1,-1,56,58,60,62,64,66,68,-1,-1,-1,70,72,74,76,78,80,82,84,86,88,-1,-1,-1,-1,-1,-1,-1,-1,-1,-1,-1,-1,-1,-1,-1,-1,-1,-1,-1,-1,-1,-1,-1,-1,-1,-1,-1,-1,-1,-1,-1,-1,-1,-1,-1,-1,-1,-1],"split_conditions":[2.43705E2,5.4155E1,2.598975E6,6.520536E4,3.4633925E5,1.8692898E6,4.9361615E6,1.75418E4,3.78555E1,2.1435891E-4,2.961092E-1,9.2999925E5,1.5E0,3.1725E3,3.03E3,1.5E0,8.69155E-5,3.910823E-5,7.909378E5,1.35E1,1.4043553E5,2.159125E3,3.5E0,2.6157202E2,4.8014252E2,2.5704398E4,9.607278E2,2.868875E6,2.0676134E5,2.2737055E5,3.5812784E5,1.6055E1,1.8805723E-1,8.8362575E-2,1.7764836E4,3.78E2,2.6136E5,1.0542856E5,6.2496832E4,1.5093239E4,8.433743E4,7.777046E3,6.364541E-4,1.655E-1,2.8035E3,1.926916E-4,6.6625E1,3.9869663E-4,3.689E2,2.6377355E-4,1.5E0,1.0725021E5,1.344758E5,1.4816592E5,9.620165E4,2.2249625E2,-2.5961895E3,8.711217E2,1.5631266E4,-1.6597344E3,5.3552423E2,2.6967473E3,-2.7227512E2,-4.5590402E2,-2.5421912E4,4.5857954E3,2.4465148E4,8.343848E3,1.6238346E4,3.5706457E4,6.470176E3,1.4895018E4,3.5788684E4,4.7785746E4,7.902628E4,2.9009295E4,-1.1400539E4,4.914864E4,2.471273E4,-2.5151436E4,2.3698092E4,8.930136E4,2.5057346E4,8.168605E3,5.932928E4,8.630637E4,5.7049824E4,5.6630426E4,1.0302221E5],"split_indices":[2,2,5,5,5,5,5,5,2,8,3,5,1,0,0,1,8,8,5,0,5,6,1,2,2,0,6,5,0,0,0,2,8,3,6,0,5,6,0,0,0,5,9,4,7,9,2,9,2,8,1,0,0,0,0,0,0,0,0,0,0,0,0,0,0,0,0,0,0,0,0,0,0,0,0,0,0,0,0,0,0,0,0,0,0,0,0,0,0],"split_type":[0,0,0,0,0,0,0,0,0,0,0,0,0,0,0,0,0,0,0,0,0,0,0,0,0,0,0,0,0,0,0,0,0,0,0,0,0,0,0,0,0,0,0,0,0,0,0,0,0,0,0,0,0,0,0,0,0,0,0,0,0,0,0,0,0,0,0,0,0,0,0,0,0,0,0,0,0,0,0,0,0,0,0,0,0,0,0,0,0],"sum_hessian":[2.684E4,2.6741E4,9.9E1,2.5924E4,8.17E2,9E1,9E0,2.3757E4,2.167E3,6.34E2,1.83E2,7.9E1,1.1E1,7E0,2E0,1.8152E4,5.605E3,1.716E3,4.51E2,3E0,6.31E2,2.5E1,1.58E2,1.9E1,6E1,1E0,1E1,4E0,3E0,1E0,1E0,7.556E3,1.0596E4,4.36E2,5.169E3,1.61E2,1.555E3,4.47E2,4E0,1E0,2E0,1.47E2,4.84E2,1.9E1,6E0,1.18E2,4E1,5E0,1.4E1,5.4E1,6E0,6E0,4E0,2E0,2E0,7.44E3,1.16E2,1.0587E4,9E0,1.5E2,2.86E2,4.818E3,3.51E2,1.57E2,4E0,1.526E3,2.9E1,3.74E2,7.3E1,8E0,1.39E2,4.65E2,1.9E1,6E0,1.3E1,3E0,3E0,4.2E1,7.6E1,8E0,3.2E1,3E0,2E0,9E0,5E0,6E0,4.8E1,2E0,4E0],"tree_param":{"num_deleted":"0","num_feature":"10","num_nodes":"89","size_leaf_vector":"0"}},{"base_weights":[8.660158E3,7.544389E3,3.0375203E5,5.5279785E3,7.446602E4,2.5421219E5,8.018008E5,3.501084E3,2.0325605E4,5.0018598E4,9.927222E4,2.2750666E5,4.4704078E5,6.5656944E5,1.2546398E6,3.418985E3,1.1981516E5,1.4459174E4,4.123405E4,-6.8527407E3,5.7535883E4,1.2505546E5,6.0039344E4,1.4381678E5,2.5466564E5,1.0515434E5,4.798497E5,5.0661588E5,8.337152E5,9.3015225E5,1.4650681E6,1.5217228E3,6.075987E3,1.3477281E5,-9.640405E4,5.5692883E2,1.7371656E4,3.9244008E4,1.6171744E5,1.143892E4,-9.280682E4,2.7602544E5,5.491583E4,2.7685041E4,1.4510723E5,-4.2259707E4,7.801879E4,2.059087E5,6.649779E4,2.2038095E5,2.8924328E5,6.3519275E5,4.5579878E5,5.997192E5,3.8938756E5,2.754074E2,2.8440503E3,6.2902114E3,-5.5239695E4,1.9051011E5,9.592933E4,-3.56599E3,7.26433E3,1.2320936E4,2.141618E4,2.686185E3,4.307851E4,1.4306236E5,3.1830256E5,-1.9406194E3,1.2243877E5,-2.560225E5,-6.62126E4,1.5450858E5,3.1023994E5,5.3790793E4,4.0083084E5,-2.0595135E4,1.7129552E5,1.20071305E5,2.0350442E5,-7.834248E4,1.26863664E5,1.6180886E5,5.5106047E4,8.64485E4,3.0240953E5,2.4027703E5,1.4161571E4,2.3947233E5,1.524737E5,2.436977E5,4.3335272E5],"categories":[],"categories_nodes":[],"categories_segments":[],"categories_sizes":[],"default_left":[1,1,1,1,1,1,1,1,1,1,1,1,1,1,1,1,1,1,1,1,1,1,1,1,1,0,1,1,0,0,0,1,1,1,0,1,1,1,1,1,1,1,1,1,1,1,1,1,1,1,1,0,0,0,0,0,0,0,0,0,0,0,0,0,0,0,0,0,0,0,0,0,0,0,0,0,0,0,0,0,0,0,0,0,0,0,0,0,0,0,0,0,0],"id":8,"left_children":[1,3,5,7,9,11,13,15,17,19,21,23,25,27,29,31,33,35,37,39,41,43,45,47,49,-1,51,53,-1,-1,-1,55,57,59,-1,61,63,65,67,69,71,73,75,77,79,81,83,85,87,89,91,-1,-1,-1,-1,-1,-1,-1,-1,-1,-1,-1,-1,-1,-1,-1,-1,-1,-1,-1,-1,-1,-1,-1,-1,-1,-1,-1,-1,-1,-1,-1,-1,-1,-1,-1,-1,-1,-1,-1,-1,-1,-1],"loss_changes":[8.836991E12,3.6081726E12,2.4740815E12,7.7853006E11,4.7380562E11,4.6410603E11,5.1609757E11,2.1796887E11,3.835041E11,1.6852445E11,3.9183188E11,1.80672E11,1.1946164E11,1.4636286E11,7.114326E9,1.150056E11,5.336883E10,9.887973E10,1.6362989E11,7.258663E10,1.9775554E11,4.5666612E11,2.8376275E11,9.512826E10,6.605793E10,0E0,8.781824E9,2.1395538E10,0E0,0E0,0E0,2.1935456E10,1.24874195E11,3.0864097E10,0E0,1.1703031E10,4.1219326E10,9.44845E10,2.7870102E10,5.660722E10,3.3463288E10,1.2252348E10,1.3175554E11,2.7838785E11,2.813361E11,1.4196018E11,2.5080182E11,1.2534625E11,8.242351E10,3.6667523E10,1.8700147E11,0E0,0E0,0E0,0E0,0E0,0E0,0E0,0E0,0E0,0E0,0E0,0E0,0E0,0E0,0E0,0E0,0E0,0E0,0E0,0E0,0E0,0E0,0E0,0E0,0E0,0E0,0E0,0E0,0E0,0E0,0E0,0E0,0E0,0E0,0E0,0E0,0E0,0E0,0E0,0E0,0E0,0E0],"parents":[2147483647,0,0,1,1,2,2,3,3,4,4,5,5,6,6,7,7,8,8,9,9,10,10,11,11,12,12,13,13,14,14,15,15,16,16,17,17,18,18,19,19,20,20,21,21,22,22,23,23,24,24,26,26,27,27,31,31,32,32,33,33,35,35,36,36,37,37,38,38,39,39,40,40,41,41,42,42,43,43,44,44,45,45,46,46,47,47,48,48,49,49,50,50],"right_children":[2,4,6,8,10,12,14,16,18,20,22,24,26,28,30,32,34,36,38,40,42,44,46,48,50,-1,52,54,-1,-1,-1,56,58,60,-1,62,64,66,68,70,72,74,76,78,80,82,84,86,88,90,92,-1,-1,-1,-1,-1,-1,-1,-1,-1,-1,-1,-1,-1,-1,-1,-1,-1,-1,-1,-1,-1,-1,-1,-1,-1,-1,-1,-1,-1,-1,-1,-1,-1,-1,-1,-1,-1,-1,-1,-1,-1,-1],"split_conditions":[2.32894E2,1.9047216E5,2.598975E6,4.05E1,2.885198E5,1.8692898E6,4.9361615E6,5.275E1,9.7359375E4,1.85E-1,2.67415E4,9.2999925E5,1.5E0,3.1725E3,3.03E3,3.203E0,9.7545E1,1.3886628E-1,8.25E-1,1.49E-1,2.8E-1,7.954502E-5,1.03134E1,6.655816E5,1.5E0,2.103087E4,1.172E3,2.868875E6,1.6674305E5,1.8603045E5,2.9301362E5,7.001111E2,4.918E1,1.407198E4,-1.928081E4,2.5E0,4.8503484E4,1.5900001E-1,1.75E2,1.3507807E0,5.5E0,3.69E1,1.9311224E-3,5E0,4.859873E5,1.15E1,1.926916E-4,4.365E5,3.8209653E-1,1.36944E6,1.3963248E6,1.27038555E5,9.115976E4,1.19943836E5,7.7877516E4,5.5081482E1,5.6881006E2,1.2580424E3,-1.1047939E4,3.8102023E4,1.9185865E4,-7.13198E2,1.4528661E3,2.4641873E3,4.283236E3,5.37237E2,8.615702E3,2.8612473E4,6.366051E4,-3.8812387E2,2.4487756E4,-5.12045E4,-1.32425205E4,3.0901717E4,6.204799E4,1.0758159E4,8.016617E4,-4.119027E3,3.4259105E4,2.4014262E4,4.0700887E4,-1.5668495E4,2.5372732E4,3.2361771E4,1.102121E4,1.7289701E4,6.0481906E4,4.8055406E4,2.8323142E3,4.7894465E4,3.049474E4,4.8739543E4,8.667055E4],"split_indices":[2,5,5,0,5,5,5,3,5,4,7,5,1,0,0,2,2,3,4,4,4,8,3,5,1,0,0,5,0,0,0,6,2,5,0,1,5,4,0,3,1,2,9,1,5,1,9,5,3,5,5,0,0,0,0,0,0,0,0,0,0,0,0,0,0,0,0,0,0,0,0,0,0,0,0,0,0,0,0,0,0,0,0,0,0,0,0,0,0,0,0,0,0],"split_type":[0,0,0,0,0,0,0,0,0,0,0,0,0,0,0,0,0,0,0,0,0,0,0,0,0,0,0,0,0,0,0,0,0,0,0,0,0,0,0,0,0,0,0,0,0,0,0,0,0,0,0,0,0,0,0,0,0,0,0,0,0,0,0,0,0,0,0,0,0,0,0,0,0,0,0,0,0,0,0,0,0,0,0,0,0,0,0,0,0,0,0,0,0],"sum_hessian":[2.684E4,2.6739E4,1.01E2,2.5957E4,7.82E2,9.2E1,9E0,2.283E4,3.127E3,3.94E2,3.88E2,8.1E1,1.1E1,7E0,2E0,2.2814E4,1.6E1,2.442E3,6.85E2,4.6E1,3.48E2,2.34E2,1.54E2,2E1,6.1E1,1E0,1E1,4E0,3E0,1E0,1E0,1.331E4,9.504E3,1.5E1,1E0,4.23E2,2.019E3,6.74E2,1.1E1,3.8E1,8E0,4E0,3.44E2,4E1,1.94E2,2.3E1,1.31E2,1.1E1,9E0,3.1E1,3E1,1E0,9E0,2E0,2E0,6.852E3,6.458E3,9.471E3,3.3E1,6E0,9E0,2.62E2,1.61E2,8.98E2,1.121E3,6.4E1,6.1E2,1E1,1E0,3.4E1,4E0,1E0,7E0,1E0,3E0,3.43E2,1E0,3E1,1E1,1.36E2,5.8E1,1.9E1,4E0,2.8E1,1.03E2,5E0,6E0,2E0,7E0,2.4E1,7E0,2.3E1,7E0],"tree_param":{"num_deleted":"0","num_feature":"10","num_nodes":"93","size_leaf_vector":"0"}},{"base_weights":[6.935036E3,6.0371167E3,2.4441147E5,4.297208E3,5.6388984E4,2.0400138E5,6.5071125E5,1.9771105E3,1.1108275E4,3.9744656E4,8.573993E4,1.8242761E5,3.597879E5,5.303904E5,1.02652356E6,9.260846E2,4.0153406E3,1.0557962E4,6.3610848E4,-3.485612E4,4.3029594E4,1.1021491E5,5.2454965E4,1.1569356E5,2.0408245E5,8.603537E4,3.860402E5,4.1011772E5,6.7235094E5,7.610336E5,1.1986922E6,1.0118657E3,-1.2443675E4,3.913811E3,1.3441392E5,1.2261837E4,-4.3396855E3,5.9091484E4,2.0283362E5,4.178063E4,-7.319606E4,3.424303E4,6.0866668E4,8.939848E4,1.6975186E5,5.6159742E4,-1.8838289E5,3.571925E5,1.0117947E5,1.9374503E5,2.941124E5,3.410937E5,4.434959E5,2.5732148E5,4.511058E5,9.292321E2,4.4262016E4,-1.1790901E4,-5.8845285E4,1.3166705E5,3.8532979E3,8.9627555E4,1.4315114E5,9.255206E3,2.3115014E4,-2.0571106E3,-9.109213E4,-4.869136E4,6.4293047E4,2.808862E5,1.0634074E5,7.0843774E3,2.6193003E5,-5.763465E4,-1.7419384E5,2.589049E4,5.9800316E4,5.902873E4,3.5458222E5,-3.007042E5,9.24632E4,1.3940217E5,4.229077E5,5.979188E4,-1.7672247E5,1.7061434E5,3.7617453E4,2.813189E5,1.804155E5,1.9189017E5,3.392964E5],"categories":[],"categories_nodes":[],"categories_segments":[],"categories_sizes":[],"default_left":[1,1,1,1,1,1,1,1,1,1,1,1,1,1,1,1,1,1,1,1,1,1,1,1,1,0,1,1,0,0,0,1,1,1,1,1,1,1,1,1,1,1,1,1,1,1,0,0,1,1,1,0,0,0,0,0,0,0,0,0,0,0,0,0,0,0,0,0,0,0,0,0,0,0,0,0,0,0,0,0,0,0,0,0,0,0,0,0,0,0,0],"id":9,"left_children":[1,3,5,7,9,11,13,15,17,19,21,23,25,27,29,31,33,35,37,39,41,43,45,47,49,-1,51,53,-1,-1,-1,55,57,59,61,63,65,67,69,71,73,75,77,79,81,83,-1,-1,85,87,89,-1,-1,-1,-1,-1,-1,-1,-1,-1,-1,-1,-1,-1,-1,-1,-1,-1,-1,-1,-1,-1,-1,-1,-1,-1,-1,-1,-1,-1,-1,-1,-1,-1,-1,-1,-1,-1,-1,-1,-1],"loss_changes":[5.723093E12,2.3425253E12,1.6466465E12,4.084266E11,4.359625E11,3.0297503E11,3.570375E11,4.1299927E10,1.8967488E11,1.3985821E11,2.6263473E11,1.14837684E11,7.644971E10,9.3649895E10,4.76237E9,1.4589583E10,8.678526E10,1.6497666E11,4.164957E10,7.1117636E10,8.537984E10,2.291246E11,1.23385315E11,6.6838757E10,5.116553E10,0E0,1.0954473E10,1.4069006E10,0E0,0E0,0E0,4.5166907E10,2.3870433E9,5.0617213E10,7.124091E8,1.9028876E11,1.3207961E11,3.737133E10,1.2828828E10,6.1684875E10,2.4299676E10,7.7995835E10,9.513009E10,1.6788685E11,3.6366582E11,1.1533232E11,0E0,0E0,8.3654296E10,5.9243233E10,2.166345E10,0E0,0E0,0E0,0E0,0E0,0E0,0E0,0E0,0E0,0E0,0E0,0E0,0E0,0E0,0E0,0E0,0E0,0E0,0E0,0E0,0E0,0E0,0E0,0E0,0E0,0E0,0E0,0E0,0E0,0E0,0E0,0E0,0E0,0E0,0E0,0E0,0E0,0E0,0E0,0E0],"parents":[2147483647,0,0,1,1,2,2,3,3,4,4,5,5,6,6,7,7,8,8,9,9,10,10,11,11,12,12,13,13,14,14,15,15,16,16,17,17,18,18,19,19,20,20,21,21,22,22,23,23,24,24,26,26,27,27,31,31,32,32,33,33,34,34,35,35,36,36,37,37,38,38,39,39,40,40,41,41,42,42,43,43,44,44,45,45,48,48,49,49,50,50],"right_children":[2,4,6,8,10,12,14,16,18,20,22,24,26,28,30,32,34,36,38,40,42,44,46,48,50,-1,52,54,-1,-1,-1,56,58,60,62,64,66,68,70,72,74,76,78,80,82,84,-1,-1,86,88,90,-1,-1,-1,-1,-1,-1,-1,-1,-1,-1,-1,-1,-1,-1,-1,-1,-1,-1,-1,-1,-1,-1,-1,-1,-1,-1,-1,-1,-1,-1,-1,-1,-1,-1,-1,-1,-1,-1,-1,-1],"split_conditions":[2.32894E2,5.061E1,2.598975E6,2.3241152E4,2.8737925E5,1.8692898E6,4.9361615E6,2.5E0,1.5529494E5,1.7500001E-1,3.488775E4,9.2999925E5,1.5E0,3.1725E3,3.03E3,4.898E1,4.63E0,2.14895E4,1.5E0,1.282255E-1,1.605E2,1.41665E2,1.825E2,2.6633134E-4,4.8014252E2,1.7207074E4,9.607278E2,2.5E0,1.3447019E5,1.5220673E5,2.3973845E5,2.7075E1,4.9765E1,4.776E-2,4.5E0,7.195767E4,3.9298E1,1.484E1,3.87505E1,2.0312533E5,5.7421375E2,4.4542503E1,2.8368822E5,2.4586658E-5,4.813E3,1.65E1,-3.767658E4,7.14385E4,9.57E2,2.6377355E-4,1.5E0,6.821874E4,8.869918E4,5.1464297E4,9.0221164E4,1.8584642E2,8.852403E3,-2.3581804E3,-1.1769058E4,2.633341E4,7.706596E2,1.7925512E4,2.8630229E4,1.8510413E3,4.623003E3,-4.1142212E2,-1.8218428E4,-9.738272E3,1.2858609E4,5.617724E4,2.1268148E4,1.4168755E3,5.2386008E4,-1.152693E4,-3.483877E4,5.178098E3,1.1960063E4,1.1805746E4,7.0916445E4,-6.014084E4,1.849264E4,2.7880436E4,8.458154E4,1.1958376E4,-3.5344496E4,3.412287E4,7.5234907E3,5.626378E4,3.60831E4,3.8378035E4,6.785928E4],"split_indices":[2,2,5,5,5,5,5,1,7,4,7,5,1,0,0,2,3,7,1,3,0,2,3,9,2,0,6,1,0,0,0,2,2,2,1,5,2,2,2,5,7,4,5,9,7,0,0,0,7,8,1,0,0,0,0,0,0,0,0,0,0,0,0,0,0,0,0,0,0,0,0,0,0,0,0,0,0,0,0,0,0,0,0,0,0,0,0,0,0,0,0],"split_type":[0,0,0,0,0,0,0,0,0,0,0,0,0,0,0,0,0,0,0,0,0,0,0,0,0,0,0,0,0,0,0,0,0,0,0,0,0,0,0,0,0,0,0,0,0,0,0,0,0,0,0,0,0,0,0,0,0,0,0,0,0,0,0,0,0,0,0,0,0,0,0,0,0,0,0,0,0,0,0,0,0,0,0,0,0,0,0,0,0,0,0],"sum_hessian":[2.684E4,2.6739E4,1.01E2,2.5846E4,8.93E2,9.2E1,9E0,1.9279E4,6.567E3,5.7E2,3.23E2,8.1E1,1.1E1,7E0,2E0,1.272E4,6.559E3,6.499E3,6.8E1,2.4E1,5.46E2,1.86E2,1.37E2,2E1,6.1E1,1E0,1E1,4E0,3E0,1E0,1E0,1.2639E4,8.1E1,6.554E3,5E0,5.832E3,6.67E2,6.6E1,2E0,8E0,1.6E1,3.66E2,1.8E2,1.38E2,4.8E1,1.35E2,2E0,1E0,1.9E1,5.5E1,6E0,6E0,4E0,1E0,3E0,1.2615E4,2.4E1,8E1,1E0,3E0,6.551E3,1E0,4E0,4.567E3,1.265E3,6.5E2,1.7E1,3E0,6.3E1,1E0,1E0,7E0,1E0,1.4E1,2E0,2.76E2,9E1,1.79E2,1E0,1E0,1.37E2,4.3E1,5E0,1.33E2,2E0,9E0,1E1,7E0,4.8E1,2E0,4E0],"tree_param":{"num_deleted":"0","num_feature":"10","num_nodes":"91","size_leaf_vector":"0"}},{"base_weights":[5.553275E3,3.950151E3,9.246611E4,2.7073748E3,2.1294275E4,7.961855E4,3.6184644E5,1.2856863E3,6.3379507E3,1.4634028E4,3.800498E4,6.679698E4,1.7274725E5,2.8934275E5,6.73098E5,-1.6836902E3,1.8258695E3,9.123352E3,2.7554858E3,2.4485169E5,1.4248589E4,2.729156E5,3.7010953E4,6.4151383E4,2.74593E5,3.612874E5,1.6141484E5,-9.2911455E3,3.264979E5,5.422186E5,9.807482E5,3.4358574E4,-1.884818E3,6.014669E2,3.71226E3,7.8160386E3,2.560254E4,3.9805894E3,-6.0137725E3,1.7389167E5,2.9355153E5,5.0872117E4,1.1856666E4,3.795771E3,4.1624355E4,-2.2296611E4,6.890835E4,3.3614194E5,2.0219318E4,1.6402972E5,4.4740822E5,1.6610984E5,-7.5630625E4,-1.3320781E4,-4.4159517E3,3.0276056E5,6.2266406E5,1.5673209E4,1.061831E5,-1.287956E3,-1.272978E4,-2.841197E2,1.4095236E3,4.323443E3,-2.6602556E3,-1.2283462E4,8.313151E3,2.119673E4,9.478629E4,2.45365E4,2.938854E3,-7.6459487E3,4.699046E4,1.3902678E5,1.9751334E4,8.652795E3,3.9893305E4,2.1622145E4,-5.0652867E4,3.0737322E4,5.055243E4,2.2664613E4,-7.148878E4,1.0822657E5,5.7106832E4,4.3345444E5,2.907681E5,1.6962589E5,-1.2326363E4,7.0392586E4,3.1874128E5],"categories":[],"categories_nodes":[],"categories_segments":[],"categories_sizes":[],"default_left":[1,1,1,1,1,1,1,1,1,1,1,1,1,1,1,1,1,1,1,1,1,0,1,1,1,1,1,1,1,0,0,1,1,1,1,1,1,1,1,0,0,1,1,1,1,1,1,1,0,0,0,1,0,0,0,1,0,0,0,0,0,0,0,0,0,0,0,0,0,0,0,0,0,0,0,0,0,0,0,0,0,0,0,0,0,0,0,0,0,0,0],"id":10,"left_children":[1,3,5,7,9,11,13,15,17,19,21,23,25,27,29,31,33,35,37,39,41,-1,43,45,47,49,51,53,55,-1,-1,57,59,61,63,65,67,69,71,-1,-1,73,75,77,79,81,83,85,-1,-1,-1,87,-1,-1,-1,89,-1,-1,-1,-1,-1,-1,-1,-1,-1,-1,-1,-1,-1,-1,-1,-1,-1,-1,-1,-1,-1,-1,-1,-1,-1,-1,-1,-1,-1,-1,-1,-1,-1,-1,-1],"loss_changes":[3.7396488E12,5.6805333E11,1.6794528E12,1.2693248E11,1.9606156E11,5.530072E11,4.7925192E11,2.8346487E10,6.905037E10,1.1146581E11,1.162338E11,2.2258896E11,1.1403172E11,2.0113732E11,1.1190718E11,1.9724722E10,3.4534654E10,8.385079E10,3.252328E10,2.1519483E9,1.10150025E11,0E0,7.661709E10,1.6592064E11,7.916778E10,4.5323354E10,6.035289E10,3.5354896E7,9.4333305E10,0E0,0E0,2.0098673E10,1.7508307E10,6.4884946E9,2.2922265E10,3.605132E10,8.700522E10,5.6870003E10,3.214058E10,0E0,0E0,2.1124463E11,1.06058646E11,5.9414487E10,4.252513E10,4.6829793E10,1.7668191E11,5.499126E9,0E0,0E0,0E0,3.2896188E10,0E0,0E0,0E0,5.3828256E10,0E0,0E0,0E0,0E0,0E0,0E0,0E0,0E0,0E0,0E0,0E0,0E0,0E0,0E0,0E0,0E0,0E0,0E0,0E0,0E0,0E0,0E0,0E0,0E0,0E0,0E0,0E0,0E0,0E0,0E0,0E0,0E0,0E0,0E0,0E0],"parents":[2147483647,0,0,1,1,2,2,3,3,4,4,5,5,6,6,7,7,8,8,9,9,10,10,11,11,12,12,13,13,14,14,15,15,16,16,17,17,18,18,19,19,20,20,22,22,23,23,24,24,25,25,26,26,27,27,28,28,31,31,32,32,33,33,34,34,35,35,36,36,37,37,38,38,41,41,42,42,43,43,44,44,45,45,46,46,47,47,51,51,55,55],"right_children":[2,4,6,8,10,12,14,16,18,20,22,24,26,28,30,32,34,36,38,40,42,-1,44,46,48,50,52,54,56,-1,-1,58,60,62,64,66,68,70,72,-1,-1,74,76,78,80,82,84,86,-1,-1,-1,88,-1,-1,-1,90,-1,-1,-1,-1,-1,-1,-1,-1,-1,-1,-1,-1,-1,-1,-1,-1,-1,-1,-1,-1,-1,-1,-1,-1,-1,-1,-1,-1,-1,-1,-1,-1,-1,-1,-1],"split_conditions":[2.885198E5,2.6984001E1,2.0415722E6,5.691E0,1.225E2,8.57E2,3.1725E3,1.0670068E-1,4.5680416E-1,5.481401E-5,1.7590719E-4,6.2969304E-4,1.8963975E-1,2.55E1,5.184E3,6.493E0,5.0935625E3,1.2055E3,2.14895E4,5E0,2.8075E1,5.458312E4,2.65E-1,3.9788065E-5,3.5E0,9.465E2,2.006E3,1.05E1,5.213854E6,1.0844373E5,1.9614964E5,2E0,3.840125E4,1.5E0,1.7633333E0,1.8184198E-4,9.85E1,1.5395154E-4,1.72304E5,3.4778336E4,5.871031E4,1.5E0,1.49454E5,5.8440002E1,1.475844E5,7.7258075E5,3.8460594E-1,1.65E1,4.0438638E3,3.2805945E4,8.948165E4,1.665681E6,-1.5126125E4,-2.6641562E3,-8.8319037E2,1.5E0,1.2453281E5,3.1346418E3,2.1236621E4,-2.5759122E2,-2.545956E3,-5.682394E1,2.8190472E2,8.646886E2,-5.3205115E2,-2.4566924E3,1.6626302E3,4.239346E3,1.8957258E4,4.9073003E3,5.877708E2,-1.5291898E3,9.398093E3,2.7805357E4,3.9502668E3,1.730559E3,7.978661E3,4.324429E3,-1.0130573E4,6.1474644E3,1.0110486E4,4.532923E3,-1.4297757E4,2.1645314E4,1.1421366E4,8.669089E4,5.815362E4,3.392518E4,-2.4652727E3,1.4078518E4,6.3748258E4],"split_indices":[5,2,5,2,0,0,0,3,3,9,8,8,3,0,0,5,5,7,7,1,2,0,4,8,1,0,0,0,5,0,0,1,5,1,3,9,0,9,6,0,0,1,6,2,5,5,3,0,0,0,0,5,0,0,0,1,0,0,0,0,0,0,0,0,0,0,0,0,0,0,0,0,0,0,0,0,0,0,0,0,0,0,0,0,0,0,0,0,0,0,0],"split_type":[0,0,0,0,0,0,0,0,0,0,0,0,0,0,0,0,0,0,0,0,0,0,0,0,0,0,0,0,0,0,0,0,0,0,0,0,0,0,0,0,0,0,0,0,0,0,0,0,0,0,0,0,0,0,0,0,0,0,0,0,0,0,0,0,0,0,0,0,0,0,0,0,0,0,0,0,0,0,0,0,0,0,0,0,0,0,0,0,0,0,0],"sum_hessian":[2.684E4,2.6354E4,4.86E2,2.4592E4,1.762E3,4.64E2,2.2E1,1.7672E4,6.92E3,1.26E3,5.02E2,4.08E2,5.6E1,1.8E1,4E0,2.72E3,1.4952E4,3.893E3,3.027E3,2E0,1.258E3,2E0,5E2,4.03E2,5E0,3E0,5.3E1,2E0,1.6E1,3E0,1E0,1.5E1,2.705E3,9.067E3,5.885E3,3.607E3,2.86E2,2.656E3,3.71E2,1E0,1E0,7.7E1,1.181E3,6.1E1,4.39E2,2.1E1,3.82E2,4E0,1E0,1E0,2E0,5.2E1,1E0,1E0,1E0,1.5E1,1E0,1.2E1,3E0,2.564E3,1.41E2,4.326E3,4.741E3,5.37E3,5.15E2,8.7E1,3.52E3,2.69E2,1.7E1,1.28E2,2.528E3,3.6E2,1.1E1,2E1,5.7E1,1.06E3,1.21E2,4.6E1,1.5E1,1.98E2,2.41E2,1.1E1,1E1,8.8E1,2.94E2,1E0,3E0,5.1E1,1E0,1E0,1.4E1],"tree_param":{"num_deleted":"0","num_feature":"10","num_nodes":"91","size_leaf_vector":"0"}},{"base_weights":[4.4466143E3,3.2744094E3,8.3309414E4,2.184848E3,1.7938785E4,7.045076E4,3.215797E5,1.1705217E3,5.722146E3,1.3516499E4,3.5728664E4,5.0325445E4,1.1910382E5,2.7738556E5,6.871771E5,6.708924E1,2.332677E3,7.4176436E3,1.537856E3,1.3160918E4,1.8078817E5,-3.7932387E4,3.86851E4,1.6421739E5,4.4839027E4,-3.3203925E5,1.23584375E5,2.4272389E5,4.3727322E5,5.0945228E5,8.0243044E5,2.3621947E2,-1.0822299E4,4.338679E2,4.150859E3,8.666233E3,-1.1613899E3,3.3879717E3,-8.316969E3,1.3362969E4,-2.5641375E5,-1.0231653E5,1.9382769E5,4.000641E4,-3.841659E5,5.4308707E4,1.8544367E5,6.0359418E4,-3.7768464E3,3.650429E5,1.1868878E5,5.759392E4,2.5544514E5,7.2535664E3,6.353778E1,1.3328806E4,-1.3122067E4,-8.1264307E3,8.043584E2,3.399797E3,1.1540967E4,7.976758E3,6.3772527E4,-2.0498486E3,3.7677035E4,2.1189216E3,1.1153066E4,-4.709051E4,-7.1811206E3,1.0805624E4,3.3849766E4,-1.2377965E5,-4.436994E3,1.1708693E5,2.2479484E5,1.328009E5,3.1558047E4,6.810264E4,3.5576703E4,1.6783878E5,3.1422472E5,5.460049E4,3.2169084E5,1.9006313E3,-1.6337792E5,1.13697484E5,3.6046238E5,3.3623662E5,2.3058034E5],"categories":[],"categories_nodes":[],"categories_segments":[],"categories_sizes":[],"default_left":[1,1,1,1,1,1,1,1,1,1,1,1,1,1,1,1,1,1,1,1,0,1,1,1,1,0,1,1,0,0,0,1,1,1,1,1,1,1,1,1,0,1,1,1,0,1,1,1,1,0,1,0,1,0,0,0,0,0,0,0,0,0,0,0,0,0,0,0,0,0,0,0,0,0,0,0,0,0,0,0,0,0,0,0,0,0,0,0,0],"id":11,"left_children":[1,3,5,7,9,11,13,15,17,19,21,23,25,27,29,31,33,35,37,39,-1,41,43,45,47,-1,49,51,-1,-1,-1,53,55,57,59,61,63,65,67,69,-1,71,73,75,-1,77,79,81,83,-1,85,-1,87,-1,-1,-1,-1,-1,-1,-1,-1,-1,-1,-1,-1,-1,-1,-1,-1,-1,-1,-1,-1,-1,-1,-1,-1,-1,-1,-1,-1,-1,-1,-1,-1,-1,-1,-1,-1],"loss_changes":[2.4811607E12,4.22561E11,1.2021279E12,8.832842E10,1.4385047E11,3.6472436E11,3.0569883E11,2.4534217E10,3.8919733E10,8.690398E10,7.943835E10,1.6428866E11,2.24635E11,8.969532E10,2.1337211E9,1.8075113E10,3.216944E10,4.182052E10,2.8848554E10,7.997992E10,0E0,2.1237868E11,1.9714317E11,2.722136E10,1.9024173E11,0E0,1.2345003E11,3.4090254E10,0E0,0E0,0E0,1.1710587E10,8.354337E9,1.4456702E10,2.6416652E10,1.2943784E11,1.7126281E10,1.3124527E10,1.0980753E10,7.6513E10,0E0,2.3263822E10,4.734583E9,2.7326179E11,0E0,3.002235E8,1.7624138E10,2.858466E11,5.5395852E10,0E0,1.239388E11,0E0,2.0571488E10,0E0,0E0,0E0,0E0,0E0,0E0,0E0,0E0,0E0,0E0,0E0,0E0,0E0,0E0,0E0,0E0,0E0,0E0,0E0,0E0,0E0,0E0,0E0,0E0,0E0,0E0,0E0,0E0,0E0,0E0,0E0,0E0,0E0,0E0,0E0,0E0],"parents":[2147483647,0,0,1,1,2,2,3,3,4,4,5,5,6,6,7,7,8,8,9,9,10,10,11,11,12,12,13,13,14,14,15,15,16,16,17,17,18,18,19,19,21,21,22,22,23,23,24,24,26,26,27,27,31,31,32,32,33,33,34,34,35,35,36,36,37,37,38,38,39,39,41,41,42,42,43,43,45,45,46,46,47,47,48,48,50,50,52,52],"right_children":[2,4,6,8,10,12,14,16,18,20,22,24,26,28,30,32,34,36,38,40,-1,42,44,46,48,-1,50,52,-1,-1,-1,54,56,58,60,62,64,66,68,70,-1,72,74,76,-1,78,80,82,84,-1,86,-1,88,-1,-1,-1,-1,-1,-1,-1,-1,-1,-1,-1,-1,-1,-1,-1,-1,-1,-1,-1,-1,-1,-1,-1,-1,-1,-1,-1,-1,-1,-1,-1,-1,-1,-1,-1,-1],"split_conditions":[8.8438E1,2.6984001E1,1.895701E6,7.232E0,1.445E2,6.566822E5,4.9361615E6,7.256395E2,4.1273428E-4,7.710925E5,7.606128E-5,9.03825E1,8.558419E-5,3.1725E3,3.03E3,4.053617E3,1.5E0,1.4133333E0,1.5805E1,6.8665475E5,3.6157637E4,2.1450001E-1,2.6415E3,1.7558106E5,1.6003384E5,-6.640785E4,6.747148E5,1.5E0,8.745465E4,1.0189046E5,1.604861E5,2.2459998E0,1.7049999E0,8.5E-2,1.95E1,6.53625E3,1.72304E5,3.7829229E-3,1.5571697E-4,1.5361794E5,-5.128275E4,5.5E0,1.75E2,2.1375355E-4,-7.683318E4,1.565E2,5.159207E-4,5.789578E5,1.882E2,7.3008586E4,1.7E1,1.1518784E4,1.25E2,1.4507133E3,1.2707557E1,2.6657612E3,-2.6244136E3,-1.6252861E3,1.6087169E2,6.799594E2,2.3081934E3,1.5953516E3,1.2754506E4,-4.0996973E2,7.535407E3,4.2378433E2,2.2306133E3,-9.418103E3,-1.4362241E3,2.1611248E3,6.769953E3,-2.475593E4,-8.8739886E2,2.3417387E4,4.495897E4,2.6560182E4,6.3116094E3,1.3620528E4,7.115341E3,3.3567758E4,6.2844945E4,1.0920098E4,6.4338168E4,3.8012628E2,-3.2675584E4,2.2739498E4,7.209248E4,6.724733E4,4.611607E4],"split_indices":[2,2,5,2,0,5,5,7,9,5,8,2,8,0,0,6,1,3,2,5,0,3,6,5,7,0,5,1,0,0,0,7,2,3,0,7,6,9,8,6,0,1,0,8,0,0,9,5,3,0,1,0,0,0,0,0,0,0,0,0,0,0,0,0,0,0,0,0,0,0,0,0,0,0,0,0,0,0,0,0,0,0,0,0,0,0,0,0,0],"split_type":[0,0,0,0,0,0,0,0,0,0,0,0,0,0,0,0,0,0,0,0,0,0,0,0,0,0,0,0,0,0,0,0,0,0,0,0,0,0,0,0,0,0,0,0,0,0,0,0,0,0,0,0,0,0,0,0,0,0,0,0,0,0,0,0,0,0,0,0,0,0,0,0,0,0,0,0,0,0,0,0,0,0,0,0,0,0,0,0,0],"sum_hessian":[2.684E4,2.6447E4,3.93E2,2.4618E4,1.829E3,3.73E2,2E1,1.9132E4,5.486E3,1.465E3,3.64E2,2.64E2,1.09E2,1.8E1,2E0,9.814E3,9.318E3,3.904E3,1.582E3,1.462E3,3E0,1.4E1,3.5E2,1.2E1,2.52E2,1E0,1.08E2,1.5E1,3E0,1E0,1E0,9.664E3,1.5E2,4.558E3,4.76E3,3.408E3,4.96E2,1.332E3,2.5E2,1.461E3,1E0,1.1E1,3E0,3.49E2,1E0,2E0,1E1,1.91E2,6.1E1,2E0,1.06E2,1E0,1.4E1,2.32E2,9.432E3,1.3E1,1.37E2,1.89E2,4.369E3,4.321E3,4.39E2,3.366E3,4.2E1,4.85E2,1.1E1,1.145E3,1.87E2,7E0,2.43E2,1.299E3,1.62E2,9E0,2E0,1E0,2E0,2.9E1,3.2E2,1E0,1E0,9E0,1E0,1.87E2,4E0,5.9E1,2E0,1.04E2,2E0,3E0,1.1E1],"tree_param":{"num_deleted":"0","num_feature":"10","num_nodes":"89","size_leaf_vector":"0"}},{"base_weights":[3.5600676E3,2.7315042E3,7.834678E4,1.7479446E3,1.5289511E4,6.502485E4,2.5962561E5,6.159536E2,3.8813718E3,3.9662367E4,1.2653993E4,4.594957E4,1.059259E5,2.2308167E5,5.6223594E5,-1.4809022E4,6.883097E2,5.862139E3,1.6560594E3,1.2837704E5,2.0005406E4,7.5482905E3,2.4275229E4,2.7479606E5,3.951512E4,1.116993E5,-1.330778E5,1.8416803E5,3.1866197E5,4.1682453E5,6.5653406E5,-9.3496E3,-2.7058115E4,-2.4864502E2,1.5875214E3,4.8386055E3,1.5943801E4,1.5771047E3,1.0388939E5,2.4646986E5,9.6963836E4,1.0756058E5,2.1506714E3,1.9827506E5,7.215856E3,2.5791E5,2.3343342E4,2.10455E5,3.5668972E5,8.1358445E4,2.1344236E4,3.1702953E5,1.0637602E5,-2.2329919E5,-3.07575E4,2.7115862E5,1.556444E5,2.533294E5,3.5263975E5,4.5002715E3,-1.2650068E4,-3.564304E4,-2.132552E4,-9.461921E2,1.5072341E3,2.8536606E3,-1.6009244E2,3.4198386E3,9.508547E3,2.4738496E4,3.5833972E3,2.2784067E3,-5.0740483E3,-8.002329E3,3.0805728E5,3.4252072E5,1.6783433E5,1.4402177E5,6.860229E4,-3.681843E4,1.4194816E5,-9.70223E4,2.1686951E4,1.4031034E5,2.3821386E5,-1.6396229E4,1.0340276E4,3.3065562E5,1.6171711E5,2.0530826E4,6.0586023E4,-1.9092549E4,1.0367375E5,4.8845547E3,7.675865E4,1.0028567E5,2.6031098E5,3.2519203E5,1.4335227E5,4.71223E4,1.6705198E5],"categories":[],"categories_nodes":[],"categories_segments":[],"categories_sizes":[],"default_left":[1,1,1,1,1,1,1,1,1,1,1,1,1,1,1,1,1,1,1,1,1,1,1,1,1,1,1,1,1,0,0,1,1,1,1,1,1,1,1,1,1,1,1,1,1,1,1,0,0,1,1,0,1,0,0,1,1,0,0,0,0,0,0,0,0,0,0,0,0,0,0,0,0,0,0,0,0,0,0,0,0,0,0,0,0,0,0,0,0,0,0,0,0,0,0,0,0,0,0,0,0],"id":12,"left_children":[1,3,5,7,9,11,13,15,17,19,21,23,25,27,29,31,33,35,37,39,41,43,45,47,49,51,53,55,57,-1,-1,59,61,63,65,67,69,71,73,75,77,79,81,83,85,87,89,-1,-1,91,93,-1,95,-1,-1,97,99,-1,-1,-1,-1,-1,-1,-1,-1,-1,-1,-1,-1,-1,-1,-1,-1,-1,-1,-1,-1,-1,-1,-1,-1,-1,-1,-1,-1,-1,-1,-1,-1,-1,-1,-1,-1,-1,-1,-1,-1,-1,-1,-1,-1],"loss_changes":[1.6631397E12,3.278827E11,7.0855806E11,5.9452965E10,1.2380144E11,2.1336582E11,2.0973407E11,1.7952313E10,3.7615854E10,3.2776326E11,1.0322978E11,2.744188E11,1.21672565E11,6.1451534E10,1.4281605E9,4.996825E9,1.3488036E10,4.658322E10,3.2424884E10,1.2410959E11,2.4087732E11,7.651876E10,1.1502944E11,1.9365265E10,1.382824E11,8.964394E10,1.8699039E10,2.8283994E10,2.387247E9,0E0,0E0,2.387248E9,1.06077286E9,9.602762E9,1.8075996E10,2.715557E10,4.5223674E10,1.8734117E10,7.106537E10,4.787726E10,3.518038E10,1.3010518E11,2.4840035E11,1.5188132E9,8.906963E10,9.347203E9,5.5296426E10,0E0,0E0,1.2370988E11,1.1589078E11,0E0,7.52968E10,0E0,0E0,1.6745857E10,1.1716133E10,0E0,0E0,0E0,0E0,0E0,0E0,0E0,0E0,0E0,0E0,0E0,0E0,0E0,0E0,0E0,0E0,0E0,0E0,0E0,0E0,0E0,0E0,0E0,0E0,0E0,0E0,0E0,0E0,0E0,0E0,0E0,0E0,0E0,0E0,0E0,0E0,0E0,0E0,0E0,0E0,0E0,0E0,0E0,0E0],"parents":[2147483647,0,0,1,1,2,2,3,3,4,4,5,5,6,6,7,7,8,8,9,9,10,10,11,11,12,12,13,13,14,14,15,15,16,16,17,17,18,18,19,19,20,20,21,21,22,22,23,23,24,24,25,25,26,26,27,27,28,28,31,31,32,32,33,33,34,34,35,35,36,36,37,37,38,38,39,39,40,40,41,41,42,42,43,43,44,44,45,45,46,46,49,49,50,50,52,52,55,55,56,56],"right_children":[2,4,6,8,10,12,14,16,18,20,22,24,26,28,30,32,34,36,38,40,42,44,46,48,50,52,54,56,58,-1,-1,60,62,64,66,68,70,72,74,76,78,80,82,84,86,88,90,-1,-1,92,94,-1,96,-1,-1,98,100,-1,-1,-1,-1,-1,-1,-1,-1,-1,-1,-1,-1,-1,-1,-1,-1,-1,-1,-1,-1,-1,-1,-1,-1,-1,-1,-1,-1,-1,-1,-1,-1,-1,-1,-1,-1,-1,-1,-1,-1,-1,-1,-1,-1],"split_conditions":[1.125345E2,2.6984001E1,1.895701E6,4.534E0,1.9078862E-4,7.652845E5,4.9361615E6,1.088427E-5,4.5680416E-1,1.5E0,1.135E2,2.429711E-4,1.665681E6,2.308E3,3.03E3,5.7144E4,6.957355E2,1.2055E3,2.69276E5,1.849E0,1.8205312E3,5.481401E-5,2.0567041E-4,1.85E2,9.57E2,8.7396265E2,7.485E2,1.25E2,3.1725E3,8.336491E4,1.3130681E5,1.0366E4,2.4999999E-2,3.0160713E-1,4.1837135E-4,1.63755E1,1.747625E3,5.5004997E0,1.35E1,3.942601E5,3.08E1,1.2145E3,3.350376E3,5E0,2.4240586E-4,2.48E2,1.2445225E3,4.2091E4,7.1337945E4,4.2505127E2,2.5E0,6.3405906E4,1.5546505E6,-4.465984E4,-6.1515E3,4.6328E2,1.5E0,5.0665883E4,7.052795E4,9.000543E2,-2.5300137E3,-7.128608E3,-4.265104E3,-1.8923842E2,3.0144684E2,5.707321E2,-3.201849E1,6.839677E2,1.9017094E3,4.947699E3,7.1667944E2,4.5568137E2,-1.0148097E3,-1.6004658E3,6.1611457E4,6.850415E4,3.3566867E4,2.8804354E4,1.3720458E4,-7.363686E3,2.838963E4,-1.9404459E4,4.33739E3,2.8062068E4,4.7642773E4,-3.2792458E3,2.0680554E3,6.6131125E4,3.2343422E4,4.1061655E3,1.2117205E4,-3.8185098E3,2.073475E4,9.7691095E2,1.53517295E4,2.0057135E4,5.20622E4,6.5038406E4,2.8670453E4,9.42446E3,3.34104E4],"split_indices":[2,2,5,2,8,5,5,9,3,1,0,8,5,0,0,5,6,7,5,3,6,9,8,0,7,6,0,0,0,0,0,5,4,3,9,2,7,4,0,5,3,7,6,1,8,0,6,0,0,6,1,0,5,0,0,2,1,0,0,0,0,0,0,0,0,0,0,0,0,0,0,0,0,0,0,0,0,0,0,0,0,0,0,0,0,0,0,0,0,0,0,0,0,0,0,0,0,0,0,0,0],"split_type":[0,0,0,0,0,0,0,0,0,0,0,0,0,0,0,0,0,0,0,0,0,0,0,0,0,0,0,0,0,0,0,0,0,0,0,0,0,0,0,0,0,0,0,0,0,0,0,0,0,0,0,0,0,0,0,0,0,0,0,0,0,0,0,0,0,0,0,0,0,0,0,0,0,0,0,0,0,0,0,0,0,0,0,0,0,0,0,0,0,0,0,0,0,0,0,0,0,0,0,0,0],"sum_hessian":[2.684E4,2.6546E4,2.94E2,2.4618E4,1.928E3,2.74E2,2E1,1.6084E4,8.534E3,1.88E2,1.74E3,1.87E2,8.7E1,1.8E1,2E0,7.5E1,1.6009E4,4.515E3,4.019E3,3.4E1,1.54E2,1.209E3,5.31E2,5E0,1.82E2,8.5E1,2E0,1.3E1,5E0,1E0,1E0,5.2E1,2.3E1,7.84E3,8.169E3,4.099E3,4.16E2,4.016E3,3E0,7E0,2.7E1,2.6E1,1.28E2,2E0,1.207E3,2E0,5.29E2,3E0,2E0,5.5E1,1.27E2,2E0,8.3E1,1E0,1E0,3E0,1E1,2E0,3E0,1E1,4.2E1,9E0,1.4E1,5.611E3,2.229E3,4.737E3,3.432E3,3.144E3,9.55E2,2.43E2,1.73E2,3.633E3,3.83E2,2E0,1E0,3E0,4E0,1E1,1.7E1,5E0,2.1E1,2.1E1,1.07E2,1E0,1E0,1.41E2,1.066E3,1E0,1E0,4.92E2,3.7E1,1E1,4.5E1,9.8E1,2.9E1,8E1,3E0,2E0,1E0,1E0,9E0],"tree_param":{"num_deleted":"0","num_feature":"10","num_nodes":"101","size_leaf_vector":"0"}},{"base_weights":[2.8521482E3,2.5054053E3,1.1868973E5,1.7325956E3,2.4282248E4,1.0198965E5,3.6227916E5,9.8078174E2,6.886104E3,2.3746365E4,2.5664297E5,2.9778144E5,9.0555805E4,3.065225E5,5.3716406E5,1.198929E3,-2.1053512E4,-1.2647953E3,9.49617E3,1.4347568E4,3.397643E4,4.9005328E5,2.1994977E5,-2.497567E5,9.576678E4,3.6138775E5,2.3706047E5,1.099923E3,6.789449E4,-6.691194E3,-3.6060652E4,-2.3638574E3,2.3366258E4,9.313798E3,4.216389E5,2.4091082E4,-3.2518843E3,7.575598E4,2.5046486E4,2.632506E5,1.1728818E5,7.976811E4,1.4488675E5,1.05148E3,1.0799489E5,1.2576237E5,6.0105684E3,8.292499E3,-1.4588553E4,-6.562029E4,-2.0585693E4,-1.8830963E4,-1.3792927E3,1.1062886E4,7.965923E4,7.562626E3,1.7062924E4,-7.6542266E3,3.4172246E4,3.8998342E3,-1.1658515E5,-1.155694E5,9.206413E4,5.3636996E4,1.7278682E4,3.890196E3,8.7647516E4,8.243139E4,1.7790369E5],"categories":[],"categories_nodes":[],"categories_segments":[],"categories_sizes":[],"default_left":[1,1,1,1,1,1,1,1,1,1,0,1,1,1,0,1,1,1,1,1,1,0,1,0,1,0,0,1,1,1,1,1,1,1,0,1,1,1,1,0,0,1,1,0,0,0,0,0,0,0,0,0,0,0,0,0,0,0,0,0,0,0,0,0,0,0,0,0,0],"id":13,"left_children":[1,3,5,7,9,11,13,15,17,19,-1,21,23,25,-1,27,29,31,33,35,37,-1,39,-1,41,-1,-1,43,45,47,49,51,53,55,-1,57,59,61,63,-1,-1,65,67,-1,-1,-1,-1,-1,-1,-1,-1,-1,-1,-1,-1,-1,-1,-1,-1,-1,-1,-1,-1,-1,-1,-1,-1,-1,-1],"loss_changes":[1.07802604E12,4.50351E11,3.221485E11,1.0012787E11,1.1358595E11,1.654259E11,3.3263976E10,1.0840892E11,6.999605E10,8.7938335E10,0E0,5.0576425E10,1.28477495E11,7.0576374E9,0E0,1.4745711E11,4.763114E10,2.1610918E10,1.8692162E11,8.1821204E10,1.6326043E11,0E0,1.069251E10,0E0,5.3932392E10,0E0,0E0,1.1546017E11,1.184584E11,1.3395411E10,4.9313448E10,1.2385683E10,2.3529218E10,3.3791443E10,0E0,9.830729E10,1.3791632E11,2.4162868E11,8.010233E10,0E0,0E0,3.171287E10,3.3794884E10,0E0,0E0,0E0,0E0,0E0,0E0,0E0,0E0,0E0,0E0,0E0,0E0,0E0,0E0,0E0,0E0,0E0,0E0,0E0,0E0,0E0,0E0,0E0,0E0,0E0,0E0],"parents":[2147483647,0,0,1,1,2,2,3,3,4,4,5,5,6,6,7,7,8,8,9,9,11,11,12,12,13,13,15,15,16,16,17,17,18,18,19,19,20,20,22,22,24,24,27,27,28,28,29,29,30,30,31,31,32,32,33,33,35,35,36,36,37,37,38,38,41,41,42,42],"right_children":[2,4,6,8,10,12,14,16,18,20,-1,22,24,26,-1,28,30,32,34,36,38,-1,40,-1,42,-1,-1,44,46,48,50,52,54,56,-1,58,60,62,64,-1,-1,66,68,-1,-1,-1,-1,-1,-1,-1,-1,-1,-1,-1,-1,-1,-1,-1,-1,-1,-1,-1,-1,-1,-1,-1,-1,-1,-1],"split_conditions":[3.509E2,1.711875E5,3.1410895E6,3.95E1,9.955E2,2.6377355E-4,5.184E3,1.29792375E5,7.579868E2,7.594E1,5.1328594E4,2.1E1,2.718093E-4,4.032E3,1.0743281E5,1.04926875E5,2.2270785E-4,3.0795997E-3,1.93E2,3.5E0,2.408284E-4,9.801066E4,4.6328E2,-4.995134E4,2.5E0,7.2277555E4,4.7412094E4,5.75E1,3.85E1,1.0353039E-4,2.09725E1,1.2688327E-4,3.991E1,1.048327E5,8.432778E4,1.08850756E-4,5.326E0,8.281695E-5,9.5297253E2,5.265012E4,2.3457637E4,1.6E1,9.5777563E2,2.10296E2,2.1598979E4,2.5152475E4,1.2021136E3,1.6584999E3,-2.9177107E3,-1.3124058E4,-4.1171387E3,-3.7661926E3,-2.7585855E2,2.2125771E3,1.5931846E4,1.5125253E3,3.4125847E3,-1.5308453E3,6.834449E3,7.7996686E2,-2.331703E4,-2.311388E4,1.8412826E4,1.0727399E4,3.4557363E3,7.7803925E2,1.7529504E4,1.648628E4,3.558074E4],"split_indices":[2,5,5,0,0,8,0,5,6,2,0,0,8,0,0,6,8,9,0,1,9,0,2,0,1,0,0,3,2,9,4,9,2,5,0,8,4,9,7,0,0,0,6,0,0,0,0,0,0,0,0,0,0,0,0,0,0,0,0,0,0,0,0,0,0,0,0,0,0],"split_type":[0,0,0,0,0,0,0,0,0,0,0,0,0,0,0,0,0,0,0,0,0,0,0,0,0,0,0,0,0,0,0,0,0,0,0,0,0,0,0,0,0,0,0,0,0,0,0,0,0,0,0,0,0,0,0,0,0,0,0,0,0,0,0,0,0,0,0,0,0],"sum_hessian":[2.684E4,2.676E4,8E1,2.5843E4,9.17E2,7.5E1,5E0,2.2553E4,3.29E3,9.15E2,2E0,4E0,7.1E1,4E0,1E0,2.2332E4,2.21E2,7.98E2,2.492E3,4.77E2,4.38E2,1E0,3E0,1E0,7E1,2E0,2E0,2.2299E4,3.3E1,1.13E2,1.08E2,7.64E2,3.4E1,2.491E3,1E0,3.07E2,1.7E2,7.7E1,3.61E2,2E0,1E0,5.3E1,1.7E1,2.2289E4,1E1,1.7E1,1.6E1,3.9E1,7.4E1,3.7E1,7.1E1,4.3E1,7.21E2,2.8E1,6E0,2.032E3,4.59E2,7.4E1,2.33E2,1.6E2,1E1,6E0,7.1E1,7.7E1,2.84E2,5E0,4.8E1,6E0,1.1E1],"tree_param":{"num_deleted":"0","num_feature":"10","num_nodes":"69","size_leaf_vector":"0"}},{"base_weights":[2.2839473E3,1.8098064E3,5.885063E4,1.00549E3,9.829723E3,4.7595105E4,1.7228897E5,9.6973047E2,8.660975E4,-7.335904E3,1.198861E4,1.2788352E5,3.676478E4,1.4788366E5,3.7443475E5,1.0696144E3,-1.9042031E4,1.14161766E5,4.3505062E4,-9.82106E3,7.347608E4,3.9408992E4,9.994027E3,9.8615336E4,4.298062E5,7.4976484E4,7.873498E3,1.2234323E5,2.1058764E5,2.7533138E5,4.3949772E5,1.0472499E3,5.4315293E4,-1.6529186E4,-7.537995E4,-8.290712E3,-1.0629179E5,2.0159933E5,2.8163379E4,5.677507E4,6.01933E3,8.90808E3,6.3294234E4,1.2329232E5,3.1867484E4,3.245695E5,6.7897336E4,2.2777672E4,-1.653696E5,1.5282197E5,8.486218E4,1.7118964E5,2.3048314E5,8.9072586E1,2.2709502E3,1.0994493E5,-2.379159E3,-1.7377904E4,7.300787E4,-8.112222E4,-4.7123324E4,-7.520255E3,-1.883133E5,-7.2193375E4,-1.9272352E5,-1.7560033E4,1.16092266E5,1.0007807E5,1.6816057E4,-2.2769994E4,2.8640082E4,1.9402805E1,1.23791875E4,1.5968762E5,5.052379E3,9.7810484E4,2.2699612E5,-9.308887E4,5.81942E4,3.8537438E5,2.3425739E5,-9.401133E4,7.476458E4,9.561751E4,8.843913E3,-2.0659067E5,-3.7756965E4,1.7834764E5,8.3553336E4,2.2618693E4,9.6623086E4,2.8317612E5,1.9190619E5],"categories":[],"categories_nodes":[],"categories_segments":[],"categories_sizes":[],"default_left":[1,1,1,1,1,1,1,1,1,1,1,1,1,1,1,1,1,0,0,1,1,1,1,1,0,1,1,1,1,0,0,1,1,1,1,1,1,0,1,1,1,1,1,1,1,1,1,1,1,1,1,0,1,0,0,0,0,0,0,0,0,0,0,0,0,0,0,0,0,0,0,0,0,0,0,0,0,0,0,0,0,0,0,0,0,0,0,0,0,0,0,0,0],"id":14,"left_children":[1,3,5,7,9,11,13,15,17,19,21,23,25,27,29,31,33,-1,-1,35,37,39,41,43,-1,45,47,49,51,-1,-1,53,55,57,59,61,63,-1,65,67,69,71,73,75,77,79,81,83,85,87,89,-1,91,-1,-1,-1,-1,-1,-1,-1,-1,-1,-1,-1,-1,-1,-1,-1,-1,-1,-1,-1,-1,-1,-1,-1,-1,-1,-1,-1,-1,-1,-1,-1,-1,-1,-1,-1,-1,-1,-1,-1,-1],"loss_changes":[7.198562E11,1.7169393E11,2.8403565E11,7.404452E10,8.9916785E10,1.7613524E11,9.362414E10,4.8336486E10,1.1498152E10,5.4517203E10,1.1782783E11,2.0872613E11,1.9766464E11,2.6410222E10,1.4392361E9,2.8646443E10,1.6877691E10,0E0,0E0,3.8754206E10,4.6457455E10,8.468152E10,1.162327E11,3.6008624E10,0E0,1.340243E11,2.640033E11,1.3667992E10,5.157683E7,0E0,0E0,2.8200417E10,3.188058E10,8.873472E9,4.4510822E8,3.5795263E10,1.0691854E10,0E0,2.4728451E10,1.6611774E11,3.269215E10,6.0753707E10,2.2504573E11,4.032471E10,2.0608799E10,2.5036718E9,8.420403E10,9.542051E10,4.1828434E10,1.1063312E10,4.2467779E9,0E0,8.6666445E8,0E0,0E0,0E0,0E0,0E0,0E0,0E0,0E0,0E0,0E0,0E0,0E0,0E0,0E0,0E0,0E0,0E0,0E0,0E0,0E0,0E0,0E0,0E0,0E0,0E0,0E0,0E0,0E0,0E0,0E0,0E0,0E0,0E0,0E0,0E0,0E0,0E0,0E0,0E0,0E0],"parents":[2147483647,0,0,1,1,2,2,3,3,4,4,5,5,6,6,7,7,8,8,9,9,10,10,11,11,12,12,13,13,14,14,15,15,16,16,19,19,20,20,21,21,22,22,23,23,25,25,26,26,27,27,28,28,31,31,32,32,33,33,34,34,35,35,36,36,38,38,39,39,40,40,41,41,42,42,43,43,44,44,45,45,46,46,47,47,48,48,49,49,50,50,52,52],"right_children":[2,4,6,8,10,12,14,16,18,20,22,24,26,28,30,32,34,-1,-1,36,38,40,42,44,-1,46,48,50,52,-1,-1,54,56,58,60,62,64,-1,66,68,70,72,74,76,78,80,82,84,86,88,90,-1,92,-1,-1,-1,-1,-1,-1,-1,-1,-1,-1,-1,-1,-1,-1,-1,-1,-1,-1,-1,-1,-1,-1,-1,-1,-1,-1,-1,-1,-1,-1,-1,-1,-1,-1,-1,-1,-1,-1,-1,-1],"split_conditions":[1.4214499E2,7.195767E4,1.895701E6,5.75E1,1.5900001E-1,1.6132501E2,4.9361615E6,4.898E1,6.7545E1,4.9015E0,2.7125955E-1,1.8385347E3,1.1384136E3,2.308E3,3.03E3,4.6438E1,2.740878E3,2.2832354E4,8.701013E3,2.0264435E0,3.239E1,1.7852336E3,5.3864E5,4.22E2,8.596124E4,1.6723999E2,4.5E0,4.059425E-4,3.1725E3,5.5066277E4,8.789955E4,7.30375E3,3.12944E4,1.20899994E2,6E0,1.27665E2,3.3E1,4.0319867E4,5E0,1.7386924E-4,2.1450001E-1,2.3941099E-4,2.2643668E4,1.56321E2,4.35E2,7.18E2,1.6866E2,2.2085564E-4,3.8E-1,2.8263595E6,2.252E3,3.423793E4,4.032E3,1.7814518E1,4.5419003E2,2.1988986E4,-4.758318E2,-3.4755808E3,1.4601573E4,-1.6224444E4,-9.424665E3,-1.504051E3,-3.766266E4,-1.4438675E4,-3.8544703E4,-3.5120066E3,2.3218453E4,2.0015615E4,3.3632114E3,-4.553999E3,5.7280166E3,3.880561E0,2.4758376E3,3.1937525E4,1.01047577E3,1.9562098E4,4.5399227E4,-1.8617773E4,1.163884E4,7.7074875E4,4.685148E4,-1.8802266E4,1.4952916E4,1.9123502E4,1.7687826E3,-4.1318137E4,-7.551393E3,3.5669527E4,1.6710668E4,4.523739E3,1.9324617E4,5.6635227E4,3.838124E4],"split_indices":[2,5,5,3,4,2,5,2,2,3,3,6,6,0,0,2,6,0,0,3,2,6,5,0,0,2,1,8,0,0,0,5,5,2,0,2,0,0,0,9,4,9,6,2,0,0,2,9,4,5,0,0,0,0,0,0,0,0,0,0,0,0,0,0,0,0,0,0,0,0,0,0,0,0,0,0,0,0,0,0,0,0,0,0,0,0,0,0,0,0,0,0,0],"split_type":[0,0,0,0,0,0,0,0,0,0,0,0,0,0,0,0,0,0,0,0,0,0,0,0,0,0,0,0,0,0,0,0,0,0,0,0,0,0,0,0,0,0,0,0,0,0,0,0,0,0,0,0,0,0,0,0,0,0,0,0,0,0,0,0,0,0,0,0,0,0,0,0,0,0,0,0,0,0,0,0,0,0,0,0,0,0,0,0,0,0,0,0,0],"sum_hessian":[2.684E4,2.6617E4,2.23E2,2.4191E4,2.426E3,2.03E2,2E1,2.4181E4,1E1,2.71E2,2.155E3,2.4E1,1.79E2,1.8E1,2E0,2.4061E4,1.2E2,6E0,4E0,2.63E2,8E0,1.46E2,2.009E3,2.2E1,2E0,7.7E1,1.02E2,1.3E1,5E0,1E0,1E0,2.4051E4,1E1,1.15E2,5E0,2.59E2,4E0,2E0,6E0,9.6E1,5E1,1.969E3,4E1,1.6E1,6E0,2E0,7.5E1,9.4E1,8E0,7E0,6E0,2E0,3E0,1.3489E4,1.0562E4,5E0,5E0,1.14E2,1E0,4E0,1E0,2.58E2,1E0,3E0,1E0,4E0,2E0,4.6E1,5E1,2.2E1,2.8E1,5.53E2,1.416E3,1.5E1,2.5E1,1.3E1,3E0,1E0,5E0,1E0,1E0,3E0,7.2E1,1.5E1,7.9E1,6E0,2E0,5E0,2E0,1E0,5E0,1E0,2E0],"tree_param":{"num_deleted":"0","num_feature":"10","num_nodes":"93","size_leaf_vector":"0"}},{"base_weights":[1.8295847E3,1.3813083E3,4.1742406E4,8.842414E2,8.431357E3,3.1818898E4,1.13675266E5,8.5623474E2,6.960002E4,-5.504191E3,1.0532464E4,8.503608E4,2.5417422E4,1.0147593E5,3.0635572E5,9.516067E2,-1.6416514E4,9.170369E4,3.501628E4,-7.420364E3,5.4514316E4,9.143894E4,9.337429E3,5.010358E4,1.7067048E5,-4.9006902E4,3.1267793E4,2.5439331E5,8.590704E4,2.252709E5,3.595891E5,4.063114E2,2.9227314E3,-1.1986905E4,-4.050207E4,1.6246134E3,-2.092368E4,1.6319947E5,8.692502E3,1.140931E4,1.5748475E5,1.3373165E4,1.8204236E3,6.8378164E4,-1.0979137E5,1.30573625E5,2.3113044E5,-3.1557352E4,-1.7214333E5,1.2444287E4,5.1315242E4,3.9934478E5,1.663519E5,4.769255E4,1.4551902E5,-2.1818456E2,1.5889269E3,2.9941123E3,-4.411085E4,-1.4950453E4,9.347309E3,-6.303939E3,-5.4048918E4,-6.4537925E3,4.7072688E4,-3.4046367E4,9.224302E3,-5.5138777E4,5.1652965E4,-9.747192E3,5.9496805E4,3.499341E5,1.3699431E5,1.0198215E4,5.029807E4,-1.5527585E4,1.5022052E4,4.0751355E4,2.7692716E5,-1.478184E5,-6.1782387E4,1.4517255E5,6.428824E4,3.7986758E4,-4.2464824E4,-1.2268205E5,-2.0595431E5,7.0952716E2,5.110779E4,-3.6699723E4,5.860454E4,2.7440978E5,3.3650605E4,1.635429E5,1.06361375E5],"categories":[],"categories_nodes":[],"categories_segments":[],"categories_sizes":[],"default_left":[1,1,1,1,1,1,1,1,1,1,1,1,1,1,1,1,1,0,0,1,1,1,1,1,1,1,1,1,1,0,0,1,1,1,1,1,1,0,1,1,1,1,1,1,1,1,0,1,1,1,1,0,0,1,1,0,0,0,0,0,0,0,0,0,0,0,0,0,0,0,0,0,0,0,0,0,0,0,0,0,0,0,0,0,0,0,0,0,0,0,0,0,0,0,0],"id":15,"left_children":[1,3,5,7,9,11,13,15,17,19,21,23,25,27,29,31,33,-1,-1,35,37,39,41,43,45,47,49,51,53,-1,-1,55,57,59,61,63,65,-1,67,69,71,73,75,77,79,81,-1,83,85,87,89,-1,-1,91,93,-1,-1,-1,-1,-1,-1,-1,-1,-1,-1,-1,-1,-1,-1,-1,-1,-1,-1,-1,-1,-1,-1,-1,-1,-1,-1,-1,-1,-1,-1,-1,-1,-1,-1,-1,-1,-1,-1,-1,-1],"loss_changes":[4.8021655E11,9.301197E10,2.124298E11,4.7710134E10,5.119031E10,8.907296E10,8.174653E10,4.0829264E10,7.3994813E9,2.6388242E10,1.4679035E11,8.320364E10,1.0208264E11,7.899795E10,9.633956E8,2.6492764E10,1.4471848E10,0E0,0E0,2.713009E10,3.521704E10,1.1663239E11,4.5414556E10,5.948318E10,1.6618177E10,3.6198904E10,8.186166E10,3.2917619E10,7.015286E10,0E0,0E0,1.4259075E10,1.7944805E10,7.291175E9,9.741013E9,4.8897815E10,3.52814E10,0E0,1.4270133E10,1.0333411E10,4.292038E10,1.1414703E11,1.1982471E11,1.0315512E11,2.9203743E9,4.0017428E9,0E0,1.1615426E10,9.848791E8,5.085686E10,6.7643834E10,0E0,0E0,5.9882107E10,6.8001137E9,0E0,0E0,0E0,0E0,0E0,0E0,0E0,0E0,0E0,0E0,0E0,0E0,0E0,0E0,0E0,0E0,0E0,0E0,0E0,0E0,0E0,0E0,0E0,0E0,0E0,0E0,0E0,0E0,0E0,0E0,0E0,0E0,0E0,0E0,0E0,0E0,0E0,0E0,0E0,0E0],"parents":[2147483647,0,0,1,1,2,2,3,3,4,4,5,5,6,6,7,7,8,8,9,9,10,10,11,11,12,12,13,13,14,14,15,15,16,16,19,19,20,20,21,21,22,22,23,23,24,24,25,25,26,26,27,27,28,28,31,31,32,32,33,33,34,34,35,35,36,36,38,38,39,39,40,40,41,41,42,42,43,43,44,44,45,45,47,47,48,48,49,49,50,50,53,53,54,54],"right_children":[2,4,6,8,10,12,14,16,18,20,22,24,26,28,30,32,34,-1,-1,36,38,40,42,44,46,48,50,52,54,-1,-1,56,58,60,62,64,66,-1,68,70,72,74,76,78,80,82,-1,84,86,88,90,-1,-1,92,94,-1,-1,-1,-1,-1,-1,-1,-1,-1,-1,-1,-1,-1,-1,-1,-1,-1,-1,-1,-1,-1,-1,-1,-1,-1,-1,-1,-1,-1,-1,-1,-1,-1,-1,-1,-1,-1,-1,-1,-1],"split_conditions":[1.12201996E2,9.6920234E4,1.3963248E6,5.75E1,1.7500001E-1,2.4604483E-4,4.9361615E6,4.898E1,6.7545E1,4.9015E0,1.9504286E-1,1.9595496E-4,2.76766E-4,1.42128E6,3.03E3,7.7135E0,9.226298E2,1.8340738E4,7.0032563E3,1.0060804E-4,3.239E1,1.885E-1,2.11498E4,3E0,3.075E2,2.6532286E-4,1.5E0,7.39E2,2.5E0,4.5054184E4,7.191782E4,2.5E0,9.662584E4,5.8398977E4,5.2915E1,7.250505E-5,1.5E1,3.2639895E4,4.211E1,6.5E0,2E0,7.3776875E3,1.8682499E1,1.6684E2,2.4E1,1.285E2,4.622609E4,1.47735E2,4.635E2,3.3932E2,3.3224308E-1,7.986896E4,3.3270383E4,1.9016501E2,4.3679947E-1,-4.3636913E1,3.1778537E2,5.9882245E2,-8.822171E3,-2.9900906E3,1.8694618E3,-1.2607878E3,-1.0809784E4,-1.2907585E3,9.414538E3,-6.8092734E3,1.8448604E3,-1.1027756E4,1.0330593E4,-1.9494385E3,1.1899361E4,6.998682E4,2.7398863E4,2.039643E3,1.0059614E4,-3.105517E3,3.0044104E3,8.150271E3,5.5385434E4,-2.9563682E4,-1.2356478E4,2.903451E4,1.2857647E4,7.5973516E3,-8.492965E3,-2.453641E4,-4.1190863E4,1.4190544E2,1.0221558E4,-7.339945E3,1.1720908E4,5.4881957E4,6.730121E3,3.2708582E4,2.1272275E4],"split_indices":[2,5,5,3,4,8,5,2,2,3,3,8,8,5,0,2,6,0,0,8,2,3,7,1,0,8,1,0,1,0,0,1,5,5,2,8,1,0,2,1,1,7,4,2,0,0,0,2,0,2,3,0,0,2,3,0,0,0,0,0,0,0,0,0,0,0,0,0,0,0,0,0,0,0,0,0,0,0,0,0,0,0,0,0,0,0,0,0,0,0,0,0,0,0,0],"split_type":[0,0,0,0,0,0,0,0,0,0,0,0,0,0,0,0,0,0,0,0,0,0,0,0,0,0,0,0,0,0,0,0,0,0,0,0,0,0,0,0,0,0,0,0,0,0,0,0,0,0,0,0,0,0,0,0,0,0,0,0,0,0,0,0,0,0,0,0,0,0,0,0,0,0,0,0,0,0,0,0,0,0,0,0,0,0,0,0,0,0,0,0,0,0,0],"sum_hessian":[2.684E4,2.6542E4,2.98E2,2.4794E4,1.748E3,2.62E2,3.6E1,2.4784E4,1E1,2.29E2,1.519E3,2.8E1,2.34E2,3.4E1,2E0,2.4648E4,1.36E2,6E0,4E0,2.22E2,7E0,2.2E1,1.497E3,2E1,8E0,1.7E1,2.17E2,3E0,3.1E1,1E0,1E0,1.9307E4,5.341E3,1.15E2,2.1E1,1.33E2,8.9E1,2E0,5E0,1E1,1.2E1,9.74E2,5.23E2,1.8E1,2E0,5E0,3E0,1.5E1,2E0,1.12E2,1.05E2,1E0,2E0,1.9E1,1.2E1,1.2635E4,6.672E3,5.333E3,8E0,1.01E2,1.4E1,6E0,1.5E1,1.13E2,2E1,6.2E1,2.7E1,2E0,3E0,7E0,3E0,1E0,1.1E1,8.97E2,7.7E1,2.26E2,2.97E2,1.6E1,2E0,1E0,1E0,4E0,1E0,2E0,1.3E1,1E0,1E0,8.6E1,2.6E1,8E0,9.7E1,1E0,1.8E1,8E0,4E0],"tree_param":{"num_deleted":"0","num_feature":"10","num_nodes":"95","size_leaf_vector":"0"}},{"base_weights":[1.4657626E3,1.1056443E3,3.352932E4,4.6569775E2,4.8096987E3,2.7468113E4,1.17224266E5,4.4093228E2,5.5930965E4,6.084071E3,-7.910679E3,2.8452252E4,-2.2294156E5,1.0109567E5,2.5065477E5,4.7127548E2,-3.2062992E4,7.366361E4,2.8183842E4,-2.9663625E3,7.638775E3,-5.0853703E4,-3.8001895E3,7.504359E4,2.27653E4,8.919574E4,1.5579839E5,1.8431273E5,2.942091E5,-7.6866615E1,1.4962719E3,-4.879326E4,2.1380662E4,-1.4719264E3,-3.837252E4,6.4344035E4,7.1653643E3,-2.7299986E4,-1.7039598E5,-8.905189E3,3.58529E4,3.832488E4,1.2934965E5,2.1108912E4,1.5245786E5,1.7444614E5,8.1912336E4,2.0195455E5,1.2420191E5,-1.8596638E3,2.5024728E2,6.8537484E4,1.4357562E3,-5.63859E4,4.508884E3,4.722245E4,-7.688152E4,-1.9154187E3,1.9988552E5,-1.0101616E5,-1.2811962E4,1.5352962E4,1.168521E5,7.051805E3,1.6938062E5,1.8491812E4,-4.4179188E4,-1.3831175E5,-2.7449122E5,-8.019916E3,-9.003422E4,2.4145097E5,1.7056994E4,5.480267E4,-8.9829375E4,1.5440344E5,2.6928572E3,4.660804E4,1.2773174E4,2.7557522E5,8.070742E4,1.2387897E4,8.712491E4],"categories":[],"categories_nodes":[],"categories_segments":[],"categories_sizes":[],"default_left":[1,1,1,1,1,1,1,1,1,1,1,1,0,1,1,1,1,0,0,1,1,1,1,1,1,1,1,0,0,1,1,1,1,1,1,1,1,1,1,1,1,1,1,1,1,0,1,0,0,0,0,0,0,0,0,0,0,0,0,0,0,0,0,0,0,0,0,0,0,0,0,0,0,0,0,0,0,0,0,0,0,0,0],"id":16,"left_children":[1,3,5,7,9,11,13,15,17,19,21,23,-1,25,27,29,31,-1,-1,33,35,37,39,41,43,45,47,-1,-1,49,51,53,55,57,59,61,63,65,67,69,71,73,75,77,79,-1,81,-1,-1,-1,-1,-1,-1,-1,-1,-1,-1,-1,-1,-1,-1,-1,-1,-1,-1,-1,-1,-1,-1,-1,-1,-1,-1,-1,-1,-1,-1,-1,-1,-1,-1,-1,-1],"loss_changes":[3.099101E11,6.2915076E10,1.5090178E11,3.1085453E10,6.3389475E10,6.916848E10,4.0721777E10,2.2313048E10,4.7617884E9,5.001111E10,6.2838264E10,7.325019E10,0E0,1.0392453E10,6.4477594E8,1.2698298E10,1.8970423E10,0E0,0E0,2.7566883E10,8.1377034E10,8.710182E10,6.5841566E10,5.9524973E10,5.276034E10,7.9466004E9,2.0123075E9,0E0,0E0,8.5879813E9,3.193971E10,6.5412096E9,1.3313304E10,4.469725E10,3.3655914E10,6.4388366E10,5.5292576E10,2.0255173E10,1.3236109E10,2.0619436E10,1.4295718E11,3.8714008E10,3.835437E10,5.1824853E10,2.516009E10,0E0,5.0018304E9,0E0,0E0,0E0,0E0,0E0,0E0,0E0,0E0,0E0,0E0,0E0,0E0,0E0,0E0,0E0,0E0,0E0,0E0,0E0,0E0,0E0,0E0,0E0,0E0,0E0,0E0,0E0,0E0,0E0,0E0,0E0,0E0,0E0,0E0,0E0,0E0],"parents":[2147483647,0,0,1,1,2,2,3,3,4,4,5,5,6,6,7,7,8,8,9,9,10,10,11,11,13,13,14,14,15,15,16,16,19,19,20,20,21,21,22,22,23,23,24,24,25,25,26,26,29,29,30,30,31,31,32,32,33,33,34,34,35,35,36,36,37,37,38,38,39,39,40,40,41,41,42,42,43,43,44,44,46,46],"right_children":[2,4,6,8,10,12,14,16,18,20,22,24,-1,26,28,30,32,-1,-1,34,36,38,40,42,44,46,48,-1,-1,50,52,54,56,58,60,62,64,66,68,70,72,74,76,78,80,-1,82,-1,-1,-1,-1,-1,-1,-1,-1,-1,-1,-1,-1,-1,-1,-1,-1,-1,-1,-1,-1,-1,-1,-1,-1,-1,-1,-1,-1,-1,-1,-1,-1,-1,-1,-1,-1],"split_conditions":[1.12201996E2,4.7288492E4,1.895701E6,5.75E1,4.103645E-4,1.6934812E6,4.9361615E6,5.2225998E1,6.7545E1,1.885E-1,4.376727E-4,2.4443044E-4,-4.4588312E4,3.1725E3,3.03E3,2.5E0,3.5779444E-3,1.4732722E4,5.6367686E3,5.8440002E1,1.9198924E-1,5.91E1,4.44375E0,3.7E1,2.3825113E-3,6E1,4.032E3,3.6862547E4,5.884182E4,1.13749996E-1,8.88275E0,4.24375E4,4.75E1,5.716E1,6.6880005E1,1.8176131E-1,1.45E1,2.402E1,8.66E1,3.0576912E5,1.2652314E-4,1.2E1,3.0676878E-4,9.595567E2,1.65E1,3.488923E4,1.5E0,4.039091E4,2.484038E4,-3.7193277E2,5.0049458E1,1.3707497E4,2.8715125E2,-1.127718E4,9.017768E2,9.44449E3,-1.5376305E4,-3.8308374E2,3.9977105E4,-2.0203232E4,-2.5623923E3,3.0705925E3,2.337042E4,1.4103611E3,3.3876125E4,3.6983625E3,-8.835838E3,-2.766235E4,-5.4898246E4,-1.6039833E3,-1.8006844E4,4.8290195E4,3.411399E3,1.0960534E4,-1.7965875E4,3.0880688E4,5.385715E2,9.321608E3,2.5546348E3,5.5115043E4,1.6141484E4,2.4775796E3,1.7424982E4],"split_indices":[2,5,5,3,9,5,5,2,2,4,9,8,0,0,0,1,9,0,0,2,3,2,3,0,9,0,0,0,0,4,6,5,0,2,2,3,1,2,2,5,8,0,9,6,0,0,1,0,0,0,0,0,0,0,0,0,0,0,0,0,0,0,0,0,0,0,0,0,0,0,0,0,0,0,0,0,0,0,0,0,0,0,0],"split_type":[0,0,0,0,0,0,0,0,0,0,0,0,0,0,0,0,0,0,0,0,0,0,0,0,0,0,0,0,0,0,0,0,0,0,0,0,0,0,0,0,0,0,0,0,0,0,0,0,0,0,0,0,0,0,0,0,0,0,0,0,0,0,0,0,0,0,0,0,0,0,0,0,0,0,0,0,0,0,0,0,0,0,0],"sum_hessian":[2.684E4,2.6542E4,2.98E2,2.2632E4,3.91E3,2.78E2,2E1,2.2622E4,1E1,3.554E3,3.56E2,2.77E2,1E0,1.8E1,2E0,2.2601E4,2.1E1,6E0,4E0,5.21E2,3.033E3,3.1E1,3.25E2,3E1,2.47E2,1.5E1,3E0,1E0,1E0,1.4726E4,7.875E3,1.6E1,5E0,5E2,2.1E1,2.5E1,3.008E3,2.6E1,5E0,2.88E2,3.7E1,1.8E1,1.2E1,2.44E2,3E0,1E0,1.4E1,1E0,2E0,2.283E3,1.2443E4,7E0,7.868E3,1.4E1,2E0,4E0,1E0,4.99E2,1E0,6E0,1.5E1,1.3E1,1.2E1,3.006E3,2E0,7E0,1.9E1,4E0,1E0,2.85E2,3E0,3E0,3.4E1,1.6E1,2E0,1E1,2E0,6E1,1.84E2,1E0,2E0,1E0,1.3E1],"tree_param":{"num_deleted":"0","num_feature":"10","num_nodes":"83","size_leaf_vector":"0"}},{"base_weights":[1.1737999E3,1.0145605E3,5.4371625E4,6.6883954E2,1.1121283E4,1.7034552E5,4.6423492E4,7.299741E2,-1.6261809E4,9.710621E3,5.4109375E4,3.2441422E5,1.24855E5,3.897336E4,1.4791583E5,6.6766046E2,5.071468E4,-2.6625184E4,3.744712E4,1.330166E4,-6.174673E3,2.829386E4,2.0453423E5,1.4895266E5,4.5592047E4,-1.7083045E5,4.225683E4,1.1941018E5,2.4071636E5,7.041594E2,-3.9985094E4,1.0303947E5,-1.9250437E3,-2.4369145E4,-4.346352E4,5.90603E4,3.1600299E4,1.3763778E4,-1.4073256E5,2.270424E4,-2.9741541E4,1.1342442E5,5.4144736E3,-2.1015455E4,2.7797044E5,4.491868E4,-1.2637653E5,1.6523545E5,9.9297336E4,-4.6994275E2,1.5903591E3,-5.4252445E4,-2.4072078E4,1.1348158E5,6.97091E4,5.810037E3,-1.07932516E5,-1.6275596E4,-2.5402201E4,2.4827709E4,4.0408996E4,-9.613615E3,1.6333437E4,-1.6573629E4,6.303648E4,2.0085064E5,-3.820602E4,5.8258617E4,1.8945802E5,-4.9432027E4,5.477712E4,4.015257E4,1.1833692E5],"categories":[],"categories_nodes":[],"categories_segments":[],"categories_sizes":[],"default_left":[1,1,1,1,1,1,1,1,1,1,1,0,1,1,1,1,1,1,1,1,1,1,1,0,0,0,1,1,0,1,1,1,1,1,0,0,1,1,0,1,1,1,1,0,0,1,0,0,0,0,0,0,0,0,0,0,0,0,0,0,0,0,0,0,0,0,0,0,0,0,0,0,0],"id":17,"left_children":[1,3,5,7,9,11,13,15,17,19,21,-1,23,25,27,29,31,33,35,37,39,41,43,-1,-1,-1,45,47,-1,49,51,53,55,57,-1,-1,59,61,-1,63,65,67,69,-1,-1,71,-1,-1,-1,-1,-1,-1,-1,-1,-1,-1,-1,-1,-1,-1,-1,-1,-1,-1,-1,-1,-1,-1,-1,-1,-1,-1,-1],"loss_changes":[2.2736213E11,9.350187E10,7.304325E10,2.6783138E10,5.3621334E10,3.1693259E10,5.620882E10,8.030084E10,5.1919696E10,4.8901243E10,1.0854166E11,0E0,7.151915E9,4.9012564E10,1.0616472E10,3.821036E10,8.843497E10,2.8608717E9,1.7214403E9,4.9956946E10,1.076681E11,4.687888E10,6.8494836E10,0E0,0E0,0E0,3.1584969E10,2.1378662E9,0E0,2.6768845E10,5.1138724E9,4.8121774E9,1.326443E10,5.363671E8,0E0,0E0,6.214656E8,4.189184E10,0E0,1.127386E11,1.707727E11,2.0287721E10,5.198152E10,0E0,0E0,2.3354204E10,0E0,0E0,0E0,0E0,0E0,0E0,0E0,0E0,0E0,0E0,0E0,0E0,0E0,0E0,0E0,0E0,0E0,0E0,0E0,0E0,0E0,0E0,0E0,0E0,0E0,0E0,0E0],"parents":[2147483647,0,0,1,1,2,2,3,3,4,4,5,5,6,6,7,7,8,8,9,9,10,10,12,12,13,13,14,14,15,15,16,16,17,17,18,18,19,19,20,20,21,21,22,22,26,26,27,27,29,29,30,30,31,31,32,32,33,33,36,36,37,37,39,39,40,40,41,41,42,42,45,45],"right_children":[2,4,6,8,10,12,14,16,18,20,22,-1,24,26,28,30,32,34,36,38,40,42,44,-1,-1,-1,46,48,-1,50,52,54,56,58,-1,-1,60,62,-1,64,66,68,70,-1,-1,72,-1,-1,-1,-1,-1,-1,-1,-1,-1,-1,-1,-1,-1,-1,-1,-1,-1,-1,-1,-1,-1,-1,-1,-1,-1,-1,-1],"split_conditions":[3.509E2,1.7436E5,2.6377355E-4,1.250675E5,6.364541E-4,2.1E1,2.6945E3,1.04926875E5,1.53212E5,4.5E0,4.5687E3,6.4882844E4,1.7073954E-4,2.718093E-4,5.184E3,6.565281E4,3.85E1,3.4265E1,3.195E1,1.882E2,3.888189E-1,1.85175E5,7.1035E1,2.9790531E4,9.118409E3,-3.416609E4,2.4045E3,3.5E0,4.8143273E4,7.256395E2,7.596525E4,3.715E1,8.25E1,1.5325E1,-8.692704E3,1.1812061E4,4.525E1,9.1081485E-5,-2.8146514E4,1.2145E3,4.5E-2,1.5E2,4.638835E0,-4.2030913E3,5.559409E4,7.1766647E-4,-2.5275307E4,3.304709E4,1.9859467E4,-9.398855E1,3.1807184E2,-1.0850489E4,-4.8144155E3,2.2696316E4,1.394182E4,1.1620074E3,-2.1586504E4,-3.2551191E3,-5.0804404E3,4.965542E3,8.0817993E3,-1.922723E3,3.2666873E3,-3.3147258E3,1.2607296E4,4.017013E4,-7.641204E3,1.1651724E4,3.7891605E4,-9.886405E3,1.0955425E4,8.030514E3,2.3667385E4],"split_indices":[2,5,8,6,9,0,0,6,5,1,7,0,8,8,0,7,2,2,2,3,3,5,2,0,0,0,0,1,0,7,7,2,2,2,0,0,2,8,0,7,4,0,3,0,0,8,0,0,0,0,0,0,0,0,0,0,0,0,0,0,0,0,0,0,0,0,0,0,0,0,0,0,0],"split_type":[0,0,0,0,0,0,0,0,0,0,0,0,0,0,0,0,0,0,0,0,0,0,0,0,0,0,0,0,0,0,0,0,0,0,0,0,0,0,0,0,0,0,0,0,0,0,0,0,0,0,0,0,0,0,0,0,0,0,0,0,0,0,0,0,0,0,0,0,0,0,0,0,0],"sum_hessian":[2.684E4,2.676E4,8E1,2.5875E4,8.85E2,5E0,7.5E1,2.5782E4,9.3E1,8.57E2,2.8E1,1E0,4E0,7E1,5E0,2.575E4,3.2E1,7.8E1,1.5E1,6.99E2,1.58E2,2.4E1,4E0,3E0,1E0,1E0,6.9E1,4E0,1E0,2.5727E4,2.3E1,1.6E1,1.6E1,6.9E1,9E0,3E0,1.2E1,6.97E2,2E0,7.1E1,8.7E1,5E0,1.9E1,1E0,3E0,6.8E1,1E0,1E0,3E0,1.1066E4,1.4661E4,1.2E1,1.1E1,1.2E1,4E0,1.5E1,1E0,8E0,6.1E1,7E0,5E0,6.9E1,6.28E2,3.6E1,3.5E1,3E0,8.4E1,3E0,2E0,9E0,1E1,6.4E1,4E0],"tree_param":{"num_deleted":"0","num_feature":"10","num_nodes":"73","size_leaf_vector":"0"}},{"base_weights":[9.401681E2,8.141307E2,4.4689273E4,5.0422073E2,8.20462E3,2.6542978E5,4.1439805E4,5.682597E2,-2.1335428E4,8.442417E3,-1.1392637E5,2.451174E4,7.786334E4,5.1799243E2,4.0622258E4,-1.944033E4,-3.486634E4,7.697905E3,4.559621E4,-1.3977034E5,2.8000195E4,3.151639E4,9.6651414E4,5.456709E2,-3.857279E4,8.265915E4,-1.6668818E3,-1.3060664E4,-2.0296273E4,8.0683267E3,-1.1814701E5,6.7953833E3,1.4089653E5,3.0829338E4,-1.0339898E5,1.9781025E4,9.37283E4,8.609282E4,1.6796977E5,5.1914136E2,3.4254055E4,-5.912755E3,-4.5022312E4,7.769301E4,1.4331539E5,4.6557266E3,-8.830842E4,-3.5879914E4,-1.99605E4,1.4770874E4,3.8477217E3,-1.7088438E4,-1.6545592E5,7.7203516E4,-4.0475844E4,-2.2840695E4,1.7344992E5,9.52468E4,2.503334E4,7.1875737E3,7.636966E4,7.3252484E4,1.03836555E5,1.2371909E5,1.9694955E5],"categories":[],"categories_nodes":[],"categories_segments":[],"categories_sizes":[],"default_left":[1,1,1,1,1,0,1,1,1,1,0,1,1,1,1,1,0,1,1,0,1,1,1,1,1,1,1,0,1,1,1,1,1,1,0,1,0,1,1,0,0,0,0,0,0,0,0,0,0,0,0,0,0,0,0,0,0,0,0,0,0,0,0,0,0],"id":18,"left_children":[1,3,5,7,9,-1,11,13,15,17,-1,19,21,23,25,27,-1,29,31,-1,33,35,37,39,41,43,45,-1,47,49,51,53,55,57,-1,59,-1,61,63,-1,-1,-1,-1,-1,-1,-1,-1,-1,-1,-1,-1,-1,-1,-1,-1,-1,-1,-1,-1,-1,-1,-1,-1,-1,-1],"loss_changes":[1.4799323E11,6.129742E10,5.4202745E10,3.592547E10,3.1377637E10,0E0,4.673078E10,5.156337E10,1.8579067E9,2.9703676E10,0E0,3.0249275E10,2.0680819E10,2.767797E10,5.7078157E10,3.3440563E8,0E0,4.9232843E10,7.792624E10,0E0,1.9314979E10,4.998045E9,1.1430314E10,2.2856671E10,3.785943E9,3.7360763E9,8.860787E9,0E0,2.3233946E8,2.972865E10,1.4538088E10,5.0569535E10,3.291055E10,1.8466951E10,0E0,4.292167E9,0E0,2.679513E9,2.5602458E8,0E0,0E0,0E0,0E0,0E0,0E0,0E0,0E0,0E0,0E0,0E0,0E0,0E0,0E0,0E0,0E0,0E0,0E0,0E0,0E0,0E0,0E0,0E0,0E0,0E0,0E0],"parents":[2147483647,0,0,1,1,2,2,3,3,4,4,6,6,7,7,8,8,9,9,11,11,12,12,13,13,14,14,15,15,17,17,18,18,20,20,21,21,22,22,23,23,24,24,25,25,26,26,28,28,29,29,30,30,31,31,32,32,33,33,35,35,37,37,38,38],"right_children":[2,4,6,8,10,-1,12,14,16,18,-1,20,22,24,26,28,-1,30,32,-1,34,36,38,40,42,44,46,-1,48,50,52,54,56,58,-1,60,-1,62,64,-1,-1,-1,-1,-1,-1,-1,-1,-1,-1,-1,-1,-1,-1,-1,-1,-1,-1,-1,-1,-1,-1,-1,-1,-1,-1],"split_conditions":[3.589E2,1.4940475E5,3.6682E2,1.250675E5,1.882E2,5.3085957E4,2.5E0,1.04926875E5,3.4265E1,8.8575337E-4,-2.2785273E4,2.718093E-4,1.1205402E6,6.565281E4,3.85E1,1.5325E1,-6.973268E3,6.324688E-4,4.7612724E0,-2.7954068E4,2.402E3,3.9577514E-1,4.9361615E6,5.778675E4,1.795E1,1.18079E5,8.25E1,-2.6121328E3,1.704E1,1.8105564E3,1.55995E2,9.569648E-4,2.8395E1,8.8909E5,-2.0679795E4,9.578192E2,1.874566E4,3.9162317E-1,3.03E3,1.0382827E2,6.850811E3,-1.182551E3,-9.004463E3,1.5538602E4,2.8663078E4,9.311453E2,-1.7661686E4,-7.175983E3,-3.9921E3,2.9541748E3,7.695444E2,-3.4176875E3,-3.3091184E4,1.5440703E4,-8.095169E3,-4.568139E3,3.4689984E4,1.904936E4,5.006668E3,1.4375148E3,1.5273932E4,1.4650497E4,2.076731E4,2.4743818E4,3.938991E4],"split_indices":[2,5,2,6,3,0,1,6,2,9,0,8,5,6,2,2,0,8,3,0,0,3,5,6,2,5,2,0,2,6,2,9,2,5,0,6,0,3,0,0,0,0,0,0,0,0,0,0,0,0,0,0,0,0,0,0,0,0,0,0,0,0,0,0,0],"split_type":[0,0,0,0,0,0,0,0,0,0,0,0,0,0,0,0,0,0,0,0,0,0,0,0,0,0,0,0,0,0,0,0,0,0,0,0,0,0,0,0,0,0,0,0,0,0,0,0,0,0,0,0,0,0,0,0,0,0,0,0,0,0,0,0,0],"sum_hessian":[2.684E4,2.6763E4,7.7E1,2.5686E4,1.077E3,1E0,7.6E1,2.5611E4,7.5E1,1.075E3,2E0,5.2E1,2.4E1,2.5579E4,3.2E1,6.6E1,9E0,1.054E3,2.1E1,1E0,5.1E1,7E0,1.7E1,2.5561E4,1.8E1,1.6E1,1.6E1,8E0,5.8E1,1.051E3,3E0,1.5E1,6E0,5E1,1E0,6E0,1E0,1.5E1,2E0,2.5541E4,2E1,3E0,1.5E1,1.5E1,1E0,1.5E1,1E0,1E0,5.7E1,4.06E2,6.45E2,1E0,2E0,6E0,9E0,1E0,5E0,4E0,4.6E1,5E0,1E0,9E0,6E0,1E0,1E0],"tree_param":{"num_deleted":"0","num_feature":"10","num_nodes":"65","size_leaf_vector":"0"}},{"base_weights":[7.526894E2,5.722425E2,2.2280686E4,6.022225E2,-6.5351426E4,8.01243E4,1.5267827E4,5.748824E2,8.050101E4,-1.0827903E5,-6.0508496E4,6.0875035E4,2.78884E5,3.6938023E4,-3.0085884E3,1.470672E2,3.0363284E3,-1.2294007E4,1.263396E5,2.7691338E4,9.351022E4,1.9277444E5,3.3963953E5,2.9052138E5,3.38011E4,-9.556234E4,1.3173988E4,1.27165184E2,4.4773527E4,4.081445E3,-7.0704956E3,7.128334E4,-1.7073403E5,4.8979613E4,1.6288131E5,1.5588727E5,1.3455135E4,1.2149354E4,1.6000011E5,2.7432312E4,1.2105259E5,-1.5491052E5,3.5480773E4,5.8848445E4,-3.991113E2,1.8634581E2,-1.2566711E4,5.9162727E4,2.2272928E4,-6.3092544E3,4.9799233E3,-3.804428E4,-4.118948E3,1.3913694E5,-3.0496448E3,6.019392E4,3.3311703E4,1.1459659E5,1.7476005E5,-9.042216E4,2.5863982E4,3.673139E4,-8.057818E4,1.2140986E5,1.9342875E5,-8.444532E4,3.1674957E4,1.3643448E5,3.873085E4,-1.762881E5,-5.489717E4,8.1336086E4,-3.3899492E4,1.3998134E5,4.4627566E4,1.88371E4,-2.3828922E4],"categories":[],"categories_nodes":[],"categories_segments":[],"categories_sizes":[],"default_left":[1,1,1,1,1,1,1,1,1,0,0,1,1,1,1,1,1,1,1,1,1,0,0,0,1,1,1,1,1,1,1,1,0,1,1,0,1,1,1,1,1,1,1,1,1,0,0,0,0,0,0,0,0,0,0,0,0,0,0,0,0,0,0,0,0,0,0,0,0,0,0,0,0,0,0,0,0],"id":19,"left_children":[1,3,5,7,9,11,13,15,17,-1,-1,19,21,23,25,27,29,31,33,35,37,-1,-1,-1,39,41,43,45,47,49,51,53,-1,55,57,-1,59,61,63,65,67,69,71,73,75,-1,-1,-1,-1,-1,-1,-1,-1,-1,-1,-1,-1,-1,-1,-1,-1,-1,-1,-1,-1,-1,-1,-1,-1,-1,-1,-1,-1,-1,-1,-1,-1],"loss_changes":[1.0426335E11,5.2609634E10,9.037788E10,5.8112557E10,1.860182E9,9.050803E10,7.886539E10,2.8006814E10,3.8863143E10,0E0,0E0,2.3674266E10,4.438491E9,7.148506E10,1.6203365E11,2.0123329E10,4.1600287E10,4.226734E10,1.6445882E10,2.0047843E10,5.985285E10,0E0,0E0,0E0,4.9735123E10,1.25762175E11,5.7099248E10,1.7014188E10,3.138179E9,3.3323606E10,3.3727635E10,1.0634462E10,0E0,1.6836966E8,3.4862694E8,0E0,1.3252677E10,1.1921033E10,5.520392E9,4.018608E10,7.195615E9,2.2764257E10,1.6501189E10,2.3719895E10,3.2089715E10,0E0,0E0,0E0,0E0,0E0,0E0,0E0,0E0,0E0,0E0,0E0,0E0,0E0,0E0,0E0,0E0,0E0,0E0,0E0,0E0,0E0,0E0,0E0,0E0,0E0,0E0,0E0,0E0,0E0,0E0,0E0,0E0],"parents":[2147483647,0,0,1,1,2,2,3,3,4,4,5,5,6,6,7,7,8,8,11,11,12,12,13,13,14,14,15,15,16,16,17,17,18,18,19,19,20,20,24,24,25,25,26,26,27,27,28,28,29,29,30,30,31,31,33,33,34,34,36,36,37,37,38,38,39,39,40,40,41,41,42,42,43,43,44,44],"right_children":[2,4,6,8,10,12,14,16,18,-1,-1,20,22,24,26,28,30,32,34,36,38,-1,-1,-1,40,42,44,46,48,50,52,54,-1,56,58,-1,60,62,64,66,68,70,72,74,76,-1,-1,-1,-1,-1,-1,-1,-1,-1,-1,-1,-1,-1,-1,-1,-1,-1,-1,-1,-1,-1,-1,-1,-1,-1,-1,-1,-1,-1,-1,-1,-1],"split_conditions":[1.4214499E2,1.3857999E2,1.6132501E2,1.33255E2,1.89E2,1.8385347E3,1.1384136E3,4.736655E4,9.4807544E2,-2.1655807E4,-1.2101699E4,3.8E-1,1.13E2,1.6445999E2,9.1999996E-1,5.75E1,4.103645E-4,2.5E0,1.3452301E2,3.405E2,3.80154E5,3.8554887E4,6.792791E4,5.8104277E4,4.5E0,8.945E2,2.4210298E-4,4.898E1,6.7545E1,1.582857E-1,4.376727E-4,4.3E2,-3.414681E4,1.52E2,2.5E0,3.1177453E4,1.5E0,2.83E2,2.5E0,1.6866E2,3.15E1,7.5E0,1.402E3,7.621576E5,3.23559E5,3.726916E1,-2.5133423E3,1.1832546E4,4.4545854E3,-1.261851E3,9.959847E2,-7.6088564E3,-8.237897E2,2.7827389E4,-6.0992896E2,1.2038784E4,6.662341E3,2.2919318E4,3.495201E4,-1.8084432E4,5.1727964E3,7.3462783E3,-1.6115636E4,2.4281973E4,3.868575E4,-1.6889064E4,6.3349917E3,2.7286896E4,7.7461704E3,-3.525762E4,-1.0979435E4,1.6267218E4,-6.7798984E3,2.799627E4,8.925514E3,3.76742E3,-4.7657847E3],"split_indices":[2,2,2,2,0,6,6,5,6,0,0,4,0,2,4,3,9,1,2,0,5,0,0,0,1,0,9,2,2,3,9,0,0,0,0,0,1,0,1,2,1,1,0,5,5,0,0,0,0,0,0,0,0,0,0,0,0,0,0,0,0,0,0,0,0,0,0,0,0,0,0,0,0,0,0,0,0],"split_type":[0,0,0,0,0,0,0,0,0,0,0,0,0,0,0,0,0,0,0,0,0,0,0,0,0,0,0,0,0,0,0,0,0,0,0,0,0,0,0,0,0,0,0,0,0,0,0,0,0,0,0,0,0,0,0,0,0,0,0,0,0,0,0,0,0,0,0,0,0,0,0,0,0,0,0,0,0],"sum_hessian":[2.684E4,2.6617E4,2.23E2,2.6605E4,1.2E1,2.4E1,1.99E2,2.6596E4,9E0,1E0,1.1E1,2.2E1,2E0,9.1E1,1.08E2,2.2658E4,3.938E3,3E0,6E0,1.1E1,1.1E1,1E0,1E0,1E0,9E1,1.6E1,9.2E1,2.2648E4,1E1,3.569E3,3.69E2,2E0,1E0,2E0,4E0,1E0,1E1,5E0,6E0,8.4E1,6E0,1.1E1,5E0,2.1E1,7.1E1,2.2543E4,1.05E2,6E0,4E0,2.84E2,3.285E3,3.2E1,3.37E2,1E0,1E0,1E0,1E0,1E0,3E0,1E0,9E0,4E0,1E0,3E0,3E0,3E0,8.1E1,5E0,1E0,9E0,2E0,3E0,2E0,3E0,1.8E1,3.9E1,3.2E1],"tree_param":{"num_deleted":"0","num_feature":"10","num_nodes":"77","size_leaf_vector":"0"}},{"base_weights":[6.032752E2,3.715594E2,1.2733393E4,3.7863568E2,-1.6908122E5,-9.0508016E4,1.3787917E4,-1.9766718E2,1.5737396E3,-1.3462247E5,-2.1076295E4,1.1461231E4,5.9501688E4,-4.9768215E1,-6.5048833E3,1.6420104E3,-6.265625E4,-1.5139742E5,-9.035824E4,-9.806903E3,-3.042875E4,4.9043453E4,8.0812915E3,4.839886E4,9.991598E4,-1.7487111E2,2.6940488E4,-2.101133E4,2.7047454E3,1.5332396E3,3.719703E4,-9.560647E4,-3.4938105E4,2.7788694E5,4.2307676E4,5.9038604E3,6.860644E4,8.7350195E4,3.396675E4,8.770805E4,1.363341E5,-1.9601328E2,3.5980086E4,-4.770264E3,5.4174266E4,-1.724301E4,-6.2590023E4,-2.04553E4,8.531209E3,1.7000613E3,-1.2381781E4,-1.2539878E5,4.4174586E4,-6.3459992E4,-1.2319978E5,-9.297699E3,-4.0964848E4,5.4689832E4,-6.170729E4,-7.457324E4,7.4842417E3,3.4727875E4,1.06290195E5,5.4004074E4,1.3241542E5,6.4155947E3,4.481448E4,1.09594766E5,6.1644285E4],"categories":[],"categories_nodes":[],"categories_segments":[],