{"learner":{"attributes":{"best_iteration":"4","best_ntree_limit":"5","best_score":"36318.24892380034","scikit_learn":"{\"n_estimators\": 500, \"objective\": \"reg:squarederror\", \"max_depth\": null, \"max_leaves\": null, \"max_bin\": null, \"grow_policy\": null, \"learning_rate\": 0.5, \"verbosity\": null, \"booster\": \"dart\", \"tree_method\": null, \"gamma\": null, \"min_child_weight\": null, \"max_delta_step\": null, \"subsample\": null, \"sampling_method\": null, \"colsample_bytree\": null, \"colsample_bylevel\": null, \"colsample_bynode\": null, \"reg_alpha\": 1, \"reg_lambda\": 1, \"scale_pos_weight\": null, \"base_score\": null, \"missing\": NaN, \"num_parallel_tree\": null, \"random_state\": null, \"n_jobs\": null, \"monotone_constraints\": null, \"interaction_constraints\": null, \"importance_type\": null, \"gpu_id\": null, \"validate_parameters\": null, \"predictor\": null, \"enable_categorical\": false, \"feature_types\": null, \"max_cat_to_onehot\": null, \"max_cat_threshold\": null, \"eval_metric\": null, \"early_stopping_rounds\": 35, \"callbacks\": null, \"evals_result_\": {\"validation_0\": {\"rmse\": [77265.53245810517, 52166.22055396982, 39958.5090183943, 36612.551795340725, 36318.24892380034, 36663.73433988348, 37569.63425574223, 37764.19385296776, 37780.77395636662, 37651.27295443446, 37368.09788181966, 37340.62046863636, 37288.776690554405, 37046.66587249803, 37093.24493605123, 37042.43299318813, 37059.97523005155, 37078.5708607126, 37023.45176715183, 37128.13516271992, 37006.155743704774, 36943.909796160435, 36911.205562469746, 36928.70606991401, 37133.994651875495, 36885.15779604325, 36732.40308037112, 36709.20870465708, 36690.25490627086, 36669.764782966944, 36658.23593104963, 36681.9228553459, 36559.85988192419, 36554.779057307656, 36606.72022816238, 36962.985446405684, 36922.528709651364, 36973.89795171804, 36885.12888438179, 36932.504847287244]}}, \"_estimator_type\": \"regressor\"}"},"feature_names":["n_productos","n_productos_distintos","peso_total","peso_media","peso_mediana","volumen_total","volumen_media","volumen_mediana","densidad_total","densidad_mediana"],"feature_types":["float","int","float","float","float","float","float","float","float","float"],"gradient_booster":{"gbtree":{"model":{"gbtree_model_param":{"num_parallel_tree":"1","num_trees":"40","size_leaf_vector":"0"},"tree_info":[0,0,0,0,0,0,0,0,0,0,0,0,0,0,0,0,0,0,0,0,0,0,0,0,0,0,0,0,0,0,0,0,0,0,0,0,0,0,0,0],"trees":[{"base_weights":[5.101685E4,3.750369E4,7.755587E5,2.9251492E4,2.2749666E5,5.699121E5,1.7561341E6,1.4721229E4,5.9511723E4,1.2921642E5,2.9664203E5,4.2588972E5,7.3049544E5,1.5400771E6,4.200167E6,9.71324E3,2.1670178E4,4.723042E4,9.172119E4,1.6975396E4,1.5485073E5,2.626327E5,3.6641716E5,1.2524307E5,4.8186744E5,1.0547684E6,6.324137E5,1.4010585E6,2.2341812E6,7.717311E3,1.7354613E4,1.9809066E4,3.0599965E4,3.7458156E4,5.763294E4,8.191627E4,1.2853065E5,1.2451756E4,1.31947E5,4.7999938E5,1.5070417E5,2.233545E5,2.8797712E5,3.5034822E5,5.0021E5,4.4504477E4,2.2454494E5,4.465182E5,7.33498E5,1.2492224E6,8.1008725E5,5.7013494E5,7.437959E5,7.6799944E5,1.4515645E6,2.8799925E5,2.3999995E6,5.870039E3,1.0471895E4,1.1624976E4,1.9654535E4,1.8667668E4,3.234177E4,2.4112723E4,3.2560414E4,4.164011E4,2.3671418E4,4.9081223E4,6.8830586E4,7.9921195E4,2.7590125E5,1.2053109E5,2.456477E5,1.1871291E4,2.915375E4,1.08904625E5,1.6786306E5,6.046523E4,2.3549684E5,2.0458812E5,3.028865E5,1.199925E4,3.5216125E5,3.0399944E5,6.152722E5,1.0756429E4,5.8199535E4,2.5481716E5,1.8516666E4,5.9656694E5,4.174313E5,2.2218E5,9.367642E5,8.499916E5,5.99925E3,5.760102E5,1.9599933E5,7.584121E5,2.841525E4,9.599994E5,3.8399938E5],"categories":[],"categories_nodes":[],"categories_segments":[],"categories_sizes":[],"default_left":[1,1,1,1,1,1,1,1,1,1,1,1,1,1,0,1,1,1,1,1,1,1,1,1,1,1,1,1,1,1,1,1,1,1,1,1,1,1,0,0,1,1,1,1,1,1,1,1,1,0,1,1,1,1,0,0,0,0,0,0,0,0,0,0,0,0,0,0,0,0,0,0,0,0,0,0,0,0,0,0,0,0,0,0,0,0,0,0,0,0,0,0,0,0,0,0,0,0,0,0,0],"id":0,"left_children":[1,3,5,7,9,11,13,15,17,19,21,23,25,27,-1,29,31,33,35,37,39,41,43,45,47,49,51,53,55,57,59,61,63,65,67,69,71,73,-1,-1,75,77,79,81,83,85,87,89,91,-1,93,95,97,99,-1,-1,-1,-1,-1,-1,-1,-1,-1,-1,-1,-1,-1,-1,-1,-1,-1,-1,-1,-1,-1,-1,-1,-1,-1,-1,-1,-1,-1,-1,-1,-1,-1,-1,-1,-1,-1,-1,-1,-1,-1,-1,-1,-1,-1,-1,-1],"loss_changes":[2.513314E14,3.9509685E13,9.377558E13,1.0620255E13,7.090282E12,8.70865E12,3.6303513E13,5.677646E11,3.0953859E12,1.2489625E12,1.3631656E12,3.440185E12,5.1533064E12,4.2032798E12,0E0,1.4455833E11,1.1298642E11,5.747413E11,7.6976593E11,4.1004278E10,4.0494223E11,3.507927E11,2.5258099E11,2.6260124E11,1.2290946E12,9.387649E11,5.678878E11,9.954342E11,2.8586363E12,3.8224134E10,2.5652494E10,8.034714E10,1.4183825E10,1.6788698E11,2.5967146E11,6.397446E11,3.948004E11,4.2945946E8,0E0,0E0,2.3346754E11,3.1803992E11,2.4885225E11,1.06805854E11,2.4190858E11,8.617546E9,8.883536E10,4.3182667E11,1.8705421E12,0E0,6.687199E11,9.8123645E10,4.8034428E11,1.4745574E11,0E0,0E0,0E0,0E0,0E0,0E0,0E0,0E0,0E0,0E0,0E0,0E0,0E0,0E0,0E0,0E0,0E0,0E0,0E0,0E0,0E0,0E0,0E0,0E0,0E0,0E0,0E0,0E0,0E0,0E0,0E0,0E0,0E0,0E0,0E0,0E0,0E0,0E0,0E0,0E0,0E0,0E0,0E0,0E0,0E0,0E0,0E0],"parents":[2147483647,0,0,1,1,2,2,3,3,4,4,5,5,6,6,7,7,8,8,9,9,10,10,11,11,12,12,13,13,15,15,16,16,17,17,18,18,19,19,20,20,21,21,22,22,23,23,24,24,25,25,26,26,27,27,28,28,29,29,30,30,31,31,32,32,33,33,34,34,35,35,36,36,37,37,40,40,41,41,42,42,43,43,44,44,45,45,46,46,47,47,48,48,50,50,51,51,52,52,53,53],"right_children":[2,4,6,8,10,12,14,16,18,20,22,24,26,28,-1,30,32,34,36,38,40,42,44,46,48,50,52,54,56,58,60,62,64,66,68,70,72,74,-1,-1,76,78,80,82,84,86,88,90,92,-1,94,96,98,100,-1,-1,-1,-1,-1,-1,-1,-1,-1,-1,-1,-1,-1,-1,-1,-1,-1,-1,-1,-1,-1,-1,-1,-1,-1,-1,-1,-1,-1,-1,-1,-1,-1,-1,-1,-1,-1,-1,-1,-1,-1,-1,-1,-1,-1,-1,-1],"split_conditions":[2.9466438E5,3.6768997E1,3.0240002E2,1.4093013E4,1.3613192E5,8.832E1,2.6945E3,2.1205E0,1.5925E1,4.17305E2,6.832E1,3.532E1,1.9908682E-4,1.6538848E6,2.1000835E6,4.6376797E3,1.0486541E4,2.05E1,7.25E1,9.5E0,1.17368E3,1.495689E5,6.302076E-4,4.6405657E-5,2.085E2,4.6153135E0,3.605E2,7.8409E5,1.5E0,9.62E-1,6.821289E2,7.817E0,1.5E0,1.374859E4,3.667991E4,1.55504E5,1.1525E3,7E0,6.59735E4,2.3999969E5,9.65E1,4.05E1,4.5729E1,2.4617877E-4,8.6E-1,3.2649999E0,1E2,3.2091175E5,5.32355E1,6.246112E5,3.75E1,1.5225E2,2.84986E2,5.193E5,7.2578225E5,1.4399962E5,1.1999998E6,2.9350195E3,5.2359473E3,5.812488E3,9.827268E3,9.333834E3,1.6170885E4,1.2056361E4,1.6280207E4,2.0820055E4,1.1835709E4,2.4540611E4,3.4415293E4,3.9960598E4,1.3795062E5,6.0265547E4,1.2282385E5,5.9356455E3,1.4576875E4,5.4452312E4,8.393153E4,3.0232615E4,1.1774842E5,1.0229406E5,1.5144325E5,5.999625E3,1.7608062E5,1.5199972E5,3.076361E5,5.3782144E3,2.9099768E4,1.2740858E5,9.258333E3,2.9828347E5,2.0871566E5,1.1109E5,4.683821E5,4.249958E5,2.999625E3,2.880051E5,9.7999664E4,3.7920606E5,1.4207625E4,4.799997E5,1.9199969E5],"split_indices":[5,2,2,5,5,2,0,2,2,5,2,2,8,5,0,5,5,0,0,0,5,5,9,8,0,3,0,5,1,2,6,2,1,6,5,6,7,0,0,0,0,0,2,8,4,2,0,5,2,0,0,3,2,5,0,0,0,0,0,0,0,0,0,0,0,0,0,0,0,0,0,0,0,0,0,0,0,0,0,0,0,0,0,0,0,0,0,0,0,0,0,0,0,0,0,0,0,0,0,0,0],"split_type":[0,0,0,0,0,0,0,0,0,0,0,0,0,0,0,0,0,0,0,0,0,0,0,0,0,0,0,0,0,0,0,0,0,0,0,0,0,0,0,0,0,0,0,0,0,0,0,0,0,0,0,0,0,0,0,0,0,0,0,0,0,0,0,0,0,0,0,0,0,0,0,0,0,0,0,0,0,0,0,0,0,0,0,0,0,0,0,0,0,0,0,0,0,0,0,0,0,0,0,0,0],"sum_hessian":[2.5672E4,2.5203E4,4.69E2,2.4155E4,1.048E3,3.89E2,8E1,1.632E4,7.835E3,4.34E2,6.14E2,2.07E2,1.82E2,7.5E1,5E0,9.486E3,6.834E3,5.674E3,2.161E3,8.1E1,3.53E2,4.16E2,1.98E2,3.3E1,1.74E2,4E1,1.42E2,6.5E1,1E1,7.523E3,1.963E3,5.658E3,1.176E3,2.928E3,2.746E3,1.709E3,4.52E2,7.9E1,2E0,3E0,3.5E2,1.67E2,2.49E2,1.8E2,1.8E1,1.9E1,1.4E1,1.55E2,1.9E1,2E1,2E1,9.5E1,4.7E1,6E0,5.9E1,1E0,9E0,4.505E3,3.018E3,5.64E2,1.399E3,5.188E3,4.7E2,2.76E2,9E2,2.245E3,6.83E2,1.56E3,1.186E3,1.693E3,1.6E1,4.25E2,2.7E1,7.8E1,1E0,1.04E2,2.46E2,1.2E1,1.55E2,4E1,2.09E2,1E0,1.79E2,8E0,1E1,6E0,1.3E1,1.2E1,2E0,2.2E1,1.33E2,6E0,1.3E1,1.9E1,1E0,9.3E1,2E0,4.6E1,1E0,3E0,3E0],"tree_param":{"num_deleted":"0","num_feature":"10","num_nodes":"101","size_leaf_vector":"0"}},{"base_weights":[2.5896775E4,2.0977404E4,5.9495025E5,1.6198408E4,1.8419338E5,5.1106E5,1.8914294E6,1.055867E4,4.7640777E4,1.6402197E5,3.0699303E5,3.825924E5,7.3377456E5,1.3320834E6,2.8169368E6,6.584659E3,2.0288393E4,4.3842418E4,1.5012442E5,1.1873657E5,1.8342473E5,1.4408427E5,3.3824734E5,2.3473004E4,4.276623E5,4.7585734E5,7.8516775E5,1.919994E5,1.437426E6,4.4407056E3,1.1229557E4,1.4414615E4,2.5939477E4,2.9326898E4,6.0452254E4,9.000088E4,2.2277675E5,1.10203875E5,2.3612114E5,6.4608848E4,1.8929556E5,3.524879E5,3.681449E4,2.468565E5,3.795346E5,8.287391E3,4.181331E4,5.175059E5,3.0993378E5,5.2740306E5,-1.22890875E5,6.636586E5,8.96362E5,2.537829E3,6.2893325E3,2.269415E3,1.24086E4,1.1634673E4,1.7620014E4,2.234571E4,3.0491707E4,2.7761926E4,1.3138788E5,5.2397086E4,7.874445E4,1.4127811E5,-4.8582312E4,3.237696E5,1.850013E5,1.1985463E5,1.1187534E4,3.258488E5,1.25479984E5,1.4461956E5,-1.9076971E3,1.851074E5,3.787056E5,4.1571112E5,1.8185422E4,1.4056994E5,-8.369041E3,4.858082E5,2.2097219E5,1.0688736E4,-8.7832733E2,1.4884799E4,5.8288242E4,1.8596128E5,5.416331E5,3.7013966E5,1.8907677E5,7.080866E5,3.8432088E5,7.3335825E5,1.0964264E6],"categories":[],"categories_nodes":[],"categories_segments":[],"categories_sizes":[],"default_left":[1,1,1,1,1,1,1,1,1,1,1,1,1,1,0,1,1,1,1,1,1,1,1,1,1,1,1,0,0,1,1,1,1,1,1,1,1,1,1,1,1,1,1,1,0,1,1,1,1,1,0,0,1,0,0,0,0,0,0,0,0,0,0,0,0,0,0,0,0,0,0,0,0,0,0,0,0,0,0,0,0,0,0,0,0,0,0,0,0,0,0,0,0,0,0],"id":1,"left_children":[1,3,5,7,9,11,13,15,17,19,21,23,25,27,-1,29,31,33,35,37,39,41,43,45,47,49,51,-1,-1,53,55,57,59,61,63,65,67,69,71,73,75,77,79,81,-1,83,85,87,89,91,-1,-1,93,-1,-1,-1,-1,-1,-1,-1,-1,-1,-1,-1,-1,-1,-1,-1,-1,-1,-1,-1,-1,-1,-1,-1,-1,-1,-1,-1,-1,-1,-1,-1,-1,-1,-1,-1,-1,-1,-1,-1,-1,-1,-1],"loss_changes":[7.185614E13,1.9851351E13,2.2961004E13,4.3849645E12,1.7430269E12,5.6704725E12,2.9774274E12,8.107317E11,1.4574619E12,5.265047E11,4.655153E11,2.1588146E12,6.205095E11,9.250076E11,0E0,1.4824138E11,2.0147392E11,8.72939E11,5.6527684E11,1.6428355E11,2.912032E11,3.8942035E11,2.2326385E11,4.109567E9,1.098289E12,5.2775695E11,2.292984E11,0E0,0E0,3.5829498E10,4.964555E10,2.6384925E10,5.0000822E10,3.0589452E11,2.45037E11,5.3982567E11,1.6900476E11,1.6970822E11,7.824291E10,1.17360845E11,2.583146E11,1.192537E11,6.212105E10,7.201712E10,0E0,2.2949856E8,2.2378353E9,4.272276E11,3.2293467E11,8.980293E10,0E0,0E0,1.4164794E11,0E0,0E0,0E0,0E0,0E0,0E0,0E0,0E0,0E0,0E0,0E0,0E0,0E0,0E0,0E0,0E0,0E0,0E0,0E0,0E0,0E0,0E0,0E0,0E0,0E0,0E0,0E0,0E0,0E0,0E0,0E0,0E0,0E0,0E0,0E0,0E0,0E0,0E0,0E0,0E0,0E0,0E0],"parents":[2147483647,0,0,1,1,2,2,3,3,4,4,5,5,6,6,7,7,8,8,9,9,10,10,11,11,12,12,13,13,15,15,16,16,17,17,18,18,19,19,20,20,21,21,22,22,23,23,24,24,25,25,26,26,29,29,30,30,31,31,32,32,33,33,34,34,35,35,36,36,37,37,38,38,39,39,40,40,41,41,42,42,43,43,45,45,46,46,47,47,48,48,49,49,52,52],"right_children":[2,4,6,8,10,12,14,16,18,20,22,24,26,28,-1,30,32,34,36,38,40,42,44,46,48,50,52,-1,-1,54,56,58,60,62,64,66,68,70,72,74,76,78,80,82,-1,84,86,88,90,92,-1,-1,94,-1,-1,-1,-1,-1,-1,-1,-1,-1,-1,-1,-1,-1,-1,-1,-1,-1,-1,-1,-1,-1,-1,-1,-1,-1,-1,-1,-1,-1,-1,-1,-1,-1,-1,-1,-1,-1,-1,-1,-1,-1,-1],"split_conditions":[4.728097E5,5.27305E1,2.252E3,4.2174184E4,3.331178E5,2.4273001E2,3.804E3,4.534E0,2.389342E5,1.4308381E5,1.5255102E-4,3.7702E1,1.032891E6,1.5E0,1.4084684E6,5.4730225E3,1.25E1,4.65E1,7.423333E0,2.473467E-3,2.902325E-1,3.5E0,1.5E0,2.5E0,1.9908682E-4,1.882E2,1.5E0,9.59997E4,7.18713E5,1.5E0,1.04043604E-4,9.751293E3,2.9078469E4,1.55504E5,8.92773E4,2.52995E4,5.5649996E0,1.3187499E0,2E0,4.2623367E2,9.236081E-4,9.5E1,1.3191257E-4,6.553E1,1.897673E5,8.6E1,7.05E1,1.49E-1,5.91248E5,9.57E2,-6.1445438E4,3.318293E5,1.3631531E6,1.2689146E3,3.1446663E3,1.1347075E3,6.2043E3,5.8173364E3,8.810007E3,1.1172855E4,1.5245854E4,1.3880963E4,6.569394E4,2.6198543E4,3.9372227E4,7.0639055E4,-2.4291156E4,1.618848E5,9.250065E4,5.9927316E4,5.593767E3,1.629244E5,6.2739992E4,7.230978E4,-9.538486E2,9.25537E4,1.893528E5,2.0785556E5,9.092711E3,7.028497E4,-4.1845205E3,2.429041E5,1.1048609E5,5.344368E3,-4.3916367E2,7.4423994E3,2.9144121E4,9.298064E4,2.7081656E5,1.8506983E5,9.453838E4,3.540433E5,1.9216044E5,3.6667912E5,5.482132E5],"split_indices":[5,2,0,5,5,2,0,2,5,5,9,2,5,1,0,5,0,0,3,8,3,1,1,1,9,3,1,0,0,1,8,5,5,6,5,7,4,3,0,6,9,0,9,2,0,0,0,4,5,7,0,0,5,0,0,0,0,0,0,0,0,0,0,0,0,0,0,0,0,0,0,0,0,0,0,0,0,0,0,0,0,0,0,0,0,0,0,0,0,0,0,0,0,0,0],"split_type":[0,0,0,0,0,0,0,0,0,0,0,0,0,0,0,0,0,0,0,0,0,0,0,0,0,0,0,0,0,0,0,0,0,0,0,0,0,0,0,0,0,0,0,0,0,0,0,0,0,0,0,0,0,0,0,0,0,0,0,0,0,0,0,0,0,0,0,0,0,0,0,0,0,0,0,0,0,0,0,0,0,0,0,0,0,0,0,0,0,0,0,0,0,0,0],"sum_hessian":[2.5672E4,2.5453E4,2.19E2,2.473E4,7.23E2,2.07E2,1.2E1,2.097E4,3.76E3,6.23E2,1E2,1.33E2,7.4E1,9E0,3E0,1.489E4,6.08E3,3.627E3,1.33E2,1.89E2,4.34E2,1.7E1,8.3E1,1.5E1,1.18E2,1.4E1,6E1,1E0,8E0,1.0189E4,4.701E3,2.983E3,3.097E3,1.937E3,1.69E3,7.4E1,5.9E1,1.78E2,1.1E1,2.1E1,4.13E2,5E0,1.2E1,2.8E1,5.5E1,9E0,6E0,6.5E1,5.3E1,1.3E1,1E0,3.2E1,2.8E1,5.022E3,5.167E3,5.47E2,4.154E3,1.6E3,1.383E3,1.734E3,1.363E3,1.909E3,2.8E1,1.176E3,5.14E2,5.4E1,2E1,1.4E1,4.5E1,1.62E2,1.6E1,5E0,6E0,9E0,1.2E1,4.06E2,7E0,4E0,1E0,3E0,9E0,1E0,2.7E1,7E0,2E0,3E0,3E0,5E0,6E1,3.4E1,1.9E1,4E0,9E0,1.8E1,1E1],"tree_param":{"num_deleted":"0","num_feature":"10","num_nodes":"95","size_leaf_vector":"0"}},{"base_weights":[1.3205814E4,1.0580661E4,3.211105E5,8.204747E3,9.8197945E4,2.8815225E5,1.6609099E6,5.986383E3,3.263611E4,7.682748E4,1.4789278E5,2.078243E5,4.4588106E5,3.2228052E3,1.2057402E4,2.7540959E4,7.159034E4,7.346267E4,2.2493495E5,3.4562266E5,1.4003636E5,4.851435E4,2.5517623E5,3.8588184E5,7.7328794E5,1.0910195E3,4.446291E3,1.4030469E4,-3.5332635E2,3.0070846E4,-3.8306266E4,1.06314336E5,4.142576E4,7.760385E4,3.1209209E4,1.21626375E5,4.2544588E5,2.5559219E5,1.3106225E5,1.2130986E3,9.574419E4,4.4315312E5,2.1846575E5,4.0623616E5,1.2820228E5,5.008478E4,8.4807875E5,-3.4071735E2,3.233128E3,2.549598E3,5.490126E3,-7.2549185E3,1.5249914E4,9.948915E2,-2.2107854E4,2.8780316E4,1.08825305E5,-4.1198324E4,1.8265953E4,8.119305E4,1.5177588E5,8.989513E4,-3.2074924E4,-3.8053887E4,7.880454E4,7.9348445E4,-5.4984965E4,1.4717197E5,-2.8595902E4,1.636353E5,3.6999594E5,-1.2877714E4,1.3517786E5,1.6747244E4,-8.203971E4,1.3980997E5,-8.344577E3,1.0186131E5,4.5811747E5,1.675342E5,2.9586838E5,4.1042275E5,8.589275E4,1.907102E5,-9.216816E4],"categories":[],"categories_nodes":[],"categories_segments":[],"categories_sizes":[],"default_left":[1,1,1,1,1,1,0,1,1,1,1,1,1,1,1,1,1,1,1,0,1,1,1,1,1,1,1,1,1,1,1,1,1,1,1,1,0,1,1,1,1,1,1,1,1,0,0,0,0,0,0,0,0,0,0,0,0,0,0,0,0,0,0,0,0,0,0,0,0,0,0,0,0,0,0,0,0,0,0,0,0,0,0,0,0],"id":2,"left_children":[1,3,5,7,9,11,-1,13,15,17,19,21,23,25,27,29,31,33,35,-1,37,39,41,43,45,47,49,51,53,55,57,59,61,63,65,67,-1,69,71,73,75,77,79,81,83,-1,-1,-1,-1,-1,-1,-1,-1,-1,-1,-1,-1,-1,-1,-1,-1,-1,-1,-1,-1,-1,-1,-1,-1,-1,-1,-1,-1,-1,-1,-1,-1,-1,-1,-1,-1,-1,-1,-1,-1],"loss_changes":[2.074801E13,5.2986066E12,9.103571E12,1.3431477E12,7.023032E11,2.606051E12,0E0,3.812184E11,4.0748764E11,2.1869783E11,2.6384296E11,1.0663593E12,1.09633654E12,4.0727544E10,1.7405995E11,3.0533812E11,2.4488523E11,7.859313E10,1.5539896E11,0E0,1.6871824E11,7.58408E10,6.6226435E11,2.7310162E11,4.984128E11,1.747037E10,1.9629916E10,1.593011E11,2.8647942E10,1.7564356E11,1.1878031E10,1.1330244E11,4.6245007E11,6.1462544E10,1.8278382E11,3.4908766E10,0E0,7.621791E10,1.1015029E11,2.4652575E10,7.914157E10,4.0157577E10,3.2100214E11,4.119331E10,1.0022688E11,0E0,0E0,0E0,0E0,0E0,0E0,0E0,0E0,0E0,0E0,0E0,0E0,0E0,0E0,0E0,0E0,0E0,0E0,0E0,0E0,0E0,0E0,0E0,0E0,0E0,0E0,0E0,0E0,0E0,0E0,0E0,0E0,0E0,0E0,0E0,0E0,0E0,0E0,0E0,0E0],"parents":[2147483647,0,0,1,1,2,2,3,3,4,4,5,5,7,7,8,8,9,9,10,10,11,11,12,12,13,13,14,14,15,15,16,16,17,17,18,18,20,20,21,21,22,22,23,23,24,24,25,25,26,26,27,27,28,28,29,29,30,30,31,31,32,32,33,33,34,34,35,35,37,37,38,38,39,39,40,40,41,41,42,42,43,43,44,44],"right_children":[2,4,6,8,10,12,-1,14,16,18,20,22,24,26,28,30,32,34,36,-1,38,40,42,44,46,48,50,52,54,56,58,60,62,64,66,68,-1,70,72,74,76,78,80,82,84,-1,-1,-1,-1,-1,-1,-1,-1,-1,-1,-1,-1,-1,-1,-1,-1,-1,-1,-1,-1,-1,-1,-1,-1,-1,-1,-1,-1,-1,-1,-1,-1,-1,-1,-1,-1,-1,-1,-1,-1],"split_conditions":[4.769785E5,5.584E1,2.9445E3,1.89755E1,2.8737925E5,3.56275E2,8.3045494E5,1.211665E4,1.6889972E5,2.5561224E-3,5.9336998E1,7.594E1,1.938066E6,1.99721E3,9.71024E3,1.29411E5,2.000236E4,4.5E0,1.0654E2,1.7281133E5,3.030703E5,4.5E0,3.477546E-1,1.9125E2,1.5E0,1.1286598E-3,1.5E0,7.832598E-2,1.60835E1,1.04926875E5,1.51746E5,2.9343256E5,2.5E0,2.3380247E-1,4.520892E-1,4.75E1,2.1272294E5,2.5E0,1.6617839E-4,6.206E1,1.5635652E-4,1.5E0,8.565067E5,1.5487195E6,1.5E0,2.504239E4,4.2403938E5,-1.7035867E2,1.616564E3,1.274799E3,2.745063E3,-3.6274592E3,7.624957E3,4.9744574E2,-1.1053927E4,1.4390158E4,5.4412652E4,-2.0599162E4,9.132977E3,4.0596523E4,7.588794E4,4.4947566E4,-1.6037462E4,-1.9026943E4,3.940227E4,3.9674223E4,-2.7492482E4,7.3585984E4,-1.4297951E4,8.181765E4,1.8499797E5,-6.438857E3,6.758893E4,8.373622E3,-4.1019855E4,6.9904984E4,-4.1722886E3,5.0930656E4,2.2905873E5,8.37671E4,1.4793419E5,2.0521138E5,4.2946375E4,9.53551E4,-4.608408E4],"split_indices":[5,2,0,2,5,2,0,5,5,9,2,2,5,5,6,6,7,1,2,0,5,1,3,3,1,8,1,3,2,6,5,5,1,3,3,0,0,1,8,2,9,1,5,5,0,0,0,0,0,0,0,0,0,0,0,0,0,0,0,0,0,0,0,0,0,0,0,0,0,0,0,0,0,0,0,0,0,0,0,0,0,0,0,0,0],"split_type":[0,0,0,0,0,0,0,0,0,0,0,0,0,0,0,0,0,0,0,0,0,0,0,0,0,0,0,0,0,0,0,0,0,0,0,0,0,0,0,0,0,0,0,0,0,0,0,0,0,0,0,0,0,0,0,0,0,0,0,0,0,0,0,0,0,0,0,0,0,0,0,0,0,0,0,0,0,0,0,0,0,0,0,0,0],"sum_hessian":[2.5672E4,2.5456E4,2.16E2,2.4785E4,6.71E2,2.12E2,4E0,2.2723E4,2.062E3,4.71E2,2E2,1.42E2,7E1,1.5616E4,7.107E3,1.825E3,2.37E2,4.62E2,9E0,6E0,1.94E2,3.3E1,1.09E2,6.1E1,9E0,5.695E3,9.921E3,6.132E3,9.75E2,1.758E3,6.7E1,1.09E2,1.28E2,4.2E2,4.2E1,7E0,2E0,1.2E1,1.82E2,1.7E1,1.6E1,1.6E1,9.3E1,5.6E1,5E0,1E0,8E0,3.414E3,2.281E3,3.523E3,6.398E3,3.32E2,5.8E3,9.19E2,5.6E1,1.731E3,2.7E1,6.4E1,3E0,7.2E1,3.7E1,7.7E1,5.1E1,4E0,4.16E2,2.7E1,1.5E1,6E0,1E0,8E0,4E0,5E0,1.77E2,1.5E1,2E0,1.1E1,5E0,1E0,1.5E1,5.8E1,3.5E1,5.5E1,1E0,4E0,1E0],"tree_param":{"num_deleted":"0","num_feature":"10","num_nodes":"85","size_leaf_vector":"0"}},{"base_weights":[6.724776E3,5.8122944E3,2.6317847E5,4.1745444E3,6.309773E4,2.204348E5,1.1377441E6,2.450329E3,1.5293681E4,4.499972E4,1.09760766E5,1.6619916E5,3.6648338E5,9.481109E2,4.56256E3,1.832404E4,6.334801E2,4.1719523E4,1.2826156E5,1.14637805E5,-1.01420375E5,-4.205999E4,1.7336445E5,1.2595892E5,4.4396494E5,9.86567E2,-2.4539422E4,4.7692217E3,-1.6303379E4,1.6351608E4,4.8172426E4,-5.3966514E3,4.2668113E4,2.5078619E5,4.0790527E4,7.547492E4,3.846317E5,1.0684079E5,2.825632E5,-2.0487494E5,-2.433775E4,6.0356406E3,-6.9126125E4,8.034424E4,1.8910255E5,1.344307E5,3.7563594E4,7.7973664E4,4.8756547E5,1.1312761E2,1.9617756E3,-1.5385406E4,-2.9798125E4,4.5525493E3,3.0096754E4,-1.217166E4,-5.1218176E4,2.0980883E4,4.9446577E3,3.254713E4,9.5389445E4,-2.2910671E3,-6.216458E4,4.7169707E4,-1.3847202E5,-7.303183E4,4.233647E4,1.4329814E5,1.3668756E4,1.9703944E5,9.362012E4,1.0012083E3,3.7625012E5,1.5318594E4,-4.2663062E4,1.1170903E5,-1.1665133E5,1.9341028E5,-1.9603188E4,1.1925625E4,1.05034375E5,6.191347E5,3.310598E5],"categories":[],"categories_nodes":[],"categories_segments":[],"categories_sizes":[],"default_left":[1,1,1,1,1,1,0,1,1,1,1,1,1,1,1,1,1,1,1,1,1,1,1,1,1,1,1,1,1,1,1,1,1,0,1,1,0,1,1,0,1,0,0,1,1,0,0,1,1,0,0,0,0,0,0,0,0,0,0,0,0,0,0,0,0,0,0,0,0,0,0,0,0,0,0,0,0,0,0,0,0,0,0],"id":3,"left_children":[1,3,5,7,9,11,-1,13,15,17,19,21,23,25,27,29,31,33,35,37,39,41,43,45,47,49,51,53,55,57,59,61,63,-1,65,67,-1,69,71,-1,73,-1,-1,75,77,-1,-1,79,81,-1,-1,-1,-1,-1,-1,-1,-1,-1,-1,-1,-1,-1,-1,-1,-1,-1,-1,-1,-1,-1,-1,-1,-1,-1,-1,-1,-1,-1,-1,-1,-1,-1,-1],"loss_changes":[6.006189E12,2.3999136E12,3.150974E12,4.7682224E11,5.955057E11,6.361417E11,0E0,6.8326924E10,1.4832573E11,1.3502998E11,2.1555472E11,1.0577969E11,3.727111E11,1.2360362E10,3.8671827E10,1.6211614E11,1.454711E11,8.610434E10,2.2809494E11,2.2381776E11,3.488632E10,4.322572E9,7.849981E10,1.922007E8,2.3325835E11,1.0705017E10,4.5612544E8,4.850116E10,1.2071242E10,1.37033155E11,1.2305557E11,8.83589E10,6.5241776E10,0E0,9.019366E10,6.930331E10,0E0,2.0454782E11,2.1065243E11,0E0,3.5604252E9,0E0,0E0,8.099697E10,5.2340457E10,0E0,0E0,4.1092014E9,1.0389815E11,0E0,0E0,0E0,0E0,0E0,0E0,0E0,0E0,0E0,0E0,0E0,0E0,0E0,0E0,0E0,0E0,0E0,0E0,0E0,0E0,0E0,0E0,0E0,0E0,0E0,0E0,0E0,0E0,0E0,0E0,0E0,0E0,0E0,0E0],"parents":[2147483647,0,0,1,1,2,2,3,3,4,4,5,5,7,7,8,8,9,9,10,10,11,11,12,12,13,13,14,14,15,15,16,16,17,17,18,18,19,19,20,20,21,21,22,22,23,23,24,24,25,25,26,26,27,27,28,28,29,29,30,30,31,31,32,32,34,34,35,35,37,37,38,38,40,40,43,43,44,44,47,47,48,48],"right_children":[2,4,6,8,10,12,-1,14,16,18,20,22,24,26,28,30,32,34,36,38,40,42,44,46,48,50,52,54,56,58,60,62,64,-1,66,68,-1,70,72,-1,74,-1,-1,76,78,-1,-1,80,82,-1,-1,-1,-1,-1,-1,-1,-1,-1,-1,-1,-1,-1,-1,-1,-1,-1,-1,-1,-1,-1,-1,-1,-1,-1,-1,-1,-1,-1,-1,-1,-1,-1,-1],"split_conditions":[2.479E2,5.6215E1,3.804E3,4.6449812E4,3.3675338E5,1.3972224E6,5.6887206E5,3.2020001E0,2.1001375E4,1.3415064E-3,2.17535E2,4E0,1.5E0,4.0276375E4,4.898E1,7.3986875E3,1.5301394E5,2.1435891E-4,5.8311883E4,9.486877E5,3E0,3.764E2,9.5150146E2,1.1015E3,1.424441E-4,7.3311865E2,4.3596E4,2.7075E1,2.3017242E2,1.7014287E3,2.6625E1,3.907E1,5.35E1,1.2539309E5,2.4617877E-4,1.5E0,1.9231584E5,2.8E-1,2.5E-1,-1.0243747E5,5E0,3.0178203E3,-3.4563062E4,9.474604E2,1.3949651E6,6.721535E4,1.8781797E4,1.75E2,3.5684824E-4,5.6563805E1,9.808878E2,-7.692703E3,-1.48990625E4,2.2762747E3,1.5048377E4,-6.08583E3,-2.5609088E4,1.0490441E4,2.4723289E3,1.6273565E4,4.7694723E4,-1.1455336E3,-3.108229E4,2.3584854E4,-6.923601E4,-3.6515914E4,2.1168234E4,7.164907E4,6.834378E3,9.851972E4,4.681006E4,5.0060416E2,1.8812506E5,7.659297E3,-2.1331531E4,5.5854516E4,-5.8325664E4,9.670514E4,-9.801594E3,5.9628125E3,5.2517188E4,3.0956734E5,1.655299E5],"split_indices":[2,2,0,5,5,5,0,2,7,9,2,0,1,5,2,7,6,8,6,5,1,2,6,0,9,6,5,2,6,6,2,2,2,0,8,1,0,4,4,0,1,0,0,6,5,0,0,0,8,0,0,0,0,0,0,0,0,0,0,0,0,0,0,0,0,0,0,0,0,0,0,0,0,0,0,0,0,0,0,0,0,0,0],"split_type":[0,0,0,0,0,0,0,0,0,0,0,0,0,0,0,0,0,0,0,0,0,0,0,0,0,0,0,0,0,0,0,0,0,0,0,0,0,0,0,0,0,0,0,0,0,0,0,0,0,0,0,0,0,0,0,0,0,0,0,0,0,0,0,0,0,0,0,0,0,0,0,0,0,0,0,0,0,0,0,0,0,0,0],"sum_hessian":[2.5672E4,2.5582E4,9E1,2.4872E4,7.1E2,8.7E1,3E0,2.1534E4,3.338E3,5.13E2,1.97E2,6.5E1,2.2E1,1.2585E4,8.949E3,2.766E3,5.72E2,4.95E2,1.8E1,1.93E2,4E0,2E0,6.3E1,6E0,1.6E1,1.2567E4,1.8E1,8.862E3,8.7E1,2.596E3,1.7E2,5.01E2,7.1E1,1E0,4.94E2,1.6E1,2E0,1.86E2,7E0,1E0,3E0,1E0,1E0,1E1,5.3E1,5E0,1E0,2E0,1.4E1,6.63E3,5.937E3,8E0,1E1,8.788E3,7.4E1,7.9E1,8E0,1.846E3,7.5E2,1.29E2,4.1E1,4.76E2,2.5E1,7E1,1E0,6E0,4.88E2,7E0,9E0,2.2E1,1.64E2,2E0,5E0,1E0,2E0,9E0,1E0,5.2E1,1E0,1E0,1E0,6E0,8E0],"tree_param":{"num_deleted":"0","num_feature":"10","num_nodes":"83","size_leaf_vector":"0"}},{"base_weights":[3.4326238E3,3.3434727E3,1.1460598E6,2.1325593E3,5.4026445E4,1.5534886E3,1.6144506E4,4.653562E4,1.9455117E5,1.6173752E3,-3.8909137E4,1.4079798E4,1.0278866E5,4.428941E4,2.914993E5,2.162752E5,4.267579E4,5.3655334E2,4.0923367E3,1.5786854E3,-1.9093594E5,3.5042368E3,2.2483049E4,1.8531605E5,-4.0880447E3,4.1043793E4,1.4082019E5,1.6346355E2,4.856684E5,1.6022523E5,2.528733E5,6.251717E4,-1.8344375E4,-1.0754068E4,6.7721826E2,6.137406E3,-5.369266E1,6.572969E4,-3.69908E4,-2.1454834E5,-8.006547E4,-2.4637959E4,5.5904966E3,-2.9202588E3,2.5592191E4,1.1183953E4,2.1595961E5,-3.7950562E4,3.0455646E4,2.8030188E4,6.208013E4,8.9234016E4,2.9906303E5,-8.698555E3,8.94425E3,1.7602783E5,-1.4702375E4,2.6127636E5,7.181625E4,7.437815E4,1.3466625E4],"categories":[],"categories_nodes":[],"categories_segments":[],"categories_sizes":[],"default_left":[1,1,0,1,1,1,1,1,1,1,1,1,1,1,1,1,1,1,1,1,1,1,1,1,1,1,1,1,0,1,1,1,0,0,0,0,0,0,0,0,0,0,0,0,0,0,0,0,0,0,0,0,0,0,0,0,0,0,0,0,0],"id":4,"left_children":[1,3,-1,5,7,9,11,13,15,17,19,21,23,25,27,29,31,33,35,37,39,41,43,45,47,49,51,53,-1,55,57,59,-1,-1,-1,-1,-1,-1,-1,-1,-1,-1,-1,-1,-1,-1,-1,-1,-1,-1,-1,-1,-1,-1,-1,-1,-1,-1,-1,-1,-1],"loss_changes":[2.6113857E12,1.5754445E12,0E0,2.0342299E11,6.214809E11,6.2310236E10,1.7655303E11,3.0072622E11,8.975037E10,6.4312644E10,2.3420051E11,8.63908E10,2.0362361E11,1.7154887E11,2.8276218E11,1.2817269E10,7.200505E9,2.6587302E10,6.196427E10,7.913383E10,3.7651743E9,2.5501274E10,4.2883285E10,6.6952856E10,1.4022915E10,1.4855327E11,1.2024958E11,3.1124877E8,0E0,3.852419E10,2.53585E9,1.325438E9,0E0,0E0,0E0,0E0,0E0,0E0,0E0,0E0,0E0,0E0,0E0,0E0,0E0,0E0,0E0,0E0,0E0,0E0,0E0,0E0,0E0,0E0,0E0,0E0,0E0,0E0,0E0,0E0,0E0],"parents":[2147483647,0,0,1,1,3,3,4,4,5,5,6,6,7,7,8,8,9,9,10,10,11,11,12,12,13,13,14,14,15,15,16,16,17,17,18,18,19,19,20,20,21,21,22,22,23,23,24,24,25,25,26,26,27,27,29,29,30,30,31,31],"right_children":[2,4,-1,6,8,10,12,14,16,18,20,22,24,26,28,30,32,34,36,38,40,42,44,46,48,50,52,54,-1,56,58,60,-1,-1,-1,-1,-1,-1,-1,-1,-1,-1,-1,-1,-1,-1,-1,-1,-1,-1,-1,-1,-1,-1,-1,-1,-1,-1,-1,-1,-1],"split_conditions":[5.184E3,2.4426427E5,5.730299E5,8.25E1,1.1635E3,5.9345E1,1.4058E3,2.2237305E6,4.3679947E-1,5.691E0,1.5028525E5,1.07990016E5,1.6098889E3,7.221102E-4,2.5E0,1.4525E3,2.5E0,2.0603416E-5,4.1068852E-4,1.5E0,5.5E0,1.1695747E-4,7.3919995E2,1.3900569E5,4.1785E1,1.52E2,8.5022875E4,8E1,2.428342E5,1.41E3,3.9009345E-1,2.35E3,-9.1721875E3,-5.377034E3,3.3860913E2,3.068703E3,-2.684633E1,3.2864844E4,-1.84954E4,-1.0727417E5,-4.0032734E4,-1.23189795E4,2.7952483E3,-1.4601294E3,1.2796096E4,5.5919766E3,1.07979805E5,-1.8975281E4,1.5227823E4,1.4015094E4,3.1040064E4,4.4617008E4,1.4953152E5,-4.3492773E3,4.472125E3,8.8013914E4,-7.3511875E3,1.3063818E5,3.5908125E4,3.7189074E4,6.7333125E3],"split_indices":[0,5,0,0,0,2,7,5,3,2,5,5,7,9,1,0,1,9,9,1,1,9,7,5,2,0,6,0,0,0,3,0,0,0,0,0,0,0,0,0,0,0,0,0,0,0,0,0,0,0,0,0,0,0,0,0,0,0,0,0,0],"split_type":[0,0,0,0,0,0,0,0,0,0,0,0,0,0,0,0,0,0,0,0,0,0,0,0,0,0,0,0,0,0,0,0,0,0,0,0,0,0,0,0,0,0,0,0,0,0,0,0,0,0,0,0,0,0,0,0,0,0,0,0,0],"sum_hessian":[2.5672E4,2.5671E4,1E0,2.5073E4,5.98E2,2.4079E4,9.94E2,5.69E2,2.9E1,2.4042E4,3.7E1,9.72E2,2.2E1,5.65E2,4E0,2.5E1,4E0,1.6735E4,7.307E3,3E1,7E0,4.31E2,5.41E2,1.2E1,1E1,5.48E2,1.7E1,2E0,2E0,1.2E1,1.3E1,3E0,1E0,2.05E2,1.653E4,4.893E3,2.414E3,1.1E1,1.9E1,5E0,2E0,2.9E1,4.02E2,5.9E1,4.82E2,2E0,1E1,5E0,5E0,3.4E2,2.08E2,1.4E1,3E0,1E0,1E0,1.1E1,1E0,1.2E1,1E0,2E0,1E0],"tree_param":{"num_deleted":"0","num_feature":"10","num_nodes":"61","size_leaf_vector":"0"}},{"base_weights":[1.7674884E3,1.7005936E3,8.5954475E5,1.3895579E3,6.9624766E4,9.7098553E2,1.6631396E4,5.8912336E4,1.5079239E5,9.4385394E2,9.7219195E4,-1.951445E4,2.1595582E4,6.646714E4,-2.9057426E4,1.0241297E5,3.6567225E5,1.184192E3,-7.4544053E3,1.2194734E5,-2.5574344E4,-1.1526805E4,-2.286757E5,6.8415E4,1.5985844E4,5.986519E4,2.0499597E5,7.4762095E3,-1.6066375E5,1.3438108E5,4.881214E3,7.4426575E2,8.406622E3,-6.799863E3,-1.183355E5,1.3394577E5,3.0977125E4,1.09156836E5,-1.7567941E4,2.0372377E4,1.4763714E5,2.0574746E4,-4.4935855E4,3.5938758E4,8.302695E4,-1.7485215E4,3.6809188E4,-6.523916E3,1.08578955E4],"categories":[],"categories_nodes":[],"categories_segments":[],"categories_sizes":[],"default_left":[1,1,0,1,1,1,1,1,1,1,1,1,1,1,1,1,0,1,1,1,0,1,0,1,1,1,0,1,0,0,1,0,0,0,0,0,0,0,0,0,0,0,0,0,0,0,0,0,0],"id":5,"left_children":[1,3,-1,5,7,9,11,13,15,17,19,21,23,25,27,29,-1,31,33,35,-1,37,-1,39,41,43,-1,45,-1,-1,47,-1,-1,-1,-1,-1,-1,-1,-1,-1,-1,-1,-1,-1,-1,-1,-1,-1,-1],"loss_changes":[1.4716754E12,5.4227154E11,0E0,1.630263E11,9.2848E10,6.486339E10,1.2297532E11,7.171388E10,9.769491E10,5.020292E10,2.437401E10,1.3603244E11,1.5675566E11,7.643998E10,4.4473823E10,3.675879E10,0E0,7.68122E10,4.941807E10,2.399576E9,0E0,6.0971954E10,0E0,2.405786E11,1.5132975E11,4.9108746E10,0E0,6.501179E9,0E0,0E0,3.4349968E8,0E0,0E0,0E0,0E0,0E0,0E0,0E0,0E0,0E0,0E0,0E0,0E0,0E0,0E0,0E0,0E0,0E0,0E0],"parents":[2147483647,0,0,1,1,3,3,4,4,5,5,6,6,7,7,8,8,9,9,10,10,11,11,12,12,13,13,14,14,15,15,17,17,18,18,19,19,21,21,23,23,24,24,25,25,27,27,30,30],"right_children":[2,4,-1,6,8,10,12,14,16,18,20,22,24,26,28,30,-1,32,34,36,-1,38,-1,40,42,44,-1,46,-1,-1,48,-1,-1,-1,-1,-1,-1,-1,-1,-1,-1,-1,-1,-1,-1,-1,-1,-1,-1],"split_conditions":[5.184E3,8.74176E5,4.2977238E5,1.9405084E5,2.214959E6,1.66E2,1.12296926E-4,1.6538848E6,3.2405E0,2.1569332E4,3.5E2,6.206E1,3.05E-1,1.4525E3,2.7612224E0,4.5009345E-1,1.8283612E5,7.178917E4,7.5943E1,2.52E2,-1.2787172E4,2E0,-1.1433785E5,9.0925E2,5.5E0,3.9162317E-1,1.02497984E5,1.828E3,-8.0331875E4,6.719054E4,8E1,3.7213287E2,4.203311E3,-3.3999314E3,-5.916775E4,6.697288E4,1.54885625E4,5.4578418E4,-8.783971E3,1.0186188E4,7.381857E4,1.0287373E4,-2.2467928E4,1.7969379E4,4.1513477E4,-8.742607E3,1.8404594E4,-3.261958E3,5.4289478E3],"split_indices":[0,5,0,5,5,2,8,5,3,6,0,2,4,0,3,3,0,5,2,2,0,0,0,7,1,3,0,0,0,0,0,0,0,0,0,0,0,0,0,0,0,0,0,0,0,0,0,0,0],"split_type":[0,0,0,0,0,0,0,0,0,0,0,0,0,0,0,0,0,0,0,0,0,0,0,0,0,0,0,0,0,0,0,0,0,0,0,0,0,0,0,0,0,0,0,0,0,0,0,0,0],"sum_hessian":[2.5672E4,2.5671E4,1E0,2.5555E4,1.16E2,2.4873E4,6.82E2,1.04E2,1.2E1,2.4867E4,6E0,8.2E1,6E2,9.6E1,8E0,1.1E1,1E0,2.4176E4,6.91E2,5E0,1E0,8E1,2E0,6.3E1,5.37E2,9.3E1,3E0,7E0,1E0,8E0,3E0,2.2789E4,1.387E3,6.88E2,3E0,4E0,1E0,3E0,7.7E1,4E1,2.3E1,5E2,3.7E1,4.7E1,4.6E1,4E0,3E0,1E0,2E0],"tree_param":{"num_deleted":"0","num_feature":"10","num_nodes":"49","size_leaf_vector":"0"}},{"base_weights":[9.1444727E2,8.6426013E2,6.446585E5,6.205158E2,3.0846525E4,6.7093475E2,-6.3561023E4,1.2002214E5,2.3254559E4,6.2593494E2,6.4208305E4,-3.7623207E4,-1.5790623E5,2.5023715E4,1.7451872E5,1.2810902E4,7.507247E4,6.7431537E2,-5.527966E4,8.138391E4,-1.1388794E5,-5.4492992E4,5.9266457E4,4.0764176E4,-3.470903E4,1.6412984E4,1.9026225E5,2.0935906E4,-7.399699E4,1.3292247E5,5.025066E4,6.5252466E2,1.8499514E5,-7.591931E4,1.89076E5,3.3198977E4,1.6418961E5,1.4960461E4,-6.052263E4,-1.4370312E2,8.172029E4,9.8458766E4,2.1975403E5,8.89593E4,8.352772E3,-1.3817433E5,6.91569E4,9.947E2,2.3826555E5,7.891596E4,1.9924875E4],"categories":[],"categories_nodes":[],"categories_segments":[],"categories_sizes":[],"default_left":[1,1,0,1,1,1,1,1,1,1,1,1,0,1,1,1,1,1,1,1,0,1,0,1,0,0,1,1,1,1,1,0,0,0,0,0,0,0,0,0,0,0,0,0,0,0,0,0,0,0,0],"id":6,"left_children":[1,3,-1,5,7,9,11,13,15,17,19,21,-1,23,25,27,29,31,33,35,-1,37,-1,39,-1,-1,41,43,45,47,49,-1,-1,-1,-1,-1,-1,-1,-1,-1,-1,-1,-1,-1,-1,-1,-1,-1,-1,-1,-1],"loss_changes":[8.2887665E11,1.8759202E11,0E0,8.24497E10,1.37351545E11,7.271699E10,4.3001045E10,7.846614E10,1.0294253E11,6.8818665E10,6.4328983E10,3.1016233E10,0E0,7.996438E9,2.1768438E10,1.1510477E11,3.92705E10,1.0193411E11,1.2530955E11,6.2378648E10,0E0,7.1871816E9,0E0,1.0064392E10,0E0,0E0,2.7300004E9,1.2593707E11,1.3817709E11,1.2484184E11,1.9290657E10,0E0,0E0,0E0,0E0,0E0,0E0,0E0,0E0,0E0,0E0,0E0,0E0,0E0,0E0,0E0,0E0,0E0,0E0,0E0,0E0],"parents":[2147483647,0,0,1,1,3,3,4,4,5,5,6,6,7,7,8,8,9,9,10,10,11,11,13,13,14,14,15,15,16,16,17,17,18,18,19,19,21,21,23,23,26,26,27,27,28,28,29,29,30,30],"right_children":[2,4,-1,6,8,10,12,14,16,18,20,22,-1,24,26,28,30,32,34,36,-1,38,-1,40,-1,-1,42,44,46,48,50,-1,-1,-1,-1,-1,-1,-1,-1,-1,-1,-1,-1,-1,-1,-1,-1,-1,-1,-1,-1],"split_conditions":[5.184E3,1.49762E2,3.2232925E5,1.4004999E2,1.60225E2,1.32168E2,4.2338525E5,2E0,1.2915385E6,1.21015E2,6.741E1,3.8627756E5,-7.895312E4,4.16E2,2.15665E5,4.5E0,2.6891852E-4,1.19117004E2,1.8434358E-3,1.28E3,-5.694397E4,2.76E2,2.9633229E4,2.5E2,-1.7354516E4,8.206492E3,1.5492401E2,9.57E2,6.57E2,1.4663345E-4,9.6155426E2,3.2626233E2,9.249757E4,-3.7959656E4,9.4538E4,1.6599488E4,8.2094805E4,7.4802305E3,-3.0261314E4,-7.185156E1,4.0860145E4,4.9229383E4,1.09877016E5,4.447965E4,4.176386E3,-6.9087164E4,3.457845E4,4.9735E2,1.1913277E5,3.945798E4,9.9624375E3],"split_indices":[0,2,0,2,2,2,5,1,5,2,3,5,0,0,5,1,8,2,9,7,0,0,0,0,0,0,2,7,0,9,6,0,0,0,0,0,0,0,0,0,0,0,0,0,0,0,0,0,0,0,0],"split_type":[0,0,0,0,0,0,0,0,0,0,0,0,0,0,0,0,0,0,0,0,0,0,0,0,0,0,0,0,0,0,0,0,0,0,0,0,0,0,0,0,0,0,0,0,0,0,0,0,0,0,0],"sum_hessian":[2.5672E4,2.5671E4,1E0,2.5465E4,2.06E2,2.5446E4,1.9E1,1.5E1,1.91E2,2.5429E4,1.7E1,1.6E1,3E0,6E0,9E0,1.6E2,3.1E1,2.5408E4,2.1E1,1.6E1,1E0,1.4E1,2E0,5E0,1E0,1E0,8E0,1.47E2,1.3E1,8E0,2.3E1,2.5406E4,2E0,2E1,1E0,1.1E1,5E0,1E0,1.3E1,3E0,2E0,3E0,5E0,2.2E1,1.25E2,9E0,4E0,4E0,4E0,1.1E1,1.2E1],"tree_param":{"num_deleted":"0","num_feature":"10","num_nodes":"51","size_leaf_vector":"0"}},{"base_weights":[4.8898212E2,4.513341E2,4.83494E5,3.3926804E2,2.8541424E4,3.511902E2,-1.5225469E5,4.012221E4,-2.7731207E4,3.0893695E2,3.888413E4,2.5430758E4,1.19533984E5,-1.130091E4,-1.0611538E5,-5.4382996E2,1.7715155E3,2.0341038E5,1.8404748E4,-6.4005676E4,3.1543111E4,1.288709E5,3.745E3,-6.0579945E4,1.0173681E4,-9.0298865E2,4.5911216E3,1.5968185E3,4.8509723E4,-2.9733244E4,4.563864E4,-8.154932E4,-2.5126469E4,1.0836004E5,2.1122473E4,9.064222E4,1.8266744E5,-8.343817E4,-1.752807E4,-9.683387E3,3.1644812E4],"categories":[],"categories_nodes":[],"categories_segments":[],"categories_sizes":[],"default_left":[1,1,0,1,1,1,0,1,1,1,1,1,1,1,0,1,1,0,1,1,1,1,0,1,1,0,0,0,0,0,0,0,0,0,0,0,0,0,0,0,0],"id":7,"left_children":[1,3,-1,5,7,9,-1,11,13,15,17,19,21,23,-1,25,27,-1,29,31,33,35,-1,37,39,-1,-1,-1,-1,-1,-1,-1,-1,-1,-1,-1,-1,-1,-1,-1,-1],"loss_changes":[4.6662386E11,8.080436E10,0E0,4.657335E10,6.7584156E10,4.161952E10,0E0,9.6127345E10,2.1982435E10,3.1859182E10,9.0599145E10,4.1925607E10,1.3571686E10,1.7548325E10,0E0,2.976316E10,7.673904E10,0E0,3.544261E10,1.3612626E9,5.2944257E10,8.1211884E9,0E0,3.457835E9,5.4226954E9,0E0,0E0,0E0,0E0,0E0,0E0,0E0,0E0,0E0,0E0,0E0,0E0,0E0,0E0,0E0,0E0],"parents":[2147483647,0,0,1,1,3,3,4,4,5,5,7,7,8,8,9,9,10,10,11,11,12,12,13,13,15,15,16,16,18,18,19,19,20,20,21,21,23,23,24,24],"right_children":[2,4,-1,6,8,10,-1,12,14,16,18,20,22,24,-1,26,28,-1,30,32,34,36,-1,38,40,-1,-1,-1,-1,-1,-1,-1,-1,-1,-1,-1,-1,-1,-1,-1,-1],"split_conditions":[5.184E3,9.228587E5,2.41747E5,9.129244E5,3.2551416E4,2.0001001E2,-7.612734E4,2.2912316E0,2.35E1,2.5E0,2.5742734E-4,1.05015E2,1.25E2,1.0504776E6,-5.305769E4,2.656E1,1.19117004E2,1.0170519E5,9.522439E2,1.055E2,3.1536E2,4.2E1,1.8725E3,7E0,3.574E2,-4.5149432E2,2.2955608E3,7.9840924E2,2.4254861E4,-1.4866622E4,2.281932E4,-4.077466E4,-1.2563234E4,5.418002E4,1.0561236E4,4.532111E4,9.133372E4,-4.1719086E4,-8.764035E3,-4.8416934E3,1.5822406E4],"split_indices":[0,5,0,5,6,2,0,3,0,1,9,2,0,5,0,2,2,0,6,0,2,0,0,0,2,0,0,0,0,0,0,0,0,0,0,0,0,0,0,0,0],"split_type":[0,0,0,0,0,0,0,0,0,0,0,0,0,0,0,0,0,0,0,0,0,0,0,0,0,0,0,0,0,0,0,0,0,0,0,0,0,0,0,0,0],"sum_hessian":[2.5672E4,2.5671E4,1E0,2.557E4,1.01E2,2.5569E4,1E0,8.4E1,1.7E1,2.5542E4,2.7E1,7.2E1,1.2E1,1.5E1,2E0,1.6135E4,9.407E3,2E0,2.5E1,4E0,6.8E1,1.1E1,1E0,4E0,1.1E1,1.5081E4,1.054E3,9.373E3,3.4E1,9E0,1.6E1,2E0,2E0,7E0,6.1E1,8E0,3E0,2E0,2E0,6E0,5E0],"tree_param":{"num_deleted":"0","num_feature":"10","num_nodes":"41","size_leaf_vector":"0"}},{"base_weights":[2.5849582E2,2.3025558E2,3.626205E5,2.0472601E2,5.060392E4,-9.650779E2,1.1182126E3,2.6650666E4,1.69021E5,-8.8179663E2,-2.688729E4,9.860841E2,3.5583426E4,8.0721336E4,7.7642993E3,-9.4219635E2,4.7518125E4,-8.854106E4,-6.109711E3,2.1925322E3,-1.6988975E3,7.7571694E5,7.5121016E3,1.5595917E4,-3.1863015E3,-7.0930414E2,-8.760583E3,2.2190492E5,1.7034072E4,-9.576215E4,-1.5385672E4,2.9401829E3,-1.2522892E5,-5.9248457E3,2.6011382E3,-1.8128835E3,1.25478125E5,-5.542521E3,7.340116E4,6.2181665E3,1.873E4,-5.387502E3,2.80875E3],"categories":[],"categories_nodes":[],"categories_segments":[],"categories_sizes":[],"default_left":[1,1,0,1,1,1,1,1,0,1,1,1,1,0,1,1,1,1,1,1,1,0,1,1,1,0,0,0,0,0,0,0,0,0,0,0,0,0,0,0,0,0,0],"id":8,"left_children":[1,3,-1,5,7,9,11,13,-1,15,17,19,21,-1,23,25,27,29,31,33,35,-1,37,39,41,-1,-1,-1,-1,-1,-1,-1,-1,-1,-1,-1,-1,-1,-1,-1,-1,-1,-1],"loss_changes":[2.6263285E11,3.3004253E10,0E0,2.7421364E10,3.2369453E10,2.4267467E10,6.5581154E10,1.1627549E10,0E0,3.2835836E10,4.5575524E10,4.6503748E10,1.1368809E12,0E0,9.073149E8,2.0394484E10,7.064404E10,3.2808796E9,3.0552773E10,3.2868397E10,6.4750887E10,0E0,4.6855365E10,5.985267E7,8.111627E7,0E0,0E0,0E0,0E0,0E0,0E0,0E0,0E0,0E0,0E0,0E0,0E0,0E0,0E0,0E0,0E0,0E0,0E0],"parents":[2147483647,0,0,1,1,3,3,4,4,5,5,6,6,7,7,9,9,10,10,11,11,12,12,14,14,15,15,16,16,17,17,18,18,19,19,20,20,22,22,23,23,24,24],"right_children":[2,4,-1,6,8,10,12,14,-1,16,18,20,22,-1,24,26,28,30,32,34,36,-1,38,40,42,-1,-1,-1,-1,-1,-1,-1,-1,-1,-1,-1,-1,-1,-1,-1,-1,-1,-1],"split_conditions":[5.184E3,2.214959E6,1.8131025E5,8.998491E2,3.2405E0,1.711076E5,1.15E1,2.462073E6,8.45105E4,1.4447311E5,1.9832433E5,4.111363E-4,9.17408E-2,4.0360668E4,3.9009345E-1,4.0368668E4,1.5E0,6.37E2,8.780487E2,4.329902E-5,3.7818E2,3.8785847E5,3.365E2,2.6525E3,1.4755001E0,-3.5465207E2,-4.3802915E3,1.1095246E5,8.517036E3,-4.7881074E4,-7.692836E3,1.4700914E3,-6.261446E4,-2.9624229E3,1.3005691E3,-9.064418E2,6.2739062E4,-2.7712605E3,3.670058E4,3.1090833E3,9.365E3,-2.693751E3,1.404375E3],"split_indices":[0,5,0,6,3,5,1,5,0,5,5,9,3,0,3,5,1,0,6,9,2,0,0,0,3,0,0,0,0,0,0,0,0,0,0,0,0,0,0,0,0,0,0],"split_type":[0,0,0,0,0,0,0,0,0,0,0,0,0,0,0,0,0,0,0,0,0,0,0,0,0,0,0,0,0,0,0,0,0,0,0,0,0,0,0,0,0,0,0],"sum_hessian":[2.5672E4,2.5671E4,1E0,2.5659E4,1.2E1,1.1251E4,1.4408E4,1.1E1,1E0,1.1216E4,3.5E1,1.4354E4,5.4E1,2E0,9E0,1.1203E4,1.3E1,8E0,2.7E1,9.904E3,4.45E3,1E0,5.3E1,5E0,4E0,1.088E4,3.23E2,1E0,1.2E1,7E0,1E0,2.6E1,1E0,4.74E2,9.43E3,4.447E3,3E0,4.5E1,8E0,2E0,3E0,3E0,1E0],"tree_param":{"num_deleted":"0","num_feature":"10","num_nodes":"43","size_leaf_vector":"0"}},{"base_weights":[1.6030548E2,1.3912398E2,2.719655E5,3.2428467E2,-4.8204863E3,2.6157767E2,1.9184418E4,-2.8157878E3,-1.1161136E5,1.8534276E2,1.5349669E4,1.2040541E4,8.3760086E4,-9.675886E3,4.63293E3,1.09935125E5,-1.3232902E5,2.236528E2,-6.2479207E4,1.1829708E5,4.2813535E3,1.923802E4,-5.0642977E4,-3.2744434E3,1.3663589E5,-5.344878E3,-3.4122637E4,1.1181039E5,-2.1584224E3,-1.6443638E5,5.1018594E3,1.8533926E2,2.558218E4,-1.2903143E4,-1.1729412E5,7.3477188E3,1.3975208E5,-4.8347734E4,1.5433497E4,1.2361587E4,6.294324E4,-7.428495E4,-8.429516E3,-3.054178E4,3.926328E4,-1.74965E4,1.7954338E5,-6.7480776E3,6.4781496E4,-2.4309697E4,-6.913689E4,1.30411164E5,5.3657133E4,2.9768578E4,-4.3033564E3,-3.444779E4,-1.9998806E5,-1.8363938E4,3.7750125E4],"categories":[],"categories_nodes":[],"categories_segments":[],"categories_sizes":[],"default_left":[1,1,0,1,1,1,1,1,1,1,1,1,1,1,1,0,1,1,1,1,1,1,1,1,1,1,1,1,1,1,1,0,0,0,0,0,0,0,0,0,0,0,0,0,0,0,0,0,0,0,0,0,0,0,0,0,0,0,0],"id":9,"left_children":[1,3,-1,5,7,9,11,13,15,17,19,21,23,25,27,-1,29,31,33,35,37,39,41,43,45,47,49,51,53,55,57,-1,-1,-1,-1,-1,-1,-1,-1,-1,-1,-1,-1,-1,-1,-1,-1,-1,-1,-1,-1,-1,-1,-1,-1,-1,-1,-1,-1],"loss_changes":[1.4776762E11,2.3576793E10,0E0,2.926467E10,1.9749878E11,2.8371243E10,3.681968E10,4.644267E10,9.257633E10,5.893866E10,1.4078575E11,3.4811486E10,3.726371E10,4.9898373E10,3.1759712E11,0E0,7.1439745E10,2.3828937E10,3.9249023E10,2.7538014E10,6.706891E10,1.96583E10,7.3578066E9,5.8387236E9,3.6208697E10,4.009282E10,2.2714294E10,2.1126382E10,2.82739E10,5.3187707E10,3.7577306E9,0E0,0E0,0E0,0E0,0E0,0E0,0E0,0E0,0E0,0E0,0E0,0E0,0E0,0E0,0E0,0E0,0E0,0E0,0E0,0E0,0E0,0E0,0E0,0E0,0E0,0E0,0E0,0E0],"parents":[2147483647,0,0,1,1,3,3,4,4,5,5,6,6,7,7,8,8,9,9,10,10,11,11,12,12,13,13,14,14,16,16,17,17,18,18,19,19,20,20,21,21,22,22,23,23,24,24,25,25,26,26,27,27,28,28,29,29,30,30],"right_children":[2,4,-1,6,8,10,12,14,16,18,20,22,24,26,28,-1,30,32,34,36,38,40,42,44,46,48,50,52,54,56,58,-1,-1,-1,-1,-1,-1,-1,-1,-1,-1,-1,-1,-1,-1,-1,-1,-1,-1,-1,-1,-1,-1,-1,-1,-1,-1,-1,-1],"split_conditions":[5.184E3,5.381E0,1.3598275E5,4.8146293E4,7.5E0,5.602555E5,8.945298E-4,2.72025E1,1.3293375E-4,4.919238E5,5.828E5,2.8685001E1,2.5E0,2.5E0,3.18625E1,5.4967562E4,1.24E1,4.14793E5,4.5171142E-1,6.32625E1,7.952845E5,1.762075E1,3.9913002E1,1.18555E2,2.8395E1,1.93944E5,2.3435653E5,2.825E1,1.8822025E-4,1.6603638E5,2.3E1,9.266963E1,1.279109E4,-6.4515713E3,-5.864706E4,3.6738594E3,6.987604E4,-2.4173867E4,7.7167485E3,6.1807935E3,3.147162E4,-3.7142477E4,-4.214758E3,-1.527089E4,1.963164E4,-8.74825E3,8.977169E4,-3.3740388E3,3.2390748E4,-1.2154849E4,-3.4568445E4,6.5205582E4,2.6828566E4,1.4884289E4,-2.1516782E3,-1.7223895E4,-9.999403E4,-9.181969E3,1.8875062E4],"split_indices":[0,4,0,6,0,5,9,3,9,5,5,3,1,0,4,0,3,5,3,2,5,3,3,2,2,5,5,4,8,5,0,0,0,0,0,0,0,0,0,0,0,0,0,0,0,0,0,0,0,0,0,0,0,0,0,0,0,0,0],"split_type":[0,0,0,0,0,0,0,0,0,0,0,0,0,0,0,0,0,0,0,0,0,0,0,0,0,0,0,0,0,0,0,0,0,0,0,0,0,0,0,0,0,0,0,0,0,0,0,0,0,0,0,0,0,0,0,0,0,0,0],"sum_hessian":[2.5672E4,2.5671E4,1E0,2.4748E4,9.23E2,2.4667E4,8.1E1,9.07E2,1.6E1,2.4544E4,1.23E2,7.4E1,7E0,4.72E2,4.35E2,1E0,1.5E1,2.453E4,1.4E1,1.1E1,1.12E2,6.7E1,7E0,3E0,4E0,4.02E2,7E1,2.5E1,4.1E2,1.2E1,3E0,2.4494E4,3.6E1,8E0,6E0,2E0,9E0,1.9E1,9.3E1,5.9E1,8E0,4E0,3E0,2E0,1E0,1E0,3E0,3.95E2,7E0,5.6E1,1.4E1,1.8E1,7E0,2.5E1,3.85E2,3E0,9E0,2E0,1E0],"tree_param":{"num_deleted":"0","num_feature":"10","num_nodes":"59","size_leaf_vector":"0"}},{"base_weights":[9.016512E1,7.4277824E1,2.03974E5,1.0315946E2,-2.1707184E4,-1.0945209E3,5.707948E2,-6.6736766E4,-1.64118E2,-9.123637E2,-3.8358598E4,4.574695E3,8.751817E1,-1.8449271E4,-7.541729E4,5.0819175E3,-6.041197E4,-5.228977E2,-1.195892E4,-5.201158E3,-7.740792E4,5.8245026E2,2.1390887E4,5.630162E1,2.3402258E4,-1.211364E3,4.744125E4,-7.090174E2,2.0777895E4,-9.0911455E3,-4.1978992E4,-3.624034E4,2.9461957E4,-1.4736125E4,-1.1353729E5,6.502193E1,3.619215E4,5.336843E3,2.9491992E4,1.3685878E2,-2.1568262E4,5.7810414E4,-4.865649E3,-2.7819885E4,3.0536848E3,4.365625E3,6.679575E4],"categories":[],"categories_nodes":[],"categories_segments":[],"categories_sizes":[],"default_left":[1,1,0,1,1,1,1,1,1,1,1,1,1,0,0,1,0,1,1,1,1,1,1,1,1,1,1,0,0,0,0,0,0,0,0,0,0,0,0,0,0,0,0,0,0,0,0],"id":10,"left_children":[1,3,-1,5,7,9,11,13,15,17,19,21,23,-1,-1,25,-1,27,29,31,33,35,37,39,41,43,45,-1,-1,-1,-1,-1,-1,-1,-1,-1,-1,-1,-1,-1,-1,-1,-1,-1,-1,-1,-1],"loss_changes":[8.314371E10,1.6152072E10,0E0,1.4360455E10,3.297154E10,4.8837976E10,3.5680834E10,3.219284E9,7.8925604E9,3.0823717E10,4.491445E10,1.3331634E11,1.1974703E10,0E0,0E0,6.1888364E9,0E0,2.7460927E10,2.0624462E10,2.2586012E10,3.455546E10,2.958891E10,4.939373E10,2.863118E10,2.1679563E10,2.4681974E9,2.209446E9,0E0,0E0,0E0,0E0,0E0,0E0,0E0,0E0,0E0,0E0,0E0,0E0,0E0,0E0,0E0,0E0,0E0,0E0,0E0,0E0],"parents":[2147483647,0,0,1,1,3,3,4,4,5,5,6,6,7,7,8,8,9,9,10,10,11,11,12,12,15,15,17,17,18,18,19,19,20,20,21,21,22,22,23,23,24,24,25,25,26,26],"right_children":[2,4,-1,6,8,10,12,14,16,18,20,22,24,-1,-1,26,-1,28,30,32,34,36,38,40,42,44,46,-1,-1,-1,-1,-1,-1,-1,-1,-1,-1,-1,-1,-1,-1,-1,-1,-1,-1,-1,-1],"split_conditions":[5.184E3,3.50896E5,1.01987E5,1.8474999E-1,8.0543175E5,3.0746712E5,1.7531784E-4,8.763E1,3.3274846E-4,4.3477793E3,8.77914E2,1.15E1,4.7145502E2,-9.224636E3,-3.7708645E4,1.5E0,-3.0205984E4,2.7282001E1,2.25E1,1.28535E2,5.6294484E-5,5.5E0,5.9525003E0,6.4370325E5,1.5487195E6,3.9E0,2.48675E2,-3.545087E2,1.0388947E4,-4.5455728E3,-2.0989496E4,-1.812017E4,1.4730979E4,-7.3680625E3,-5.6768645E4,3.2510963E1,1.8096074E4,2.6684214E3,1.4745996E4,6.842939E1,-1.0784131E4,2.8905207E4,-2.4328245E3,-1.3909942E4,1.5268424E3,2.1828125E3,3.3397875E4],"split_indices":[0,6,0,4,5,5,9,2,8,6,7,0,2,0,0,1,0,2,0,2,8,1,2,5,5,2,2,0,0,0,0,0,0,0,0,0,0,0,0,0,0,0,0,0,0,0,0],"split_type":[0,0,0,0,0,0,0,0,0,0,0,0,0,0,0,0,0,0,0,0,0,0,0,0,0,0,0,0,0,0,0,0,0,0,0,0,0,0,0,0,0,0,0,0,0,0,0],"sum_hessian":[2.5672E4,2.5671E4,1E0,2.5638E4,3.3E1,7.199E3,1.8439E4,1E1,2.3E1,7.165E3,3.4E1,1.985E3,1.6454E4,2E0,8E0,2.2E1,1E0,6.922E3,2.43E2,1.9E1,1.5E1,1.605E3,3.8E2,1.6433E4,2.1E1,2E1,2E0,6.863E3,5.9E1,2.23E2,2E1,1E1,9E0,6E0,9E0,1.583E3,2.2E1,1.28E2,2.52E2,1.6373E4,6E1,9E0,1.2E1,2E0,1.8E1,1E0,1E0],"tree_param":{"num_deleted":"0","num_feature":"10","num_nodes":"47","size_leaf_vector":"0"}},{"base_weights":[4.5717876E1,3.3801537E1,1.529805E5,-4.2793953E1,4.776822E3,1.751245E1,-3.7144918E4,4.4850727E4,-1.2026523E3,5.1531963E0,1.5588316E5,3.0198262E3,-4.550298E4,-3.6845242E4,5.412835E4,-1.6256307E4,4.41814E3,1.1612243E2,-7.8136313E3,-1.3658101E4,5.9883156E4,-1.8498646E4,-5.7613766E4,-5.285332E3,-4.2099957E4,7.212315E3,6.9566664E4,-1.775869E4,6.398575E4,1.078392E4,-1.1135628E4,8.212991E1,1.6658184E4,-4.121838E3,-6.907585E4,1.1108969E4,-1.9637607E4,-2.3225514E4,-3.2382852E3,-6.007931E4,-1.685375E3,4.5815555E4,-1.50351875E4,7.622708E4,-2.9106592E4,-2.7945208E3,-2.071658E4,8.066087E3,1.070125E5,-4.6587113E4,-2.3790327E3],"categories":[],"categories_nodes":[],"categories_segments":[],"categories_sizes":[],"default_left":[1,1,0,1,1,1,1,1,1,1,0,1,1,1,1,1,1,1,1,1,0,1,1,0,0,1,1,1,0,1,1,0,0,0,0,0,0,0,0,0,0,0,0,0,0,0,0,0,0,0,0],"id":11,"left_children":[1,3,-1,5,7,9,11,13,15,17,-1,19,21,23,25,27,29,31,33,35,-1,37,39,-1,-1,41,43,45,-1,47,49,-1,-1,-1,-1,-1,-1,-1,-1,-1,-1,-1,-1,-1,-1,-1,-1,-1,-1,-1,-1],"loss_changes":[4.6781735E10,9.32669E9,0E0,5.6531018E10,9.7819296E10,4.8592052E10,1.3901132E10,4.2165453E10,3.0194227E10,2.1886366E10,0E0,8.404836E9,1.0053632E10,7.724708E8,3.4264793E10,1.283003E10,2.5863172E10,1.3984298E10,7.9552315E10,1.2548261E9,0E0,7.90367E8,3.0702387E9,0E0,0E0,1.1853611E10,2.5878135E10,4.191271E9,0E0,4.7520367E10,2.3482126E10,0E0,0E0,0E0,0E0,0E0,0E0,0E0,0E0,0E0,0E0,0E0,0E0,0E0,0E0,0E0,0E0,0E0,0E0,0E0,0E0],"parents":[2147483647,0,0,1,1,3,3,4,4,5,5,6,6,7,7,8,8,9,9,11,11,12,12,13,13,14,14,15,15,16,16,17,17,18,18,19,19,21,21,22,22,25,25,26,26,27,27,29,29,30,30],"right_children":[2,4,-1,6,8,10,12,14,16,18,-1,20,22,24,26,28,30,32,34,36,-1,38,40,-1,-1,42,44,46,-1,48,50,-1,-1,-1,-1,-1,-1,-1,-1,-1,-1,-1,-1,-1,-1,-1,-1,-1,-1,-1,-1],"split_conditions":[5.184E3,8.552865E4,7.649025E4,6.7788484E4,1.228776E5,6.763892E4,2.05E0,1.04926875E5,1.53212E5,6.2588334E0,7.794158E4,1.85E0,2.8075E1,1.685E1,5.175E0,1.195E2,1.1533501E2,4.3050055E4,2.6668844E5,6.973139E4,2.9941578E4,2.5E0,1E1,-2.642666E3,-2.1049979E4,3.045E0,9.340967E1,1.307285E5,3.1992875E4,1.09635E2,1.6404001E2,4.1064957E1,8.329092E3,-2.060919E3,-3.4537926E4,5.5544844E3,-9.818804E3,-1.1612757E4,-1.6191426E3,-3.0039654E4,-8.426875E2,2.2907777E4,-7.5175938E3,3.811354E4,-1.4553296E4,-1.3972604E3,-1.035829E4,4.0330435E3,5.350625E4,-2.3293557E4,-1.1895164E3],"split_indices":[0,6,0,6,6,6,4,5,5,3,0,4,2,2,4,2,2,6,5,6,0,0,0,0,0,4,3,5,0,2,2,0,0,0,0,0,0,0,0,0,0,0,0,0,0,0,0,0,0,0,0],"split_type":[0,0,0,0,0,0,0,0,0,0,0,0,0,0,0,0,0,0,0,0,0,0,0,0,0,0,0,0,0,0,0,0,0,0,0,0,0,0,0,0,0,0,0,0,0,0,0,0,0,0,0],"sum_hessian":[2.5672E4,2.5671E4,1E0,2.5264E4,4.07E2,2.5224E4,4E1,5.2E1,3.55E2,2.5223E4,1E0,7E0,3.3E1,5E0,4.7E1,9.6E1,2.59E2,2.4871E4,3.52E2,6E0,1E0,1.1E1,2.2E1,1E0,4E0,1.2E1,3.5E1,9.5E1,1E0,1.84E2,7.5E1,2.4821E4,5E1,3.33E2,1.9E1,1E0,5E0,8E0,3E0,2.1E1,1E0,4E0,8E0,3.3E1,2E0,1.6E1,7.9E1,1.8E2,4E0,1.4E1,6.1E1],"tree_param":{"num_deleted":"0","num_feature":"10","num_nodes":"51","size_leaf_vector":"0"}},{"base_weights":[2.9726662E1,1.836476E1,9.724329E4,5.0005417E0,2.6394754E4,-1.4825095E4,2.6994907E1,9.341922E3,1.15513875E5,-9.286213E3,-3.164069E4,-4.2107385E2,7.8641876E2,4.4537918E4,-2.1509688E3,-1.1048795E4,2.0913838E4,-4.0156836E4,-1.2224515E3,-4.8066284E2,1.2863172E4,6.638745E2,2.7129473E4,5.43975E3,-1.0829838E4,-5.6150957E3,-1.942975E4,1.3817383E3,-3.2159155E3,-3.617636E2,-4.0941688E4,9.073076E4,4.4095767E3,1.0297331E4,3.5067258E2,5.8189806E5,6.953421E2,1.367875E3,9.055333E3],"categories":[],"categories_nodes":[],"categories_segments":[],"categories_sizes":[],"default_left":[1,1,0,1,1,1,1,1,0,1,1,1,1,0,1,1,0,0,1,1,1,1,1,1,0,0,0,0,0,0,0,0,0,0,0,0,0,0,0],"id":12,"left_children":[1,3,-1,5,7,9,11,13,-1,15,17,19,21,-1,23,25,-1,-1,27,29,31,33,35,37,-1,-1,-1,-1,-1,-1,-1,-1,-1,-1,-1,-1,-1,-1,-1],"loss_changes":[2.8354744E10,9.048864E9,0E0,8.3698E9,1.8677289E10,3.2454415E9,8.718836E9,4.949887E9,0E0,1.8279649E9,2.282285E9,1.2762718E10,3.0675603E10,0E0,7.177055E8,1.2115231E9,0E0,0E0,2.0019464E7,7.716937E10,4.699462E10,2.8554336E10,6.448471E11,7.593622E7,0E0,0E0,0E0,0E0,0E0,0E0,0E0,0E0,0E0,0E0,0E0,0E0,0E0,0E0,0E0],"parents":[2147483647,0,0,1,1,3,3,4,4,5,5,6,6,7,7,9,9,10,10,11,11,12,12,14,14,15,15,18,18,19,19,20,20,21,21,22,22,23,23],"right_children":[2,4,-1,6,8,10,12,14,-1,16,18,20,22,-1,24,26,-1,-1,28,30,32,34,36,38,-1,-1,-1,-1,-1,-1,-1,-1,-1,-1,-1,-1,-1,-1,-1],"split_conditions":[1.9641599E3,2.214959E6,4.8621645E4,6.4269548E-6,3.2405E0,2.25E1,1.1038474E3,2.462073E6,5.7756938E4,2.05E1,6.9E1,4.14793E5,1.15E1,2.2268959E4,3.9009345E-1,4.852E4,1.0456919E4,-2.0078418E4,1.19E2,2.892E5,5.02E2,1.1362842E3,9.17408E-2,3.804E3,-5.414919E3,-2.8075479E3,-9.714875E3,6.9086914E2,-1.6079578E3,-1.808818E2,-2.0470844E4,4.536538E4,2.2047883E3,5.1486655E3,1.7533629E2,2.9094903E5,3.4767105E2,6.839375E2,4.5276665E3],"split_indices":[2,5,0,9,3,0,6,5,0,0,0,5,1,0,3,5,0,0,0,5,0,6,3,0,0,0,0,0,0,0,0,0,0,0,0,0,0,0,0],"split_type":[0,0,0,0,0,0,0,0,0,0,0,0,0,0,0,0,0,0,0,0,0,0,0,0,0,0,0,0,0,0,0,0,0,0,0,0,0,0,0],"sum_hessian":[2.5672E4,2.567E4,2E0,2.5658E4,1.2E1,3.7E1,2.5621E4,1.1E1,1E0,2.9E1,8E0,1.6114E4,9.507E3,2E0,9E0,2.8E1,1E0,6E0,2E0,1.6043E4,7.1E1,9.464E3,4.3E1,5E0,4E0,1.8E1,1E1,1E0,1E0,1.5997E4,4.6E1,6E0,6.5E1,2.97E2,9.167E3,1E0,4.2E1,3E0,2E0],"tree_param":{"num_deleted":"0","num_feature":"10","num_nodes":"39","size_leaf_vector":"0"}},{"base_weights":[3.157054E1,2.452711E1,9.042475E4,-6.064551E1,4.1202593E3,-1.5928995E1,-1.8154693E4,1.7252034E3,5.8583746E4,-2.3380697E1,6.2302668E4,-7.061219E3,-8.269824E4,4.3921963E3,-2.8369309E4,9.283878E4,-2.8082451E4,2.6045418E1,-1.0307121E4,6.818125E3,8.6635375E4,-1.821159E4,4.3821473E4,-3.285106E4,-1.367942E5,2.1842354E3,2.828405E4,2.2318615E4,-5.2700117E4,4.118894E4,1.19709695E5,-8.820069E4,-3.3624636E3,-6.849372E0,3.7326105E4,-1.9840425E3,-5.1823266E4,-2.5931824E4,5.179953E3,7.594768E3,5.192868E4,-4.485165E4,-5.8995825E3,-1.6378642E5,-2.7908281E4,3.1610938E3,-1.3595495E5,9.79053E4,-6.2848105E3,4.5978125E2,5.1386934E4,3.2565094E4,-6.0511523E4,8.8524984E4,1.8545271E4,-1.4919602E4,1.3167542E4],"categories":[],"categories_nodes":[],"categories_segments":[],"categories_sizes":[],"default_left":[1,1,0,1,1,1,1,1,1,1,1,1,1,1,1,1,1,1,1,0,0,1,1,1,1,1,1,1,1,1,0,0,1,0,0,0,0,0,0,0,0,0,0,0,0,0,0,0,0,0,0,0,0,0,0,0,0],"id":13,"left_children":[1,3,-1,5,7,9,11,13,15,17,19,21,23,25,27,29,31,33,35,-1,-1,37,39,41,43,45,47,49,51,53,-1,-1,55,-1,-1,-1,-1,-1,-1,-1,-1,-1,-1,-1,-1,-1,-1,-1,-1,-1,-1,-1,-1,-1,-1,-1,-1],"loss_changes":[1.6343126E10,8.955783E9,0E0,2.0348627E10,6.81206E10,1.1652215E10,4.3808715E10,4.0416035E10,6.79198E10,1.2751632E10,3.4594836E9,3.1435522E10,1.977478E10,2.4309748E10,5.174063E10,1.7275175E10,1.0106192E10,3.063547E10,4.1362182E10,0E0,0E0,8.260815E9,2.5425265E9,1.6759455E9,7.1850967E9,5.764523E10,9.447776E10,8.871914E9,2.061973E10,5.861206E9,0E0,0E0,1.3426936E9,0E0,0E0,0E0,0E0,0E0,0E0,0E0,0E0,0E0,0E0,0E0,0E0,0E0,0E0,0E0,0E0,0E0,0E0,0E0,0E0,0E0,0E0,0E0,0E0],"parents":[2147483647,0,0,1,1,3,3,4,4,5,5,6,6,7,7,8,8,9,9,10,10,11,11,12,12,13,13,14,14,15,15,16,16,17,17,18,18,21,21,22,22,23,23,24,24,25,25,26,26,27,27,28,28,29,29,32,32],"right_children":[2,4,-1,6,8,10,12,14,16,18,20,22,24,26,28,30,32,34,36,-1,-1,38,40,42,44,46,48,50,52,54,-1,-1,56,-1,-1,-1,-1,-1,-1,-1,-1,-1,-1,-1,-1,-1,-1,-1,-1,-1,-1,-1,-1,-1,-1,-1,-1],"split_conditions":[5.184E3,1.525E2,4.5212375E4,1.495E2,1.9104932E3,4.14945E2,1.9891389E3,4.222138E-1,5.747175E5,4.01214E5,6.5E1,4.5E0,4.5E0,1.2103445E3,9.84E2,7.992E1,2.5E0,3.4983138E5,3.125203E-4,3.4090625E3,4.3317688E4,1.7615625E5,2.65E-1,4.683E5,6.5E0,1.2016565E3,3.4197778E5,8.442883E2,2.651353E-4,4.5925003E1,5.9854848E4,-4.4100344E4,9.6185E1,-3.424686E0,1.8663053E4,-9.9202124E2,-2.5911633E4,-1.2965912E4,2.5899766E3,3.797384E3,2.596434E4,-2.2425824E4,-2.9497913E3,-8.189321E4,-1.3954141E4,1.5805469E3,-6.797748E4,4.895265E4,-3.1424053E3,2.2989062E2,2.5693467E4,1.6282547E4,-3.0255762E4,4.4262492E4,9.272636E3,-7.459801E3,6.583771E3],"split_indices":[0,0,0,0,6,2,7,3,5,5,0,1,1,6,6,2,1,5,9,0,0,5,4,5,1,6,5,6,8,2,0,0,2,0,0,0,0,0,0,0,0,0,0,0,0,0,0,0,0,0,0,0,0,0,0,0,0],"split_type":[0,0,0,0,0,0,0,0,0,0,0,0,0,0,0,0,0,0,0,0,0,0,0,0,0,0,0,0,0,0,0,0,0,0,0,0,0,0,0,0,0,0,0,0,0,0,0,0,0,0,0,0,0,0,0,0,0],"sum_hessian":[2.5672E4,2.5671E4,1E0,2.5149E4,5.22E2,2.5088E4,6.1E1,5.01E2,2.1E1,2.5086E4,2E0,5.3E1,8E0,4.61E2,4E1,1.5E1,6E0,2.4967E4,1.19E2,1E0,1E0,4.4E1,9E0,5E0,3E0,4.23E2,3.8E1,1.3E1,2.7E1,6E0,9E0,1E0,5E0,2.4946E4,2.1E1,1E2,1.9E1,3.3E1,1.1E1,2E0,7E0,3E0,2E0,2E0,1E0,4.21E2,2E0,1.2E1,2.6E1,8E0,5E0,2E0,2.5E1,1E0,5E0,3E0,2E0],"tree_param":{"num_deleted":"0","num_feature":"10","num_nodes":"57","size_leaf_vector":"0"}},{"base_weights":[1.7406868E1,-2.4597876E0,1.821326E4,-1.0934387E1,3.1038996E4,4.4593473E4,5.43145E3,-1.9711235E2,1.3169375E3,4.7021906E4,-5.9451875E3,-1.4187781E4,5.3714727E4,-3.0253334E4,1.1077223E4,-3.0711636E2,5.0020605E3,1.9269105E3,-2.2754768E4,5.213282E4,1.3288625E4,6.502002E4,1.31988955E4,3.6428688E4,-1.4754712E3,-1.20712364E2,-5.5650806E3,1.8249068E4,-1.4060231E3,1.490989E3,3.5834645E4,-4.2461613E4,1.39524795E4,2.7917834E4,7.659141E4,4.29725E4,1.8543125E3,-2.10217E4,9.547375E3,-2.273563E2,1.3117013E4,4.54864E3,-9.174912E3,1.0934099E4,7.9742875E4,-1.2311475E5,-2.3499051E2,2.285166E3,-8.692078E3,9.6667195E4,8.483708E3,-8.354442E4,-5.731257E3,2.7534314E4,-5.4030625E4,2.7166625E4,3.9490156E3],"categories":[],"categories_nodes":[],"categories_segments":[],"categories_sizes":[],"default_left":[1,1,1,1,1,1,1,1,1,1,0,0,1,0,1,1,1,1,1,0,0,1,0,1,1,1,1,1,1,1,1,1,1,0,0,0,0,0,1,0,0,0,0,0,0,0,0,0,0,0,0,0,0,0,0,0,0],"id":14,"left_children":[1,3,5,7,9,11,13,15,17,19,-1,-1,21,-1,23,25,27,29,31,-1,-1,33,-1,35,37,39,41,43,45,47,49,51,53,-1,-1,-1,-1,-1,55,-1,-1,-1,-1,-1,-1,-1,-1,-1,-1,-1,-1,-1,-1,-1,-1,-1,-1],"loss_changes":[9.280614E9,6.7468447E9,9.198976E9,6.338992E9,4.4174003E9,5.5875584E9,4.3644667E9,1.2863092E10,4.633961E10,1.6920064E8,0E0,0E0,2.8060774E9,0E0,5.7819095E9,2.1584191E10,3.9583453E10,4.541323E10,5.701643E10,0E0,0E0,4.375716E8,0E0,1.27776E9,3.0016292E9,3.0030316E10,2.7569396E10,6.750145E10,4.4866286E10,2.458864E10,6.406907E10,7.64794E10,2.7341056E10,0E0,0E0,0E0,0E0,0E0,7.804375E8,0E0,0E0,0E0,0E0,0E0,0E0,0E0,0E0,0E0,0E0,0E0,0E0,0E0,0E0,0E0,0E0,0E0,0E0],"parents":[2147483647,0,0,1,1,2,2,3,3,4,4,5,5,6,6,7,7,8,8,9,9,12,12,14,14,15,15,16,16,17,17,18,18,21,21,23,23,24,24,25,25,26,26,27,27,28,28,29,29,30,30,31,31,32,32,38,38],"right_children":[2,4,6,8,10,12,14,16,18,20,-1,-1,22,-1,24,26,28,30,32,-1,-1,34,-1,36,38,40,42,44,46,48,50,52,54,-1,-1,-1,-1,-1,56,-1,-1,-1,-1,-1,-1,-1,-1,-1,-1,-1,-1,-1,-1,-1,-1,-1,-1],"split_conditions":[1.17E3,2.0005445E6,9.594313E2,4.5E0,3.0821015E6,1.5E0,4.7145502E2,2.4426427E5,3.2297528E5,2.015E2,-2.9725938E3,-7.0938906E3,6E0,-1.5126667E4,5.9546E2,1.307587E5,2.3009669E-4,3.5900397E0,4.751333E0,2.606641E4,6.6443125E3,4.5631E2,6.5994478E3,4E0,2.214959E6,1.1204725E5,3.851356E-1,2.028236E-4,3.164844E-1,3.1297065E3,1.2390449E3,4.8015738E5,2.669159E-4,1.3958917E4,3.8295703E4,2.148625E4,9.2715625E2,-1.051085E4,2.353199E6,-1.1367815E2,6.5585063E3,2.27432E3,-4.587456E3,5.4670493E3,3.9871438E4,-6.1557375E4,-1.17495255E2,1.142583E3,-4.346039E3,4.8333598E4,4.241854E3,-4.177221E4,-2.8656284E3,1.3767157E4,-2.7015312E4,1.35833125E4,1.9745078E3],"split_indices":[0,5,6,1,5,1,2,5,5,0,0,0,1,0,2,5,8,3,3,0,0,2,0,1,5,5,3,8,3,6,7,5,8,0,0,0,0,0,5,0,0,0,0,0,0,0,0,0,0,0,0,0,0,0,0,0,0],"split_type":[0,0,0,0,0,0,0,0,0,0,0,0,0,0,0,0,0,0,0,0,0,0,0,0,0,0,0,0,0,0,0,0,0,0,0,0,0,0,0,0,0,0,0,0,0,0,0,0,0,0,0,0,0,0,0,0,0],"sum_hessian":[2.5672E4,2.5645E4,2.7E1,2.5639E4,6E0,8E0,1.9E1,2.2487E4,3.152E3,4E0,2E0,1E0,7E0,2E0,1.7E1,2.2022E4,4.65E2,3.075E3,7.7E1,3E0,1E0,5E0,2E0,5E0,1.2E1,2.1269E4,7.53E2,1.51E2,3.14E2,3.037E3,3.8E1,5E1,2.7E1,2E0,3E0,4E0,1E0,4E0,8E0,2.11E4,1.69E2,1.98E2,5.55E2,1.36E2,1.5E1,2E0,3.12E2,2.818E3,2.19E2,1.1E1,2.7E1,2.3E1,2.7E1,2.3E1,4E0,1E0,7E0],"tree_param":{"num_deleted":"0","num_feature":"10","num_nodes":"57","size_leaf_vector":"0"}},{"base_weights":[1.1551693E1,-6.3101776E1,3.9889968E3,-2.0548134E0,-8.455029E3,-2.4499188E4,5.904892E3,-5.8531372E1,1.5301263E4,-1.25713E5,-6.4537524E3,-3.410744E4,3.036337E4,5.2716113E4,3.6881147E3,-3.8317276E1,-1.6799764E5,6.950945E3,1.1570485E5,-3.9708203E4,-1.488608E5,-9.817299E3,4.6114945E4,-3.9040113E4,2.7820234E3,4.153878E4,-7.1686406E3,-2.196169E4,7.2758234E4,-7.71346E3,7.500909E3,-7.982627E1,1.4494451E4,1.3850098E5,3.773862E3,1.6738166E5,3.510157E4,-6.5298594E3,-7.557159E4,1.02949586E5,1.1933133E4,-2.8941625E4,-9.671581E4,-2.9346355E3,9.9665E3,4.8323633E2,-2.769398E4,1.19673266E5,-4.657134E3,3.4340427E3,-2.6471402E4,1.1927438E5,6.4194507E3,-5.5986614E1,-4.943311E4,4.711015E4,6.371775E3,8.298093E3,-2.7416154E4,4.5696105E4,1.6584844E3,8.401217E3,-2.2125879E4,-7.4795938E3,-9.7022164E4,3.298886E4,-7.297875E3,-4.7832535E4,-3.378271E3,6.763125E2,-5.0787656E3,1.9050548E5,4.0700707E4,-3.651303E4,2.8362797E4,-5.0002045E2,1.3350864E5,-3.4938613E4,5.8467906E4,1.6449062E5,1.4420453E4,2.0818662E4,-6.0828986E2],"categories":[],"categories_nodes":[],"categories_segments":[],"categories_sizes":[],"default_left":[1,1,1,1,1,1,1,1,1,1,1,1,1,1,1,1,0,1,1,0,0,1,1,1,1,0,0,1,1,1,1,1,1,0,1,0,1,1,1,0,1,1,0,1,0,0,0,1,1,1,1,1,1,0,0,0,0,0,0,0,0,0,0,0,0,0,0,0,0,0,0,0,0,0,0,0,0,0,0,0,0,0,0],"id":15,"left_children":[1,3,5,7,9,11,13,15,17,19,21,23,25,27,29,31,-1,33,35,-1,-1,37,39,41,43,-1,-1,45,47,49,51,53,55,-1,57,-1,59,61,63,-1,65,67,-1,69,-1,-1,-1,71,73,75,77,79,81,-1,-1,-1,-1,-1,-1,-1,-1,-1,-1,-1,-1,-1,-1,-1,-1,-1,-1,-1,-1,-1,-1,-1,-1,-1,-1,-1,-1,-1,-1],"loss_changes":[7.6233416E9,1.291049E10,2.5961169E10,2.1625135E10,4.1897714E10,1.6849617E10,4.5879427E10,8.462082E10,7.63286E10,6.127616E7,3.2279796E10,4.8397005E9,2.3949896E9,3.1531966E10,1.8533399E10,1.5038123E10,0E0,3.542047E10,2.328168E10,0E0,0E0,3.625421E10,2.0141193E10,1.0596819E10,1.9353987E8,0E0,0E0,6.56714E8,5.866855E10,2.246508E10,3.77944E10,2.9243075E10,1.850957E10,0E0,1.2221903E10,0E0,1.3414221E9,3.8142947E10,1.0959106E10,0E0,3.4801567E9,9.979572E9,0E0,2.666626E7,0E0,0E0,0E0,4.8184082E10,8.3987763E9,3.486397E10,3.0810726E10,1.1851096E10,3.2091159E10,0E0,0E0,0E0,0E0,0E0,0E0,0E0,0E0,0E0,0E0,0E0,0E0,0E0,0E0,0E0,0E0,0E0,0E0,0E0,0E0,0E0,0E0,0E0,0E0,0E0,0E0,0E0,0E0,0E0,0E0],"parents":[2147483647,0,0,1,1,2,2,3,3,4,4,5,5,6,6,7,7,8,8,9,9,10,10,11,11,12,12,13,13,14,14,15,15,17,17,18,18,21,21,22,22,23,23,24,24,27,27,28,28,29,29,30,30,31,31,32,32,34,34,36,36,37,37,38,38,40,40,41,41,43,43,47,47,48,48,49,49,50,50,51,51,52,52],"right_children":[2,4,6,8,10,12,14,16,18,20,22,24,26,28,30,32,-1,34,36,-1,-1,38,40,42,44,-1,-1,46,48,50,52,54,56,-1,58,-1,60,62,64,-1,66,68,-1,70,-1,-1,-1,72,74,76,78,80,82,-1,-1,-1,-1,-1,-1,-1,-1,-1,-1,-1,-1,-1,-1,-1,-1,-1,-1,-1,-1,-1,-1,-1,-1,-1,-1,-1,-1,-1,-1],"split_conditions":[1.605E2,3.2375212E5,1.219189E-4,2.915292E5,3.241969E5,5.5E2,1.553288E-4,2.8937812E5,4.0971625E-4,8.15E1,3.8855447E-4,6.5E0,6.69E2,1.125E-1,3.0897295E-1,5.425E1,-8.399882E4,2.9384538E5,7.014E0,-1.9854102E4,-7.44304E4,2.8239994E-4,4.0889974E-4,6.206E1,2.55E2,2.076939E4,-3.5843203E3,6.72E0,1.233E3,5.9205E1,3.1094593E-1,2.7930375E5,1.82223E5,6.925049E4,3.5E0,8.369083E4,1.5735501E2,2.5E0,1.3692E2,5.1474793E4,4.72224E5,1.1166869E-4,-4.8357906E4,2.035E2,4.98325E3,2.4161816E2,-1.384699E4,8E0,2.0414618E3,5.6988503E1,6.287629E5,2.08E2,3.949478E-4,-2.7993307E1,-2.4716555E4,2.3555074E4,3.1858875E3,4.1490464E3,-1.3708077E4,2.2848053E4,8.292422E2,4.2006084E3,-1.1062939E4,-3.7397969E3,-4.8511082E4,1.649443E4,-3.6489375E3,-2.3916268E4,-1.6891355E3,3.3815625E2,-2.5393828E3,9.525274E4,2.0350354E4,-1.8256516E4,1.4181398E4,-2.5001022E2,6.675432E4,-1.7469307E4,2.9233953E4,8.224531E4,7.2102266E3,1.0409331E4,-3.0414493E2],"split_indices":[0,5,9,5,5,0,9,5,9,0,8,1,0,3,3,3,0,5,3,0,0,8,8,2,0,0,0,2,6,2,3,5,5,0,0,0,2,1,2,0,5,8,0,0,0,0,0,1,6,2,5,0,9,0,0,0,0,0,0,0,0,0,0,0,0,0,0,0,0,0,0,0,0,0,0,0,0,0,0,0,0,0,0],"split_type":[0,0,0,0,0,0,0,0,0,0,0,0,0,0,0,0,0,0,0,0,0,0,0,0,0,0,0,0,0,0,0,0,0,0,0,0,0,0,0,0,0,0,0,0,0,0,0,0,0,0,0,0,0,0,0,0,0,0,0,0,0,0,0,0,0,0,0,0,0,0,0,0,0,0,0,0,0,0,0,0,0,0,0],"sum_hessian":[2.5672E4,2.52E4,4.72E2,2.5019E4,1.81E2,2.9E1,4.43E2,2.4928E4,9.1E1,2E0,1.79E2,2.5E1,4E0,1.9E1,4.24E2,2.4926E4,2E0,8.5E1,6E0,1E0,1E0,1.69E2,1E1,2.2E1,3E0,3E0,1E0,4E0,1.5E1,1.06E2,3.18E2,2.4856E4,7E1,1E0,8.4E1,3E0,3E0,1.62E2,7E0,3E0,7E0,2E1,2E0,2E0,1E0,1E0,3E0,9E0,6E0,6.7E1,3.9E1,2E0,3.16E2,2.4845E4,1.1E1,1.3E1,5.7E1,7.4E1,1E1,2E0,1E0,8.3E1,7.9E1,2E0,5E0,3E0,4E0,1.1E1,9E0,1E0,1E0,4E0,5E0,3E0,3E0,6.6E1,1E0,3.6E1,3E0,1E0,1E0,1.03E2,2.13E2],"tree_param":{"num_deleted":"0","num_feature":"10","num_nodes":"83","size_leaf_vector":"0"}},{"base_weights":[1.4257062E1,1.3488068E3,-1.7964229E2,1.0094554E3,7.002552E4,-1.0298981E4,-1.0551814E2,-2.2182416E2,1.5073314E4,4.35868E5,1.6578094E4,-3.4342676E3,-6.5407223E4,1.03346344E2,-3.0826602E3,4.4716058E2,-1.2680212E4,5.323016E3,3.7468633E4,2.044367E3,3.8037793E4,2.8564456E3,-1.1317425E4,-7.185273E4,2.2082703E4,-4.307659E1,4.649068E3,-1.6790398E3,-2.4931336E4,3.2074567E2,5.9913895E4,-1.9336818E4,1.5034517E4,-1.498013E3,1.2388068E4,4.341878E4,-1.3634497E4,1.3953143E4,-1.9306832E4,8.4281625E4,-6.1542812E3,-1.2050746E3,8.344946E3,2.0664656E3,-1.6100624E4,-8.0408914E4,-3.523591E4,-1.9120004E2,3.5869385E3,3.3410908E3,2.4479469E4,-2.0013602E3,4.242105E4,-2.999413E4,2.2841322E4,6.8362994E2,-1.9437814E4,-1.1447237E4,-3.6683297E4,7.067274E4,3.7565698E3,4.814098E3,-2.854537E3,1.4751001E4,4.413913E3,4.9947098E4,1.3271485E4,4.3121807E3,-2.8854475E4,-5.6641465E3,2.2933088E4,-2.538375E4,8.716458E3,3.2195825E3,-1.7944668E3,-5.877037E3,9.861945E3,-3.9465298E3,2.4098832E4,-3.09971E4,-8.390163E3,-6.236485E4,-1.19767164E5,-1.15700625E4,-4.715612E4,-1.5898268E2,-3.6839445E4,1.8807482E3,5.3650312E4,5.2852554E3,-6.9954106E3,1.1397039E4,5.793333E4,-4.0177178E3,2.4431086E3,5.9235E4,-5.4451742E4,-1.0661422E4,-5.4545832E4,5.7532896E3,5.5099293E4],"categories":[],"categories_nodes":[],"categories_segments":[],"categories_sizes":[],"default_left":[1,1,1,1,1,1,1,1,1,0,1,1,1,1,1,1,1,1,1,1,1,1,1,1,0,1,1,1,1,1,0,1,1,1,1,1,1,1,0,0,1,1,1,1,1,1,1,1,1,1,1,1,1,1,1,0,0,0,0,0,0,0,0,0,0,0,0,0,0,0,0,0,0,0,0,0,0,0,0,0,0,0,0,0,0,0,0,0,0,0,0,0,0,0,0,0,0,0,0,0,0],"id":16,"left_children":[1,3,5,7,9,11,13,15,17,-1,19,21,23,25,27,29,31,33,35,37,39,41,43,45,-1,47,49,51,53,55,-1,57,59,61,63,65,67,69,-1,-1,71,73,75,77,79,81,83,85,87,89,91,93,95,97,99,-1,-1,-1,-1,-1,-1,-1,-1,-1,-1,-1,-1,-1,-1,-1,-1,-1,-1,-1,-1,-1,-1,-1,-1,-1,-1,-1,-1,-1,-1,-1,-1,-1,-1,-1,-1,-1,-1,-1,-1,-1,-1,-1,-1,-1,-1],"loss_changes":[6.643603E9,7.583539E10,1.6813615E10,5.614358E10,3.0562714E11,6.143858E10,1.3838908E10,2.4859077E10,5.679275E10,0E0,4.600538E9,7.272575E9,1.1737252E10,1.3842644E10,4.4701626E10,2.1262717E10,2.8332603E10,8.837508E9,2.461365E10,2.8120522E9,1.2780436E10,1.8379789E9,4.1944438E9,2.492711E9,0E0,1.0834605E10,1.675176E10,1.9586966E10,2.1969068E10,2.027589E10,0E0,1.6413372E10,1.8558988E10,8.186179E8,1.6306862E9,1.3310648E10,2.5827825E9,1.3630487E9,0E0,0E0,1.3650989E9,1.3095323E8,8.1307904E8,2.479776E9,5.2531067E9,1.7629348E9,8.64852E8,2.2852639E10,6.737898E10,1.2295446E10,1.6845971E10,1.222453E10,1.9513596E10,3.7390467E10,4.6439644E9,0E0,0E0,0E0,0E0,0E0,0E0,0E0,0E0,0E0,0E0,0E0,0E0,0E0,0E0,0E0,0E0,0E0,0E0,0E0,0E0,0E0,0E0,0E0,0E0,0E0,0E0,0E0,0E0,0E0,0E0,0E0,0E0,0E0,0E0,0E0,0E0,0E0,0E0,0E0,0E0,0E0,0E0,0E0,0E0,0E0,0E0],"parents":[2147483647,0,0,1,1,2,2,3,3,4,4,5,5,6,6,7,7,8,8,10,10,11,11,12,12,13,13,14,14,15,15,16,16,17,17,18,18,19,19,20,20,21,21,22,22,23,23,25,25,26,26,27,27,28,28,29,29,31,31,32,32,33,33,34,34,35,35,36,36,37,37,40,40,41,41,42,42,43,43,44,44,45,45,46,46,47,47,48,48,49,49,50,50,51,51,52,52,53,53,54,54],"right_children":[2,4,6,8,10,12,14,16,18,-1,20,22,24,26,28,30,32,34,36,38,40,42,44,46,-1,48,50,52,54,56,-1,58,60,62,64,66,68,70,-1,-1,72,74,76,78,80,82,84,86,88,90,92,94,96,98,100,-1,-1,-1,-1,-1,-1,-1,-1,-1,-1,-1,-1,-1,-1,-1,-1,-1,-1,-1,-1,-1,-1,-1,-1,-1,-1,-1,-1,-1,-1,-1,-1,-1,-1,-1,-1,-1,-1,-1,-1,-1,-1,-1,-1,-1,-1],"split_conditions":[1.4797658E-4,1.15E1,1.5068558E-4,1.4392695E-4,8.0888934E-2,1.5512E1,7.441457E3,5.05E1,6.5585003E0,2.17934E5,5.6095E5,9.5E0,4.010171E-1,2.0463603E0,7.5E0,2.644E1,1.225609E-4,2.777E0,1.8147453E-4,1.35E1,8.88E1,1.5055001E0,2.1106061E-1,1.425E2,1.1041352E4,1.135E2,5.5E0,1.2125534E-3,9.6081575E5,2.94912E5,2.9956947E4,7.5E-2,1.237571E-4,1.4401154E-4,1.457393E-4,3.5E0,9.6845E0,6.13E2,-9.653416E3,4.2140812E4,1.35E1,3.3E-1,3.053889E-1,1.4825E-1,3.1318182E-1,3.5E0,4.5E0,1.8612722E5,1.182875E3,1.8220001E1,3.1854763E0,1.2981667E1,2E0,1.5380347E5,3.497E0,3.4181497E2,-9.718907E3,-5.7236187E3,-1.8341648E4,3.533637E4,1.8782849E3,2.407049E3,-1.4272686E3,7.3755005E3,2.2069565E3,2.4973549E4,6.6357427E3,2.1560903E3,-1.4427237E4,-2.8320732E3,1.1466544E4,-1.2691875E4,4.358229E3,1.6097913E3,-8.972334E2,-2.9385186E3,4.9309727E3,-1.9732649E3,1.2049416E4,-1.549855E4,-4.1950815E3,-3.1182426E4,-5.9883582E4,-5.7850312E3,-2.357806E4,-7.949134E1,-1.8419723E4,9.403741E2,2.6825156E4,2.6426277E3,-3.4977053E3,5.6985195E3,2.8966664E4,-2.0088589E3,1.2215543E3,2.96175E4,-2.7225871E4,-5.330711E3,-2.7272916E4,2.8766448E3,2.7549646E4],"split_indices":[9,1,9,9,3,2,6,0,2,0,5,0,3,3,0,4,9,2,8,1,2,2,3,0,0,0,0,8,5,5,0,4,9,9,8,1,2,7,0,0,1,2,3,3,3,1,1,5,7,2,3,3,0,5,4,0,0,0,0,0,0,0,0,0,0,0,0,0,0,0,0,0,0,0,0,0,0,0,0,0,0,0,0,0,0,0,0,0,0,0,0,0,0,0,0,0,0,0,0,0,0],"split_type":[0,0,0,0,0,0,0,0,0,0,0,0,0,0,0,0,0,0,0,0,0,0,0,0,0,0,0,0,0,0,0,0,0,0,0,0,0,0,0,0,0,0,0,0,0,0,0,0,0,0,0,0,0,0,0,0,0,0,0,0,0,0,0,0,0,0,0,0,0,0,0,0,0,0,0,0,0,0,0,0,0,0,0,0,0,0,0,0,0,0,0,0,0,0,0,0,0,0,0,0,0],"sum_hessian":[2.5672E4,3.256E3,2.2416E4,3.241E3,1.5E1,1.62E2,2.2254E4,2.981E3,2.6E2,1E0,1.4E1,1.45E2,1.7E1,2.0796E4,1.458E3,2.83E3,1.51E2,1.82E2,7.8E1,9E0,5E0,8.1E1,6.4E1,1.6E1,1E0,2.0148E4,6.48E2,1.371E3,8.7E1,2.825E3,5E0,1.22E2,2.9E1,9.3E1,8.9E1,7E1,8E0,6E0,3E0,2E0,3E0,4.7E1,3.4E1,1.7E1,4.7E1,1.2E1,4E0,1.9359E4,7.89E2,6.09E2,3.9E1,1.362E3,9E0,7.9E1,8E0,2.775E3,5E1,8.5E1,3.7E1,4E0,2.5E1,1.6E1,7.7E1,6.8E1,2.1E1,5.7E1,1.3E1,4E0,4E0,2E0,4E0,1E0,2E0,5E0,4.2E1,3E0,3.1E1,1.4E1,3E0,1.5E1,3.2E1,1E1,2E0,2E0,2E0,1.9343E4,1.6E1,7.64E2,2.5E1,5.13E2,9.6E1,2.9E1,1E1,9.37E2,4.25E2,8E0,1E0,4.5E1,3.4E1,6E0,2E0],"tree_param":{"num_deleted":"0","num_feature":"10","num_nodes":"101","size_leaf_vector":"0"}},{"base_weights":[1.6498713E1,4.8474022E1,-8.000052E3,-4.813585E1,2.7948523E3,-8.0372195E4,-6.4877217E3,-3.3587746E1,-5.9927215E4,2.496506E3,8.8085E4,2.675338E2,-1.6380011E4,5.3602955E1,-4.297059E3,-5.7148516E3,-6.9626516E4,5.4543237E3,-4.866484E3,1.1149369E5,2.0633312E4,2.1260188E4,-1.1848308E3,-3.740001E4,-1.4311686E3,9.407386E0,1.981947E4,-6.459465E3,1.645222E4,2.6687756E4,4.289485E3,-2.092576E4,2.0438655E3,-5.1517016E4,-3.0695082E4,-6.1890767E3,2.5094867E4,2.0386152E1,-6.627426E4,1.2396096E4,1.0951237E5,3.4837375E3,-1.0055604E4,4.938895E3,4.6184008E4,8.8583055E4,1.1944772E4,1.2297565E4,1.1892125E3,-1.5571828E4,-1.1206484E5,9.174147E4,-5.400236E1,-1.4063191E4,-4.6984556E3,1.1611146E3,4.8447562E4],"categories":[],"categories_nodes":[],"categories_segments":[],"categories_sizes":[],"default_left":[1,1,1,1,1,0,1,1,1,1,1,1,1,1,1,0,0,1,1,0,0,0,0,1,1,1,1,1,1,1,1,1,1,0,0,1,1,0,0,0,0,0,0,0,0,0,0,0,0,0,0,0,0,0,0,0,0],"id":17,"left_children":[1,3,5,7,9,-1,11,13,15,17,19,21,23,25,27,-1,-1,29,31,-1,-1,-1,-1,33,35,37,39,41,43,45,47,49,51,-1,-1,53,55,-1,-1,-1,-1,-1,-1,-1,-1,-1,-1,-1,-1,-1,-1,-1,-1,-1,-1,-1,-1],"loss_changes":[6.581183E9,6.785086E9,1.0642439E10,2.151825E10,2.1892585E10,0E0,6.7537183E9,9.181719E9,2.756952E9,1.89084E10,2.4362476E9,1.8850381E9,1.2829646E10,2.1144404E10,2.2316102E10,0E0,0E0,1.5195546E10,2.7675615E10,0E0,0E0,0E0,0E0,2.770944E7,3.310506E9,1.7577005E10,3.4596848E10,1.6089993E10,1.5860503E10,2.814248E10,1.4583774E10,3.485125E10,3.2935449E10,0E0,0E0,1.921271E8,2.1793677E9,0E0,0E0,0E0,0E0,0E0,0E0,0E0,0E0,0E0,0E0,0E0,0E0,0E0,0E0,0E0,0E0,0E0,0E0,0E0,0E0],"parents":[2147483647,0,0,1,1,2,2,3,3,4,4,6,6,7,7,8,8,9,9,10,10,11,11,12,12,13,13,14,14,17,17,18,18,23,23,24,24,25,25,26,26,27,27,28,28,29,29,30,30,31,31,32,32,35,35,36,36],"right_children":[2,4,6,8,10,-1,12,14,16,18,20,22,24,26,28,-1,-1,30,32,-1,-1,-1,-1,34,36,38,40,42,44,46,48,50,52,-1,-1,54,56,-1,-1,-1,-1,-1,-1,-1,-1,-1,-1,-1,-1,-1,-1,-1,-1,-1,-1,-1,-1],"split_conditions":[2.8565872E5,1.6985966E5,2.9620912E5,1.6918744E5,2.413406E-3,-4.0186098E4,3.50896E5,1.3423403E5,7.6E1,2.245E2,1.65E1,5.6895E1,7.5012844E5,1.2594536E5,5.5E0,-2.8574258E3,-3.4813258E4,9.3422253E2,3.415588E-1,5.5746844E4,1.0316656E4,1.0630094E4,-5.924154E2,1.0285E2,1.5E0,1.2573562E5,6.9477E0,3.851356E-1,1.5340625E3,2.3123545E-4,2.3639736E3,3.221522E-1,3.4661824E-1,-2.5758508E4,-1.5347541E4,3.9E0,1.214292E6,1.0193076E1,-3.313713E4,6.198048E3,5.4756184E4,1.7418688E3,-5.027802E3,2.4694475E3,2.3092004E4,4.4291527E4,5.972386E3,6.1487827E3,5.9460626E2,-7.785914E3,-5.603242E4,4.5870734E4,-2.700118E1,-7.0315957E3,-2.3492278E3,5.805573E2,2.4223781E4],"split_indices":[6,5,5,5,9,0,5,5,0,0,0,2,5,5,1,0,0,7,3,0,0,0,0,2,1,5,3,3,7,9,6,3,3,0,0,2,5,0,0,0,0,0,0,0,0,0,0,0,0,0,0,0,0,0,0,0,0],"split_type":[0,0,0,0,0,0,0,0,0,0,0,0,0,0,0,0,0,0,0,0,0,0,0,0,0,0,0,0,0,0,0,0,0,0,0,0,0,0,0,0,0,0,0,0,0,0,0,0,0,0,0,0,0,0,0,0,0],"sum_hessian":[2.5672E4,2.5571E4,1.01E2,2.4703E4,8.68E2,1E0,1E2,2.4698E4,5E0,8.66E2,2E0,6E1,4E1,2.4204E4,4.94E2,1E0,4E0,6.18E2,2.48E2,1E0,1E0,3E0,5.7E1,1.6E1,2.4E1,2.4151E4,5.3E1,4.48E2,4.6E1,3.1E1,5.87E2,7.4E1,1.74E2,3E0,1.3E1,2.1E1,3E0,2.4148E4,3E0,5E1,3E0,1.19E2,3.29E2,3.4E1,1.2E1,5E0,2.6E1,1.63E2,4.24E2,7.1E1,3E0,3E0,1.71E2,2E0,1.9E1,2E0,1E0],"tree_param":{"num_deleted":"0","num_feature":"10","num_nodes":"57","size_leaf_vector":"0"}},{"base_weights":[1.0652678E1,-6.1014166E2,3.700714E2,-6.5536237E2,3.2141725E4,1.1493097E2,3.1474365E3,-4.2741156E2,-9.784466E3,1.1785973E5,5.8420234E3,-4.48693E3,2.5435413E2,2.475076E3,1.7270451E4,-1.4064891E2,-4.1143936E3,-7.57285E3,-3.024949E4,-3.5291287E3,3.2008473E4,-1.1564366E3,-1.5732424E4,2.9025383E3,-1.280207E2,2.8580278E3,-4.290335E4,2.6102062E4,-3.1264035E4,-1.8471356E2,2.3271914E4,-3.1777932E3,-1.984943E4,-5.207135E3,-1.4944349E4,6.1576133E4,-3.7554383E4,-8.391901E3,4.6470625E3,9.403688E3,-2.8883906E3,-2.046994E4,-8.415732E3,1.0149257E1,1.102415E4,1.1991796E3,-5.783802E2,3.0721936E3,-6.713891E4,2.2952734E4,-8.381451E4,9.5879164E4,2.1485701E4,4.7256133E3,-4.0852273E4,-9.594935E1,-1.8951482E4,9.052872E3,8.186981E4,3.0996123E4,-3.282067E3,-3.380061E4,-7.610358E3,3.448682E4,-5.6766396E3,1.7331943E3,-1.60457705E4,-1.1521722E4,-4.496942E4,-4.0530571E3,-1.1379394E4,7.3275312E3,-1.6966719E3,2.628819E3,1.7290814E4,-3.0826704E3,2.6823006E4,-1.1498156E4,-2.3471062E4,1.2550781E3,-1.8632887E4,7.8687114E3,-1.3843413E3,7.42013E3,4.561801E4,7.462228E4,1.1529152E3,-2.1837274E2,-2.2312542E3,1.6141951E3,7.7946377E3,-4.3806445E3,-9.63232E4,7.498511E4,1.5337111E4,7.0681406E3,1.9779297E1,-5.4361895E4,-2.1527473E2],"categories":[],"categories_nodes":[],"categories_segments":[],"categories_sizes":[],"default_left":[1,1,1,1,1,1,1,1,1,0,1,1,1,1,1,1,1,1,1,1,0,1,1,1,1,1,1,1,1,1,1,1,1,1,1,0,1,1,1,1,1,1,1,1,1,1,1,1,0,0,1,0,1,1,1,0,0,0,0,0,0,0,0,0,0,0,0,0,0,0,0,0,0,0,0,0,0,0,0,0,0,0,0,0,0,0,0,0,0,0,0,0,0,0,0,0,0,0,0],"id":18,"left_children":[1,3,5,7,9,11,13,15,17,-1,19,21,23,25,27,29,31,33,35,37,-1,39,41,43,45,47,49,51,53,55,57,59,61,63,65,-1,67,69,71,73,75,77,79,81,83,85,87,89,-1,-1,91,-1,93,95,97,-1,-1,-1,-1,-1,-1,-1,-1,-1,-1,-1,-1,-1,-1,-1,-1,-1,-1,-1,-1,-1,-1,-1,-1,-1,-1,-1,-1,-1,-1,-1,-1,-1,-1,-1,-1,-1,-1,-1,-1,-1,-1,-1,-1],"loss_changes":[5.7285166E9,1.3963758E10,1.1521766E10,1.9561245E10,2.8617986E10,9.556576E9,1.294743E10,9.698983E9,1.0135603E10,0E0,2.810298E9,1.6386221E10,1.4638504E10,2.2835304E10,2.7391588E10,8.786852E9,9.693084E9,3.5494482E9,1.7069513E10,3.9683206E8,0E0,6.227347E9,3.293997E9,4.2847207E10,7.5516554E9,1.964947E10,3.1560567E10,1.5012016E10,3.643862E9,1.4154278E10,1.259005E10,2.332417E9,6.060454E9,3.1589448E9,9.462743E8,0E0,3.5355116E9,3.1636832E7,8.0454776E7,2.5193695E9,1.7681807E9,1.3456138E9,4.074538E9,1.4761298E10,5.938173E10,1.0787312E10,5.612589E9,8.897008E9,0E0,0E0,6.533243E9,0E0,1.5626099E10,3.2923748E7,4.380166E9,0E0,0E0,0E0,0E0,0E0,0E0,0E0,0E0,0E0,0E0,0E0,0E0,0E0,0E0,0E0,0E0,0E0,0E0,0E0,0E0,0E0,0E0,0E0,0E0,0E0,0E0,0E0,0E0,0E0,0E0,0E0,0E0,0E0,0E0,0E0,0E0,0E0,0E0,0E0,0E0,0E0,0E0,0E0,0E0],"parents":[2147483647,0,0,1,1,2,2,3,3,4,4,5,5,6,6,7,7,8,8,10,10,11,11,12,12,13,13,14,14,15,15,16,16,17,17,18,18,19,19,21,21,22,22,23,23,24,24,25,25,26,26,27,27,28,28,29,29,30,30,31,31,32,32,33,33,34,34,36,36,37,37,38,38,39,39,40,40,41,41,42,42,43,43,44,44,45,45,46,46,47,47,50,50,52,52,53,53,54,54],"right_children":[2,4,6,8,10,12,14,16,18,-1,20,22,24,26,28,30,32,34,36,38,-1,40,42,44,46,48,50,52,54,56,58,60,62,64,66,-1,68,70,72,74,76,78,80,82,84,86,88,90,-1,-1,92,-1,94,96,98,-1,-1,-1,-1,-1,-1,-1,-1,-1,-1,-1,-1,-1,-1,-1,-1,-1,-1,-1,-1,-1,-1,-1,-1,-1,-1,-1,-1,-1,-1,-1,-1,-1,-1,-1,-1,-1,-1,-1,-1,-1,-1,-1,-1],"split_conditions":[6.368325E2,4.558378E4,4.5E0,3.920309E3,4.8602E4,8.980769E-2,3.4174452E0,6.198E2,1.7713001E1,5.8929863E4,3.5E0,4.120575E4,1.455243E-4,2.0900117E4,5.612E0,1.24335E2,2.75E1,5.72995E2,2.381479E-4,6.2785004E1,1.6004236E4,1.7627746E-5,1.5E0,1.05E1,9.51742E2,3.0038838E0,2.4966292E5,1.034867E-4,1.4777131E5,1.3722814E5,8.301475E2,6.0000002E-2,2.685199E-4,2.0000234E0,2.0563312E4,3.0788066E4,8.815591E4,2.6E-1,5.0830294E-4,1.127181E-5,3.9411055E3,2.55E1,3.9238967E-5,1.2275E-1,5.334378E-1,5.177714E-5,1.9001E1,7.931992E4,-3.3569453E4,1.1476367E4,4.59E0,4.7939582E4,1.2390449E3,7.5E0,6.003075E4,-4.7974674E1,-9.475741E3,4.526436E3,4.0934906E4,1.5498062E4,-1.6410334E3,-1.6900305E4,-3.805179E3,1.724341E4,-2.8383198E3,8.6659717E2,-8.0228853E3,-5.760861E3,-2.248471E4,-2.0265286E3,-5.689697E3,3.6637656E3,-8.4833594E2,1.3144095E3,8.645407E3,-1.5413352E3,1.3411503E4,-5.749078E3,-1.1735531E4,6.2753906E2,-9.316443E3,3.9343557E3,-6.9217065E2,3.710065E3,2.2809006E4,3.731114E4,5.764576E2,-1.0918637E2,-1.1156271E3,8.0709753E2,3.8973188E3,-2.1903223E3,-4.81616E4,3.7492555E4,7.6685557E3,3.5340703E3,9.889648E0,-2.7180947E4,-1.0763737E2],"split_indices":[7,6,1,6,6,3,3,7,2,0,1,5,8,6,4,2,0,7,9,2,0,8,1,0,7,3,5,9,5,5,6,2,8,7,5,0,5,4,8,9,6,0,9,3,3,9,2,5,0,0,2,0,7,0,6,0,0,0,0,0,0,0,0,0,0,0,0,0,0,0,0,0,0,0,0,0,0,0,0,0,0,0,0,0,0,0,0,0,0,0,0,0,0,0,0,0,0,0,0],"split_type":[0,0,0,0,0,0,0,0,0,0,0,0,0,0,0,0,0,0,0,0,0,0,0,0,0,0,0,0,0,0,0,0,0,0,0,0,0,0,0,0,0,0,0,0,0,0,0,0,0,0,0,0,0,0,0,0,0,0,0,0,0,0,0,0,0,0,0,0,0,0,0,0,0,0,0,0,0,0,0,0,0,0,0,0,0,0,0,0,0,0,0,0,0,0,0,0,0,0,0],"sum_hessian":[2.5672E4,9.413E3,1.6259E4,9.401E3,1.2E1,1.4892E4,1.367E3,9.173E3,2.28E2,2E0,1E1,4.37E2,1.4455E4,1.306E3,6.1E1,8.512E3,6.61E2,2.07E2,2.1E1,8E0,2E0,3.38E2,9.9E1,1.823E3,1.2632E4,1.296E3,1E1,5.2E1,9E0,8.497E3,1.5E1,6.25E2,3.6E1,1.58E2,4.9E1,1E0,2E1,5E0,3E0,4.7E1,2.91E2,5.9E1,4E1,1.345E3,4.78E2,3.2E3,9.432E3,1.293E3,3E0,4E0,6E0,2E0,5E1,2E0,7E0,8.458E3,3.9E1,1.3E1,2E0,1E0,6.24E2,1.6E1,2E1,1E0,1.57E2,3E0,4.6E1,5E0,1.5E1,3E0,2E0,2E0,1E0,2.6E1,2.1E1,2.9E2,1E0,1.6E1,4.3E1,2.1E1,1.9E1,2.02E2,1.143E3,4.34E2,4.4E1,1E0,3.199E3,7.746E3,1.686E3,9.89E2,3.04E2,1E0,5E0,4E0,4.6E1,1E0,1E0,5E0,2E0],"tree_param":{"num_deleted":"0","num_feature":"10","num_nodes":"99","size_leaf_vector":"0"}},{"base_weights":[1.2049756E1,-2.8124584E1,5.103343E3,-1.7573923E1,-8.9597055E4,5.0492215E4,9.0488257E2,3.1798294E1,-4.105019E3,1.4465312E4,1.6396306E5,4.1812915E3,-3.3963453E4,-5.4742827E0,3.126395E4,-2.7692926E2,-4.039629E4,2.5595742E3,4.358951E4,2.7876412E4,-2.905733E2,-8.4182734E4,1.4449514E4,5.2124896E0,-3.357741E4,5.8602964E3,8.988788E4,-3.1596938E3,3.88825E4,-1.7030397E5,-1.8856752E4,1.974068E4,-1.0078154E4,4.134633E3,5.7209E4,6.754392E4,-1.7216572E3,-1.6259917E4,-1.0411352E5,3.6120656E4,-2.406E3,-5.3447437E1,3.632292E3,-3.795125E3,-5.0687555E4,-3.981657E3,1.0627116E5,-4.8188652E4,4.1826E2,6.837529E4,1.1217176E4,6.940659E4,-3.3387082E4,3.0292361E4,2.6084363E3,-1.9032953E4,-2.6894438E3,-1.8970348E4,2.4213102E4,2.172396E4,1.0254306E5,-1.7981344E4,2.0777583E3,-2.9696406E4,5.3060312E3,-1.216298E5,-8.265594E3,-2.1983688E4,5.906075E3],"categories":[],"categories_nodes":[],"categories_segments":[],"categories_sizes":[],"default_left":[1,1,1,1,0,1,1,1,1,1,0,1,1,1,1,1,1,1,0,1,1,1,1,1,1,1,0,1,1,0,1,1,1,1,1,0,1,1,1,0,1,0,0,0,0,0,0,0,0,0,0,0,0,0,0,0,0,0,0,0,0,0,0,0,0,0,0,0,0],"id":19,"left_children":[1,3,5,7,-1,9,11,13,15,17,-1,19,21,23,25,27,29,31,-1,33,35,37,39,41,43,45,-1,47,49,-1,51,53,55,57,59,-1,61,63,65,-1,67,-1,-1,-1,-1,-1,-1,-1,-1,-1,-1,-1,-1,-1,-1,-1,-1,-1,-1,-1,-1,-1,-1,-1,-1,-1,-1,-1,-1],"loss_changes":[5.2512865E9,2.4070615E10,3.82575E10,5.1403407E9,0E0,6.7124105E10,2.1276924E10,2.929834E10,4.222235E10,4.7428147E9,0E0,1.8021562E10,4.0116703E10,9.019469E9,4.4150997E10,3.127975E10,7.793482E10,2.587391E9,0E0,1.856641E10,1.4095288E10,9.137046E9,3.3744443E9,5.347388E9,3.8842143E9,2.2164494E10,0E0,4.1586975E10,1.4735565E10,0E0,3.566214E10,8.248215E8,4.1194112E8,7.881938E9,1.7076404E10,0E0,8.809754E9,1.02690643E9,9.067917E9,0E0,1.1062406E9,0E0,0E0,0E0,0E0,0E0,0E0,0E0,0E0,0E0,0E0,0E0,0E0,0E0,0E0,0E0,0E0,0E0,0E0,0E0,0E0,0E0,0E0,0E0,0E0,0E0,0E0,0E0,0E0],"parents":[2147483647,0,0,1,1,2,2,3,3,5,5,6,6,7,7,8,8,9,9,11,11,12,12,13,13,14,14,15,15,16,16,17,17,19,19,20,20,21,21,22,22,23,23,24,24,25,25,27,27,28,28,30,30,31,31,32,32,33,33,34,34,36,36,37,37,38,38,40,40],"right_children":[2,4,6,8,-1,10,12,14,16,18,-1,20,22,24,26,28,30,32,-1,34,36,38,40,42,44,46,-1,48,50,-1,52,54,56,58,60,-1,62,64,66,-1,68,-1,-1,-1,-1,-1,-1,-1,-1,-1,-1,-1,-1,-1,-1,-1,-1,-1,-1,-1,-1,-1,-1,-1,-1,-1,-1,-1,-1],"split_conditions":[3.135E2,3.125E2,3.485E2,3.0589488E5,-4.4798527E4,1.2558E2,4.332325E-1,2.8737925E5,2.24E2,3.34E2,8.198153E4,2.8699532E-4,3.34875E2,2.8251794E5,1.06755005E2,1.545E2,3.1601575E5,2.392E1,2.1794756E4,1.9422133E-4,3.55E2,1.1384136E3,3.9875E2,1.2955E1,1.066915E3,3.0304688E5,4.494394E4,6.1741133E3,2.5E0,-8.5151984E4,1.5E0,3.195E2,2.5E0,5.5E0,4.195E2,3.377196E4,3.78E2,4.13E2,5.1458335E-1,1.8060328E4,9E2,-2.6723719E1,1.816146E3,-1.8975625E3,-2.5343777E4,-1.9908285E3,5.313558E4,-2.4094326E4,2.0913E2,3.4187645E4,5.608588E3,3.4703297E4,-1.6693541E4,1.5146181E4,1.3042181E3,-9.516477E3,-1.3447219E3,-9.485174E3,1.2106551E4,1.086198E4,5.127153E4,-8.990672E3,1.0388792E3,-1.4848203E4,2.6530156E3,-6.08149E4,-4.132797E3,-1.0991844E4,2.9530376E3],"split_indices":[0,0,0,5,0,2,3,5,0,0,0,8,2,5,2,0,5,2,0,8,0,6,2,4,7,5,0,6,1,0,1,0,1,1,0,0,0,0,3,0,0,0,0,0,0,0,0,0,0,0,0,0,0,0,0,0,0,0,0,0,0,0,0,0,0,0,0,0,0],"split_type":[0,0,0,0,0,0,0,0,0,0,0,0,0,0,0,0,0,0,0,0,0,0,0,0,0,0,0,0,0,0,0,0,0,0,0,0,0,0,0,0,0,0,0,0,0,0,0,0,0,0,0,0,0,0,0,0,0,0,0,0,0,0,0,0,0,0,0,0,0],"sum_hessian":[2.5672E4,2.5472E4,2E2,2.547E4,2E0,1.6E1,1.84E2,2.5167E4,3.03E2,1.3E1,3E0,1.69E2,1.5E1,2.5138E4,2.9E1,2.75E2,2.8E1,1E1,3E0,2.6E1,1.43E2,7E0,8E0,2.5131E4,7E0,2.1E1,8E0,2.57E2,1.8E1,3E0,2.5E1,4E0,6E0,1.5E1,1.1E1,2E0,1.41E2,2E0,5E0,3E0,5E0,2.4732E4,3.99E2,3E0,4E0,2E1,1E0,1.8E1,2.39E2,8E0,1E1,3E0,2.2E1,2E0,2E0,2E0,4E0,7E0,8E0,7E0,4E0,2.6E1,1.15E2,1E0,1E0,4E0,1E0,1E0,4E0],"tree_param":{"num_deleted":"0","num_feature":"10","num_nodes":"69","size_leaf_vector":"0"}},{"base_weights":[1.0209411E1,5.810669E0,3.76465E4,3.7471176E1,-5.3452666E3,1.02424E0,4.2281035E4,-2.2655428E4,-1.7308978E3,2.2745893E1,-2.767345E4,4.7933804E3,5.6039258E4,9.509983E3,-4.0243645E4,-3.7582961E3,2.864289E4,9.126755E0,2.6702908E4,-1.4011332E4,-6.5857336E4,1.3975621E4,-2.5149531E4,3.1593281E4,1.0350155E5,-1.6191833E4,5.2110914E4,-2.55337E4,-8.166729E4,-4.942971E3,3.153661E4,5.3531082E4,1.14248125E4,3.1411533E1,-2.2672646E4,5.774916E4,-3.4520727E4,-2.4043438E3,-1.9068568E4,-1.8223312E4,-7.3209766E4,1.8585871E4,-4.5373125E3,5.4471164E4,-1.1329787E4,2.2100219E4,1.1832658E5,3.6671367E3,-3.2003094E4,1.3950113E4,6.0180812E4,1.6989416E4,-3.4036754E4,-9.909924E4,-1.4685219E4,1.4315708E3,-1.1125708E4,-7.1466562E3,1.6568637E4],"categories":[],"categories_nodes":[],"categories_segments":[],"categories_sizes":[],"default_left":[1,1,0,1,1,1,1,1,1,1,1,1,1,1,1,1,1,1,1,1,1,1,0,1,1,1,1,1,1,1,0,0,1,0,0,0,0,0,0,0,0,0,0,0,0,0,0,0,0,0,0,0,0,0,0,0,0,0,0],"id":20,"left_children":[1,3,-1,5,7,9,11,13,15,17,19,21,23,25,27,29,31,33,35,37,39,41,-1,43,45,47,49,51,53,55,-1,-1,57,-1,-1,-1,-1,-1,-1,-1,-1,-1,-1,-1,-1,-1,-1,-1,-1,-1,-1,-1,-1,-1,-1,-1,-1,-1,-1],"loss_changes":[4.2499679E9,4.34932E9,0E0,3.929329E10,9.408121E9,1.5329553E10,1.1078115E10,1.5091786E10,7.866674E9,9.258529E9,9.510626E9,2.2760704E9,1.5294108E10,1.1793021E10,8.273398E9,5.131605E9,2.8165678E9,1.2874206E10,2.6703501E10,8.933194E8,4.169134E8,5.964393E8,0E0,1.2401058E10,3.4186977E9,2.3153554E9,3.9221146E8,5.640352E9,3.215106E9,4.5877427E9,0E0,0E0,6.9159014E8,0E0,0E0,0E0,0E0,0E0,0E0,0E0,0E0,0E0,0E0,0E0,0E0,0E0,0E0,0E0,0E0,0E0,0E0,0E0,0E0,0E0,0E0,0E0,0E0,0E0,0E0],"parents":[2147483647,0,0,1,1,3,3,4,4,5,5,6,6,7,7,8,8,9,9,10,10,11,11,12,12,13,13,14,14,15,15,16,16,17,17,18,18,19,19,20,20,21,21,23,23,24,24,25,25,26,26,27,27,28,28,29,29,32,32],"right_children":[2,4,-1,6,8,10,12,14,16,18,20,22,24,26,28,30,32,34,36,38,40,42,-1,44,46,48,50,52,54,56,-1,-1,58,-1,-1,-1,-1,-1,-1,-1,-1,-1,-1,-1,-1,-1,-1,-1,-1,-1,-1,-1,-1,-1,-1,-1,-1,-1,-1],"split_conditions":[1.9641599E3,6.4370325E5,1.882325E4,5.6175E5,7.927129E5,5.0770088E5,1.2224504E-4,3.4600002E-1,7.5E0,4.866007E5,2.575E2,1.89E2,7.20094E3,2.2386363E-1,7.319039E5,4.106657E-4,9.185194E5,4.578714E5,6.5E0,1.719874E-4,9.5297253E2,1.9580719E4,-1.2574766E4,1.5767527E3,4E0,9.5244075E-5,2.43E2,3.8E-1,1.66E3,1.5E0,1.5768305E4,2.6765541E4,8.6244995E1,1.5705767E1,-1.1336323E4,2.887458E4,-1.7260363E4,-1.2021719E3,-9.534284E3,-9.111656E3,-3.6604883E4,9.292936E3,-2.2686562E3,2.7235582E4,-5.6648936E3,1.1050109E4,5.916329E4,1.8335684E3,-1.6001547E4,6.9750566E3,3.0090406E4,8.494708E3,-1.7018377E4,-4.954962E4,-7.3426094E3,7.157854E2,-5.562854E3,-3.5733281E3,8.284318E3],"split_indices":[2,5,0,5,5,5,8,3,1,5,0,0,7,3,5,8,5,5,1,9,7,7,0,6,0,9,0,4,0,1,0,0,2,0,0,0,0,0,0,0,0,0,0,0,0,0,0,0,0,0,0,0,0,0,0,0,0,0,0],"split_type":[0,0,0,0,0,0,0,0,0,0,0,0,0,0,0,0,0,0,0,0,0,0,0,0,0,0,0,0,0,0,0,0,0,0,0,0,0,0,0,0,0,0,0,0,0,0,0,0,0,0,0,0,0,0,0,0,0,0,0],"sum_hessian":[2.5672E4,2.567E4,2E0,2.552E4,1.5E2,2.5499E4,2.1E1,2.5E1,1.25E2,2.548E4,1.9E1,6E0,1.5E1,9E0,1.6E1,1.18E2,7E0,2.5468E4,1.2E1,1.5E1,4E0,5E0,1E0,1.1E1,4E0,6E0,3E0,1.3E1,3E0,1.15E2,3E0,2E0,5E0,2.5444E4,2.4E1,8E0,4E0,5E0,1E1,1E0,3E0,4E0,1E0,7E0,4E0,1E0,3E0,3E0,3E0,1E0,2E0,2E0,1.1E1,2E0,1E0,5.7E1,5.8E1,1E0,4E0],"tree_param":{"num_deleted":"0","num_feature":"10","num_nodes":"59","size_leaf_vector":"0"}},{"base_weights":[7.004679E0,-2.0373855E0,1.6579389E4,-5.0383395E2,2.833407E2,1.06796875E4,4.663725E4,2.7478318E4,-5.4293256E2,4.7416046E2,-1.8521458E3,6.381328E3,3.11295E4,4.146073E4,-3.1854888E3,-6.4051483E2,6.6176934E3,3.776232E2,2.138228E4,-2.9861092E4,-1.4488049E3,2.0303916E4,1.5663187E3,4.7088496E4,-1.7801882E3,-5.6662805E2,-1.8857229E4,7.092299E4,4.091975E2,3.6877646E2,6.6308984E4,1.2697547E4,9.649012E4,-8.292077E3,-5.848185E4,3.896251E4,-1.724074E3,-1.4104733E3,6.384375E3,-6.5047217E2,1.498688E4,-7.59994E4,-7.5537515E3,8.0555766E4,-1.2701844E4,1.4798511E4,-1.2130014E4,5.572789E2,-1.4176968E3,2.1845566E4,-1.5540045E4,2.8950781E4,1.02921375E5,-2.5793236E4,7.893355E3,-7.8432164E4,9.123906E2,6.3836285E4,6.2960376E3,4.2041457E4,-1.9566204E3,2.9165208E3,-3.724775E3],"categories":[],"categories_nodes":[],"categories_segments":[],"categories_sizes":[],"default_left":[1,1,1,1,1,1,0,1,1,1,1,1,0,1,0,1,1,1,1,1,1,0,1,0,0,1,1,1,1,1,0,1,1,1,1,1,1,1,0,0,0,0,0,0,0,0,0,0,0,0,0,0,0,0,0,0,0,0,0,0,0,0,0],"id":21,"left_children":[1,3,5,7,9,11,-1,13,15,17,19,21,-1,23,-1,25,27,29,31,33,35,-1,37,-1,-1,39,41,43,45,47,-1,49,51,53,55,57,59,61,-1,-1,-1,-1,-1,-1,-1,-1,-1,-1,-1,-1,-1,-1,-1,-1,-1,-1,-1,-1,-1,-1,-1,-1,-1],"loss_changes":[3.8471124E9,3.6746998E9,1.9845248E9,1.0192962E10,6.6666476E9,9.440232E8,0E0,5.7059144E9,6.4963174E9,3.03024E10,1.5117479E10,7.726245E8,0E0,2.2740183E9,0E0,1.2327838E10,4.9875804E10,8.694915E9,4.378281E10,1.1244107E10,1.4795291E10,0E0,1.5243347E8,0E0,0E0,1.19172E10,2.332433E10,9.884205E9,2.0929032E10,5.0345953E9,0E0,1.6613523E10,6.075597E7,3.6027784E9,9.551108E9,6.9108613E9,1.3475826E10,8.096198E7,0E0,0E0,0E0,0E0,0E0,0E0,0E0,0E0,0E0,0E0,0E0,0E0,0E0,0E0,0E0,0E0,0E0,0E0,0E0,0E0,0E0,0E0,0E0,0E0,0E0],"parents":[2147483647,0,0,1,1,2,2,3,3,4,4,5,5,7,7,8,8,9,9,10,10,11,11,13,13,15,15,16,16,17,17,18,18,19,19,20,20,22,22,25,25,26,26,27,27,28,28,29,29,31,31,32,32,33,33,34,34,35,35,36,36,37,37],"right_children":[2,4,6,8,10,12,-1,14,16,18,20,22,-1,24,-1,26,28,30,32,34,36,-1,38,-1,-1,40,42,44,46,48,-1,50,52,54,56,58,60,62,-1,-1,-1,-1,-1,-1,-1,-1,-1,-1,-1,-1,-1,-1,-1,-1,-1,-1,-1,-1,-1,-1,-1,-1,-1],"split_conditions":[2.214959E6,3.1706977E-1,3.2405E0,7.2630005E0,3.7168E1,5.184E3,2.3318625E4,1.592E-2,3.2856E1,1.930388E5,3.78405E1,2.462073E6,1.556475E4,4E0,-1.5927444E3,2.04068E5,1.5E0,3.6285E1,3.6120003E1,1.5536956E5,3.8010002E1,1.0151958E4,2.9445E3,2.3544248E4,-8.900941E2,1.461E5,2.1341283E5,4.584825E5,2.0307143E-1,1.8257E1,3.3154492E4,3.0285E1,1.5253E3,5.2E1,8.935E-1,4.25E1,5.481401E-5,1.5E0,3.1921875E3,-3.2523608E2,7.49344E3,-3.79997E4,-3.7768757E3,4.0277883E4,-6.350922E3,7.3992554E3,-6.065007E3,2.7863943E2,-7.088484E2,1.0922783E4,-7.7700225E3,1.4475391E4,5.1460688E4,-1.2896618E4,3.9466775E3,-3.9216082E4,4.561953E2,3.1918143E4,3.1480188E3,2.1020729E4,-9.783102E2,1.4582604E3,-1.8623875E3],"split_indices":[5,3,3,5,2,0,0,3,2,5,2,5,0,0,0,5,1,3,2,5,2,0,0,0,0,5,5,5,3,2,0,2,7,0,4,0,9,1,0,0,0,0,0,0,0,0,0,0,0,0,0,0,0,0,0,0,0,0,0,0,0,0,0],"split_type":[0,0,0,0,0,0,0,0,0,0,0,0,0,0,0,0,0,0,0,0,0,0,0,0,0,0,0,0,0,0,0,0,0,0,0,0,0,0,0,0,0,0,0,0,0,0,0,0,0,0,0,0,0,0,0,0,0,0,0,0,0,0,0],"sum_hessian":[2.5672E4,2.5659E4,1.3E1,9.302E3,1.6357E4,1.2E1,1E0,1.2E1,9.29E3,1.5016E4,1.341E3,1.1E1,1E0,8E0,4E0,9.166E3,1.24E2,1.4948E4,6.8E1,1.8E1,1.323E3,2E0,9E0,7E0,1E0,9.13E3,3.6E1,1E1,1.14E2,1.4947E4,1E0,6.2E1,6E0,1.1E1,7E0,8E0,1.315E3,6E0,3E0,9.082E3,4.8E1,5E0,3.1E1,9E0,1E0,5.3E1,6.1E1,1.3521E4,1.426E3,4.7E1,1.5E1,1E0,5E0,5E0,6E0,5E0,2E0,4E0,4E0,6E0,1.309E3,2E0,4E0],"tree_param":{"num_deleted":"0","num_feature":"10","num_nodes":"63","size_leaf_vector":"0"}},{"base_weights":[1.0620674E1,-1.4055313E2,8.561666E2,-1.5679593E2,1.5930655E4,-4.7131134E1,5.7098076E3,-3.27433E1,-2.7730757E3,4.3058688E4,3.066412E3,4.3884122E2,-1.710372E4,1.5795405E4,2.2171711E3,-1.6744442E1,-2.217398E4,-6.11607E3,1.7573533E3,2.4124792E3,5.8834477E4,-4.5190703E3,2.0658488E4,-1.9195342E3,1.5115093E3,-4.221761E4,-6.4086475E3,2.1167494E5,1.1902275E4,6.095926E2,3.7151477E4,-4.9235966E1,1.5639247E4,-5.4808277E4,-3.7590527E2,-4.972415E3,-3.8839723E4,3.7585234E4,3.3407495E2,-1.5181875E3,5.1374062E3,2.2399375E4,7.565775E4,-6.661354E3,1.4305859E3,-1.4945961E3,-1.8415299E4,3.4719266E4,1.3589762E3,-4.4018145E4,2.2976875E3,-1.5754721E4,1.3923777E4,3.2708806E5,-9.575145E3,-5.0425918E4,1.3046611E4,4.8843813E3,-6.0436377E3,1.7494022E5,1.212266E4,-6.895244E1,1.3550166E4,2.2186871E4,-8.1864966E3,-1.43715625E4,7.675171E3,-5.505715E3,9.3923086E4,-9.044809E4,-1.9047553E4,-1.3524527E2,2.3582457E4,-2.9490513E3,4.0858093E3,-6.247366E3,-5.590569E4,3.884754E3,4.7378945E4,3.878632E3,1.974791E2,-6.4841938E4,-3.2933434E4,-1.9950756E4,3.224209E4,6.1405957E3,2.861277E4,6.2945405E3,2.3407395E4,3.8899753E3,9.076365E4,-1.847909E4,1.02036835E3,1.7276031E4,2.451338E5,-1.5301814E4,4.1247445E4],"categories":[],"categories_nodes":[],"categories_segments":[],"categories_sizes":[],"default_left":[1,1,1,1,1,1,1,1,1,1,1,1,1,1,1,1,1,1,1,1,1,1,0,1,1,1,1,1,1,1,1,1,1,0,1,1,1,0,1,0,0,0,0,0,0,1,1,1,1,1,0,1,1,0,0,0,1,1,1,1,1,0,0,0,0,0,0,0,0,0,0,0,0,0,0,0,0,0,0,0,0,0,0,0,0,0,0,0,0,0,0,0,0,0,0,0,0],"id":22,"left_children":[1,3,5,7,9,11,13,15,17,19,21,23,25,27,29,31,33,35,37,39,41,43,-1,45,47,49,51,53,55,57,59,61,63,-1,65,67,69,-1,71,-1,-1,-1,-1,-1,-1,73,75,77,79,81,-1,83,85,-1,-1,-1,87,89,91,93,95,-1,-1,-1,-1,-1,-1,-1,-1,-1,-1,-1,-1,-1,-1,-1,-1,-1,-1,-1,-1,-1,-1,-1,-1,-1,-1,-1,-1,-1,-1,-1,-1,-1,-1,-1,-1],"loss_changes":[3.281757E9,5.687963E9,1.7072674E10,7.0619295E9,7.5455135E9,2.7228699E10,2.1487634E10,7.358829E9,1.4928773E10,4.346583E9,2.2284833E9,8.082936E9,2.4171528E10,1.1720611E11,2.5529952E10,1.0561607E10,1.0649815E10,2.1026558E10,2.135349E10,3.9935504E7,1.3700035E9,1.624851E8,0E0,6.9751265E9,1.1076145E10,2.2652723E9,1.2571208E10,7.9737725E10,1.1713126E10,1.2429861E10,6.685286E10,5.5563525E9,6.889732E9,0E0,1.2371119E9,2.9471814E10,1.768447E10,0E0,4.411231E9,0E0,0E0,0E0,0E0,0E0,0E0,7.925586E9,1.1055188E10,3.7194435E9,6.3996457E9,3.865903E9,0E0,9.706077E9,2.2251346E9,0E0,0E0,0E0,1.055601E10,2.2362931E10,1.5040215E10,2.8965839E10,1.5008362E10,0E0,0E0,0E0,0E0,0E0,0E0,0E0,0E0,0E0,0E0,0E0,0E0,0E0,0E0,0E0,0E0,0E0,0E0,0E0,0E0,0E0,0E0,0E0,0E0,0E0,0E0,0E0,0E0,0E0,0E0,0E0,0E0,0E0,0E0,0E0,0E0],"parents":[2147483647,0,0,1,1,2,2,3,3,4,4,5,5,6,6,7,7,8,8,9,9,10,10,11,11,12,12,13,13,14,14,15,15,16,16,17,17,18,18,19,19,20,20,21,21,23,23,24,24,25,25,26,26,27,27,28,28,29,29,30,30,31,31,32,32,34,34,35,35,36,36,38,38,45,45,46,46,47,47,48,48,49,49,51,51,52,52,56,56,57,57,58,58,59,59,60,60],"right_children":[2,4,6,8,10,12,14,16,18,20,22,24,26,28,30,32,34,36,38,40,42,44,-1,46,48,50,52,54,56,58,60,62,64,-1,66,68,70,-1,72,-1,-1,-1,-1,-1,-1,74,76,78,80,82,-1,84,86,-1,-1,-1,88,90,92,94,96,-1,-1,-1,-1,-1,-1,-1,-1,-1,-1,-1,-1,-1,-1,-1,-1,-1,-1,-1,-1,-1,-1,-1,-1,-1,-1,-1,-1,-1,-1,-1,-1,-1,-1,-1,-1],"split_conditions":[3.85E1,1.9156E2,1.1872773E3,1.727E1,2.6891852E-4,4.35E-1,1.2676451E3,2.626125E5,2.675E1,2.5312655E-4,7.453491E-4,3.1908348E-1,7.9284474E-4,6.65E2,4.751038E-4,1.476114E5,5.30764E5,9.219E1,3.035E1,1.65E1,2.37375E2,4.999246E-4,1.0329244E4,1.1212493E3,5.0693878E2,1.2745E3,8.0845E1,5.55E1,4.9999997E-2,1.6175338E5,4.9765187E-4,1.6827E1,5.7500005E-1,-2.7404139E4,1.5350001E0,8.896E1,1.24E1,1.8792617E4,2.5E0,-7.5909375E2,2.5687031E3,1.11996875E4,3.7828875E4,-3.330677E3,7.1529297E2,5.5E0,8.55E1,6.6E1,4.65E1,4.503616E-4,1.1488438E3,3.0795997E-3,9.538445E2,1.6354403E5,-4.7875723E3,-2.5212959E4,8.35E1,7.9999995E-1,2.724692E5,8.1E1,1.647315E3,-3.447622E1,6.775083E3,1.1093436E4,-4.0932483E3,-7.1857812E3,3.8375854E3,-2.7528574E3,4.6961543E4,-4.5224047E4,-9.523776E3,-6.7622635E1,1.1791229E4,-1.4745256E3,2.0429047E3,-3.123683E3,-2.7952846E4,1.942377E3,2.3689473E4,1.939316E3,9.873955E1,-3.2420969E4,-1.6466717E4,-9.975378E3,1.6121045E4,3.0702979E3,1.4306385E4,3.1472703E3,1.1703697E4,1.9449877E3,4.5381824E4,-9.239545E3,5.1018417E2,8.638016E3,1.225669E5,-7.650907E3,2.0623723E4],"split_indices":[0,2,6,2,9,4,6,5,4,8,9,3,8,7,8,5,5,2,2,0,2,9,0,6,6,0,2,0,4,5,8,2,4,0,2,2,3,0,0,0,0,0,0,0,0,1,0,0,0,8,0,9,6,0,0,0,0,4,5,0,6,0,0,0,0,0,0,0,0,0,0,0,0,0,0,0,0,0,0,0,0,0,0,0,0,0,0,0,0,0,0,0,0,0,0,0,0],"split_type":[0,0,0,0,0,0,0,0,0,0,0,0,0,0,0,0,0,0,0,0,0,0,0,0,0,0,0,0,0,0,0,0,0,0,0,0,0,0,0,0,0,0,0,0,0,0,0,0,0,0,0,0,0,0,0,0,0,0,0,0,0,0,0,0,0,0,0,0,0,0,0,0,0,0,0,0,0,0,0,0,0,0,0,0,0,0,0,0,0,0,0,0,0,0,0,0,0],"sum_hessian":[2.5672E4,2.1779E4,3.893E3,2.1758E4,2.1E1,3.283E3,6.1E2,2.0774E4,9.84E2,6E0,1.5E1,3.193E3,9E1,1.56E2,4.54E2,2.076E4,1.4E1,5.66E2,4.18E2,2E0,4E0,1.1E1,4E0,9.98E2,2.195E3,2.6E1,6.4E1,2E0,1.54E2,4.35E2,1.9E1,2.0718E4,4.2E1,5E0,9E0,5.48E2,1.8E1,1.5E1,4.03E2,1E0,1E0,2E0,2E0,8E0,3E0,9.74E2,2.4E1,9E0,2.186E3,2.5E1,1E0,4.4E1,2E1,1E0,1E0,2E0,1.52E2,2.65E2,1.7E2,2E0,1.7E1,2.0689E4,2.9E1,3.3E1,9E0,3E0,6E0,5.46E2,2E0,4E0,1.4E1,3.96E2,7E0,7.73E2,2.01E2,1.9E1,5E0,3E0,6E0,6.89E2,1.497E3,7E0,1.8E1,4.1E1,3E0,1.4E1,6E0,9.3E1,5.9E1,2.63E2,2E0,6.1E1,1.09E2,1E0,1E0,9E0,8E0],"tree_param":{"num_deleted":"0","num_feature":"10","num_nodes":"97","size_leaf_vector":"0"}},{"base_weights":[1.9552612E1,4.9178012E2,-1.7488586E2,-2.726807E2,1.5805262E3,-2.1838568E2,5.474457E3,-3.6133484E1,-9.672897E3,3.140601E3,-1.1803762E3,-1.8916615E2,-1.6663043E4,1.0408844E5,2.533785E3,7.3156104E2,-1.069775E3,-1.3068579E4,-1.5593926E3,2.2661326E3,1.0675564E4,-7.9401855E2,-1.4243399E4,-3.9114094E3,-1.0745222E2,-5.135578E4,-6.681766E3,1.2139165E3,4.5785715E4,3.636321E3,-3.408595E1,-2.0386792E3,4.1655206E2,-1.404693E4,8.0532207E3,-9.075146E3,8.064455E3,2.82453E3,-1.4264899E4,4.472107E3,2.0718719E4,-1.3129658E3,1.7499361E4,3.9659645E1,-4.5670195E4,1.5161679E2,-8.584737E3,1.8165426E4,-1.2300462E2,-1.4857286E4,1.763126E4,1.4456318E4,-4.0405022E3,-7.3753545E3,6.596485E4,7.834263E2,5.3126406E4,6.2079796E1,-1.0978064E4,1.097873E2,-3.2813975E3,-3.0184772E2,6.721205E3,-1.1152097E4,-2.068399E4,2.7252293E4,-7.4302344E3,1.7560635E3,-1.306894E4,-6.720783E3,2.1841762E4,2.4834685E3,2.32604E4,-5.180069E4,-3.3468306E3,3.9640715E4,3.3109268E3,4.3307156E4,1.4653088E4,-1.6536533E3,3.1202586E4,2.2953422E4,-2.369014E4,5.552539E3,-6.0621344E4,-5.544796E4,-4.3724165E3,-4.3613403E3,1.0147235E4,-4.3297036E3,-2.1638236E4,7.811296E3,8.1561125E4,-1.3274786E2,2.4407018E4,8.1166016E1,-1.9842248E4,5.404839E4,2.5535051E3,3.1864371E4,8.751992E3,-2.68102E4,-7.7840967E2],"categories":[],"categories_nodes":[],"categories_segments":[],"categories_sizes":[],"default_left":[1,1,1,1,1,1,1,1,1,1,1,1,1,0,1,1,1,1,1,1,1,1,1,1,1,0,1,1,1,1,1,1,1,1,1,1,1,1,1,1,1,1,1,1,1,1,1,1,1,1,1,1,1,0,0,0,0,0,0,0,0,0,0,0,0,0,0,0,0,0,0,0,0,0,0,0,0,0,0,0,0,0,0,0,0,0,0,0,0,0,0,0,0,0,0,0,0,0,0,0,0,0,0],"id":23,"left_children":[1,3,5,7,9,11,13,15,17,19,21,23,25,-1,27,29,31,33,35,37,39,41,43,45,47,-1,49,51,53,55,57,59,61,63,65,67,69,71,73,75,77,79,81,83,85,87,89,91,93,95,97,99,101,-1,-1,-1,-1,-1,-1,-1,-1,-1,-1,-1,-1,-1,-1,-1,-1,-1,-1,-1,-1,-1,-1,-1,-1,-1,-1,-1,-1,-1,-1,-1,-1,-1,-1,-1,-1,-1,-1,-1,-1,-1,-1,-1,-1,-1,-1,-1,-1,-1,-1],"loss_changes":[2.357361E9,6.2327224E9,4.470316E9,9.78346E9,1.3308695E10,8.668991E9,4.0044958E10,3.4073684E9,2.9551012E9,1.2982653E10,5.621127E9,5.4796104E9,1.0737684E10,0E0,7.708185E9,5.4801147E9,2.636249E9,1.6836332E9,2.4600924E9,1.6378949E10,1.2679285E10,1.0323192E10,1.4365721E10,7.3496095E9,5.012721E9,0E0,5.430013E9,9.312711E9,4.777552E9,7.252999E10,2.0539948E9,2.958655E9,3.2766912E9,1.1718615E9,1.3915826E9,8.4485594E8,3.2023201E9,1.1881632E10,2.359604E10,5.095858E9,1.0052381E10,1.1749558E10,7.2832707E9,8.0281334E9,3.795501E9,9.4271E9,9.904041E9,9.208923E9,4.2137108E9,1.4909824E9,3.7055503E9,3.494529E9,7.1096817E9,0E0,0E0,0E0,0E0,0E0,0E0,0E0,0E0,0E0,0E0,0E0,0E0,0E0,0E0,0E0,0E0,0E0,0E0,0E0,0E0,0E0,0E0,0E0,0E0,0E0,0E0,0E0,0E0,0E0,0E0,0E0,0E0,0E0,0E0,0E0,0E0,0E0,0E0,0E0,0E0,0E0,0E0,0E0,0E0,0E0,0E0,0E0,0E0,0E0,0E0],"parents":[2147483647,0,0,1,1,2,2,3,3,4,4,5,5,6,6,7,7,8,8,9,9,10,10,11,11,12,12,14,14,15,15,16,16,17,17,18,18,19,19,20,20,21,21,22,22,23,23,24,24,26,26,27,27,28,28,29,29,30,30,31,31,32,32,33,33,34,34,35,35,36,36,37,37,38,38,39,39,40,40,41,41,42,42,43,43,44,44,45,45,46,46,47,47,48,48,49,49,50,50,51,51,52,52],"right_children":[2,4,6,8,10,12,14,16,18,20,22,24,26,-1,28,30,32,34,36,38,40,42,44,46,48,-1,50,52,54,56,58,60,62,64,66,68,70,72,74,76,78,80,82,84,86,88,90,92,94,96,98,100,102,-1,-1,-1,-1,-1,-1,-1,-1,-1,-1,-1,-1,-1,-1,-1,-1,-1,-1,-1,-1,-1,-1,-1,-1,-1,-1,-1,-1,-1,-1,-1,-1,-1,-1,-1,-1,-1,-1,-1,-1,-1,-1,-1,-1,-1,-1,-1,-1,-1,-1],"split_conditions":[2.939499E-4,2.698E0,3.7830547E4,5.4484E4,1.4545333E0,2.768525E4,3.111993E-4,5.5E0,1.4466544E4,4.73625E3,1.65E1,1.7788855E-4,2.8256438E4,5.204422E4,1.2215276E-3,1.1192768E-4,1.8386313E-4,5.05E1,2.5E0,4.7588997E1,7.059E0,5.5E0,3.5E0,4.835227E-1,1.8032224E-4,-2.567789E4,4.133E1,1.3976667E1,7.923E1,1.0576764E-4,1.3781375E4,6.125E-2,9.784885E3,1.14368424E-1,7.3E1,6.4E-1,1.0948283E-5,3.4484E1,1.555E2,2.7649999E0,1.5E0,1.05E1,4.6719336E4,4.6153135E0,1.7138E2,2.3464463E3,5.5E0,3.2864998E1,5.75E1,5.9035875E4,4.763E1,6.956E2,1.205E5,-3.6876772E3,3.2982426E4,3.9171313E2,2.6563203E4,3.1039898E1,-5.489032E3,5.489365E1,-1.6406987E3,-1.5092386E2,3.3606025E3,-5.5760483E3,-1.0341995E4,1.3626146E4,-3.7151172E3,8.7803174E2,-6.53447E3,-3.3603916E3,1.0920881E4,1.2417343E3,1.16302E4,-2.5900346E4,-1.6734153E3,1.9820357E4,1.6554634E3,2.1653578E4,7.326544E3,-8.2682666E2,1.5601293E4,1.1476711E4,-1.184507E4,2.7762695E3,-3.0310672E4,-2.772398E4,-2.1862083E3,-2.1806702E3,5.0736177E3,-2.1648518E3,-1.0819118E4,3.905648E3,4.0780562E4,-6.637393E1,1.2203509E4,4.0583008E1,-9.921124E3,2.7024195E4,1.2767526E3,1.5932186E4,4.375996E3,-1.34051E4,-3.8920483E2],"split_indices":[9,2,6,5,3,6,9,0,6,7,0,8,6,0,9,8,9,0,0,2,2,1,1,3,8,0,2,3,2,8,5,4,5,3,0,3,8,2,0,2,1,0,6,3,2,6,1,2,3,5,2,7,5,0,0,0,0,0,0,0,0,0,0,0,0,0,0,0,0,0,0,0,0,0,0,0,0,0,0,0,0,0,0,0,0,0,0,0,0,0,0,0,0,0,0,0,0,0,0,0,0,0,0],"split_type":[0,0,0,0,0,0,0,0,0,0,0,0,0,0,0,0,0,0,0,0,0,0,0,0,0,0,0,0,0,0,0,0,0,0,0,0,0,0,0,0,0,0,0,0,0,0,0,0,0,0,0,0,0,0,0,0,0,0,0,0,0,0,0,0,0,0,0,0,0,0,0,0,0,0,0,0,0,0,0,0,0,0,0,0,0,0,0,0,0,0,0,0,0,0,0,0,0,0,0,0,0,0,0],"sum_hessian":[2.5672E4,7.487E3,1.8185E4,4.399E3,3.088E3,1.8047E4,1.38E2,4.292E3,1.07E2,1.973E3,1.115E3,1.8016E4,3.1E1,3E0,1.35E2,2.463E3,1.829E3,7.5E1,3.2E1,1.769E3,2.04E2,1.084E3,3.1E1,3.86E2,1.763E4,6E0,2.5E1,1.32E2,3E0,5.13E2,1.95E3,1.107E3,7.22E2,7.2E1,3E0,1.8E1,1.4E1,1.712E3,5.7E1,1.27E2,7.7E1,1.055E3,2.9E1,2.2E1,9E0,2.07E2,1.79E2,1.4E1,1.7616E4,1.9E1,6E0,3.7E1,9.5E1,1E0,2E0,4.86E2,2.7E1,1.934E3,1.6E1,4.06E2,7.01E2,6.49E2,7.3E1,5.2E1,2E1,1E0,2E0,5E0,1.3E1,7E0,7E0,1.685E3,2.7E1,1.2E1,4.5E1,3E0,1.24E2,1.5E1,6.2E1,1.045E3,1E1,2.6E1,3E0,2.1E1,1E0,7E0,2E0,1.43E2,6.4E1,1.36E2,4.3E1,1.3E1,1E0,1.761E4,6E0,5E0,1.4E1,1E0,5E0,8E0,2.9E1,1.1E1,8.4E1],"tree_param":{"num_deleted":"0","num_feature":"10","num_nodes":"103","size_leaf_vector":"0"}},{"base_weights":[1.5193022E1,-1.8385374E1,2.7988616E3,2.4994656E1,-2.035446E4,9.4652875E4,1.5770269E3,1.5641142E0,2.4715797E4,-3.3154004E4,1.5134555E4,-4.119357E4,2.142048E3,1.3970129E1,-1.160773E4,7.836041E4,-1.9825381E3,-7.5144336E4,-1.4635418E4,5.514853E4,8.337161E3,-5.9836953E4,-1.5033125E4,-1.240744E3,1.0713131E4,-1.6085688E1,4.614447E3,-4.3607395E4,-4.146554E3,1.3911534E4,1.8113769E5,8.783638E3,-5.5152906E4,-1.289633E5,-3.211432E4,5.752691E3,-4.3998047E4,-1.8045572E4,1.4238165E4,1.7202885E4,-4.424292E3,2.9348623E4,3.3265835E3,2.004859E1,-3.7438508E3,2.6818668E4,1.3442794E3,-6.1399047E4,1.3779109E4,1.29250205E4,-9.6067705E3,3.7330426E4,-7.1302695E3,-2.2660898E3,9.734839E3,-4.1148535E4,1.5562094E4,6.5512793E4,-5.8118086E3,-2.6542917E3,-5.200127E4,2.2768916E4,-8.515318E3,3.9435638E2,7.717687E4,-2.669073E4,-1.098244E3,5.536799E4,3.073083E3,-5.4865953E4,7.215474E3],"categories":[],"categories_nodes":[],"categories_segments":[],"categories_sizes":[],"default_left":[1,1,1,1,1,0,1,1,1,1,1,1,1,1,1,1,1,1,1,0,1,0,0,1,1,1,1,1,1,1,0,1,0,0,1,1,1,0,1,1,1,1,1,0,0,0,0,0,0,0,0,0,0,0,0,0,0,0,0,0,0,0,0,0,0,0,0,0,0,0,0],"id":24,"left_children":[1,3,5,7,9,-1,11,13,15,17,19,21,23,25,27,29,31,33,35,-1,37,-1,-1,39,41,43,45,47,49,51,-1,53,-1,-1,55,57,59,-1,61,63,65,67,69,-1,-1,-1,-1,-1,-1,-1,-1,-1,-1,-1,-1,-1,-1,-1,-1,-1,-1,-1,-1,-1,-1,-1,-1,-1,-1,-1,-1],"loss_changes":[2.3997384E9,2.237966E10,3.4193142E10,1.4645142E10,2.5030924E10,0E0,7.4105866E9,3.642833E9,3.452875E10,3.0004208E10,3.6200148E9,1.05126605E9,8.711559E9,3.493636E9,6.26552E9,5.0470937E10,1.0215995E10,2.3648244E10,1.761395E10,0E0,2.4365164E9,0E0,0E0,1.2758793E10,1.1602754E10,3.381455E9,1.1872211E10,5.9510753E9,2.2680978E9,3.2228608E9,0E0,1.7972531E8,0E0,0E0,4.0861343E9,1.2820528E10,3.8325187E9,0E0,2.5231508E9,3.2227867E10,1.3671619E10,1.6237941E10,1.4426711E10,0E0,0E0,0E0,0E0,0E0,0E0,0E0,0E0,0E0,0E0,0E0,0E0,0E0,0E0,0E0,0E0,0E0,0E0,0E0,0E0,0E0,0E0,0E0,0E0,0E0,0E0,0E0,0E0],"parents":[2147483647,0,0,1,1,2,2,3,3,4,4,6,6,7,7,8,8,9,9,10,10,11,11,12,12,13,13,14,14,15,15,16,16,17,17,18,18,20,20,23,23,24,24,25,25,26,26,27,27,28,28,29,29,31,31,34,34,35,35,36,36,38,38,39,39,40,40,41,41,42,42],"right_children":[2,4,6,8,10,-1,12,14,16,18,20,22,24,26,28,30,32,34,36,-1,38,-1,-1,40,42,44,46,48,50,52,-1,54,-1,-1,56,58,60,-1,62,64,66,68,70,-1,-1,-1,-1,-1,-1,-1,-1,-1,-1,-1,-1,-1,-1,-1,-1,-1,-1,-1,-1,-1,-1,-1,-1,-1,-1,-1,-1],"split_conditions":[1.06626E2,9.2100006E1,1.07552505E2,8.9360504E1,3.919723E-4,4.7326438E4,1.08490005E2,8.4685E1,9.1405E1,9.5533005E1,9.3455E1,3.5E0,2.5E0,1.5361794E5,8.511E1,1.3491016E3,6.5E0,3.8585754E-4,2.565E2,2.7574266E4,8.888578E2,-2.9918477E4,-7.5165625E3,9.4945874E2,1.4020801E2,1.5325E1,1.9012988E5,2.18E2,8.605499E1,9.03825E1,9.056884E4,1.5291762E5,-2.7576453E4,-6.448165E4,3.802503E5,3.5000002E-1,9.717E1,-9.022786E3,9.641267E2,9.48756E2,3.8966668E-1,3.5598024E-4,1.4809E2,1.0024295E1,-1.8719254E3,1.3409334E4,6.721397E2,-3.0699523E4,6.8895547E3,6.4625103E3,-4.8033853E3,1.8665213E4,-3.5651348E3,-1.1330449E3,4.8674194E3,-2.0574268E4,7.781047E3,3.2756396E4,-2.9059043E3,-1.3271459E3,-2.6000635E4,1.1384458E4,-4.257659E3,1.9717819E2,3.8588434E4,-1.3345365E4,-5.49122E2,2.7683994E4,1.5365415E3,-2.7432977E4,3.607737E3],"split_indices":[2,2,2,2,8,0,2,2,2,2,2,1,1,7,2,6,1,9,0,0,6,0,0,7,2,3,6,0,2,2,0,5,0,0,5,4,2,0,6,6,3,8,2,0,0,0,0,0,0,0,0,0,0,0,0,0,0,0,0,0,0,0,0,0,0,0,0,0,0,0,0],"split_type":[0,0,0,0,0,0,0,0,0,0,0,0,0,0,0,0,0,0,0,0,0,0,0,0,0,0,0,0,0,0,0,0,0,0,0,0,0,0,0,0,0,0,0,0,0,0,0,0,0,0,0,0,0,0,0,0,0,0,0,0,0,0,0,0,0,0,0,0,0,0,0],"sum_hessian":[2.5672E4,2.5367E4,3.05E2,2.5314E4,5.3E1,3E0,3.02E2,2.5291E4,2.3E1,3.9E1,1.4E1,3E0,2.99E2,2.5265E4,2.6E1,7E0,1.6E1,1.1E1,2.8E1,1E0,1.3E1,1E0,2E0,2.15E2,8.4E1,2.5102E4,1.63E2,4E0,2.2E1,5E0,2E0,1.4E1,2E0,4E0,7E0,1.7E1,1.1E1,2E0,1.1E1,3.1E1,1.84E2,2.3E1,6.1E1,2.4862E4,2.4E2,2E1,1.43E2,3E0,1E0,5E0,1.7E1,2E0,3E0,1E0,1.3E1,6E0,1E0,2E0,1.5E1,2E0,9E0,8E0,3E0,2.5E1,6E0,2.3E1,1.61E2,1.1E1,1.2E1,3E0,